,0
0,-274
1,-276
2,-278
3,-277
4,-273
5,-274
6,-276
7,-279
8,-278
9,-275
10,-274
11,-276
12,-278
13,-277
14,-275
15,-274
16,-277
17,-278
18,-278
19,-275
20,-275
21,-278
22,-279
23,-277
24,-275
25,-274
26,-275
27,-278
28,-278
29,-275
30,-274
31,-276
32,-279
33,-278
34,-275
35,-274
36,-276
37,-279
38,-278
39,-275
40,-275
41,-276
42,-278
43,-278
44,-276
45,-274
46,-275
47,-279
48,-278
49,-275
50,-274
51,-275
52,-278
53,-277
54,-275
55,-275
56,-275
57,-279
58,-278
59,-275
60,-275
61,-275
62,-278
63,-278
64,-276
65,-274
66,-276
67,-278
68,-278
69,-276
70,-274
71,-275
72,-278
73,-278
74,-276
75,-274
76,-276
77,-279
78,-279
79,-276
80,-275
81,-276
82,-278
83,-278
84,-276
85,-275
86,-276
87,-278
88,-278
89,-275
90,-275
91,-276
92,-278
93,-279
94,-275
95,-274
96,-275
97,-278
98,-279
99,-276
100,-275
101,-275
102,-278
103,-278
104,-276
105,-274
106,-275
107,-277
108,-279
109,-276
110,-275
111,-275
112,-279
113,-279
114,-275
115,-274
116,-275
117,-278
118,-279
119,-277
120,-274
121,-276
122,-279
123,-278
124,-277
125,-274
126,-275
127,-277
128,-278
129,-276
130,-275
131,-275
132,-278
133,-278
134,-277
135,-274
136,-275
137,-277
138,-278
139,-277
140,-275
141,-275
142,-278
143,-278
144,-277
145,-274
146,-275
147,-278
148,-277
149,-276
150,-275
151,-274
152,-277
153,-278
154,-277
155,-274
156,-275
157,-278
158,-278
159,-277
160,-274
161,-275
162,-278
163,-278
164,-277
165,-275
166,-275
167,-278
168,-278
169,-277
170,-275
171,-275
172,-276
173,-278
174,-276
175,-275
176,-275
177,-277
178,-278
179,-277
180,-275
181,-275
182,-277
183,-278
184,-277
185,-273
186,-275
187,-277
188,-279
189,-277
190,-274
191,-275
192,-276
193,-278
194,-277
195,-274
196,-275
197,-277
198,-279
199,-277
200,-274
201,-274
202,-277
203,-278
204,-277
205,-274
206,-274
207,-277
208,-279
209,-277
210,-275
211,-275
212,-277
213,-278
214,-277
215,-275
216,-275
217,-276
218,-279
219,-277
220,-274
221,-274
222,-276
223,-278
224,-276
225,-275
226,-275
227,-277
228,-278
229,-277
230,-276
231,-275
232,-278
233,-278
234,-277
235,-275
236,-274
237,-277
238,-278
239,-277
240,-275
241,-273
242,-276
243,-280
244,-277
245,-275
246,-274
247,-277
248,-278
249,-277
250,-274
251,-274
252,-276
253,-280
254,-278
255,-275
256,-274
257,-276
258,-278
259,-277
260,-274
261,-274
262,-276
263,-279
264,-277
265,-275
266,-274
267,-276
268,-278
269,-278
270,-275
271,-274
272,-275
273,-278
274,-278
275,-275
276,-274
277,-276
278,-278
279,-277
280,-275
281,-274
282,-276
283,-278
284,-277
285,-275
286,-273
287,-276
288,-278
289,-279
290,-275
291,-274
292,-276
293,-278
294,-277
295,-276
296,-274
297,-276
298,-278
299,-278
300,-276
301,-274
302,-275
303,-279
304,-277
305,-275
306,-274
307,-274
308,-278
309,-278
310,-274
311,-275
312,-275
313,-279
314,-277
315,-275
316,-274
317,-275
318,-278
319,-278
320,-276
321,-274
322,-276
323,-277
324,-278
325,-275
326,-274
327,-274
328,-278
329,-277
330,-275
331,-273
332,-275
333,-278
334,-277
335,-275
336,-273
337,-275
338,-278
339,-278
340,-276
341,-274
342,-275
343,-278
344,-279
345,-275
346,-274
347,-275
348,-278
349,-278
350,-276
351,-274
352,-275
353,-278
354,-278
355,-276
356,-274
357,-275
358,-277
359,-278
360,-276
361,-273
362,-275
363,-277
364,-278
365,-277
366,-274
367,-275
368,-277
369,-278
370,-276
371,-274
372,-275
373,-277
374,-278
375,-276
376,-274
377,-275
378,-279
379,-278
380,-277
381,-274
382,-274
383,-277
384,-278
385,-277
386,-274
387,-274
388,-278
389,-279
390,-277
391,-274
392,-275
393,-278
394,-278
395,-276
396,-274
397,-275
398,-278
399,-278
400,-276
401,-275
402,-275
403,-278
404,-278
405,-276
406,-273
407,-274
408,-278
409,-279
410,-277
411,-274
412,-275
413,-279
414,-278
415,-276
416,-274
417,-275
418,-277
419,-278
420,-276
421,-274
422,-274
423,-277
424,-277
425,-276
426,-274
427,-274
428,-276
429,-278
430,-277
431,-273
432,-274
433,-277
434,-278
435,-277
436,-274
437,-273
438,-276
439,-278
440,-277
441,-274
442,-274
443,-276
444,-278
445,-277
446,-274
447,-274
448,-277
449,-278
450,-278
451,-274
452,-274
453,-276
454,-278
455,-277
456,-275
457,-273
458,-276
459,-278
460,-276
461,-275
462,-273
463,-276
464,-278
465,-277
466,-275
467,-274
468,-276
469,-278
470,-278
471,-274
472,-273
473,-275
474,-278
475,-278
476,-275
477,-275
478,-276
479,-278
480,-277
481,-274
482,-274
483,-276
484,-277
485,-277
486,-275
487,-273
488,-276
489,-278
490,-277
491,-275
492,-273
493,-275
494,-277
495,-277
496,-275
497,-274
498,-276
499,-278
500,-276
501,-274
502,-273
503,-275
504,-278
505,-277
506,-275
507,-273
508,-275
509,-278
510,-277
511,-275
512,-274
513,-275
514,-278
515,-277
516,-276
517,-273
518,-274
519,-277
520,-277
521,-275
522,-273
523,-275
524,-278
525,-278
526,-275
527,-275
528,-275
529,-277
530,-278
531,-275
532,-275
533,-275
534,-278
535,-277
536,-275
537,-274
538,-275
539,-278
540,-278
541,-276
542,-274
543,-275
544,-278
545,-277
546,-275
547,-274
548,-275
549,-277
550,-277
551,-275
552,-274
553,-275
554,-277
555,-278
556,-275
557,-274
558,-275
559,-278
560,-278
561,-275
562,-273
563,-275
564,-278
565,-278
566,-276
567,-274
568,-274
569,-278
570,-278
571,-276
572,-274
573,-275
574,-277
575,-277
576,-276
577,-274
578,-275
579,-276
580,-277
581,-277
582,-274
583,-275
584,-277
585,-278
586,-276
587,-274
588,-274
589,-278
590,-277
591,-275
592,-273
593,-274
594,-277
595,-278
596,-276
597,-274
598,-274
599,-278
600,-278
601,-276
602,-274
603,-274
604,-277
605,-277
606,-276
607,-273
608,-274
609,-277
610,-278
611,-277
612,-274
613,-274
614,-276
615,-277
616,-277
617,-273
618,-275
619,-277
620,-278
621,-277
622,-273
623,-274
624,-277
625,-278
626,-275
627,-274
628,-274
629,-276
630,-277
631,-276
632,-273
633,-274
634,-276
635,-277
636,-277
637,-274
638,-274
639,-276
640,-277
641,-276
642,-273
643,-274
644,-276
645,-277
646,-276
647,-275
648,-274
649,-275
650,-277
651,-276
652,-273
653,-274
654,-275
655,-278
656,-278
657,-273
658,-273
659,-275
660,-278
661,-276
662,-273
663,-273
664,-275
665,-277
666,-276
667,-274
668,-272
669,-276
670,-277
671,-276
672,-274
673,-274
674,-276
675,-278
676,-276
677,-274
678,-273
679,-276
680,-279
681,-277
682,-274
683,-273
684,-275
685,-277
686,-276
687,-273
688,-272
689,-275
690,-278
691,-277
692,-274
693,-273
694,-275
695,-277
696,-276
697,-275
698,-274
699,-274
700,-277
701,-277
702,-274
703,-273
704,-274
705,-277
706,-277
707,-275
708,-273
709,-274
710,-278
711,-277
712,-275
713,-273
714,-273
715,-277
716,-277
717,-275
718,-272
719,-274
720,-277
721,-276
722,-275
723,-273
724,-275
725,-277
726,-276
727,-274
728,-273
729,-274
730,-277
731,-277
732,-275
733,-273
734,-275
735,-277
736,-278
737,-275
738,-273
739,-274
740,-277
741,-277
742,-275
743,-273
744,-274
745,-277
746,-278
747,-274
748,-273
749,-273
750,-277
751,-278
752,-275
753,-273
754,-274
755,-278
756,-277
757,-275
758,-273
759,-274
760,-277
761,-276
762,-275
763,-274
764,-274
765,-276
766,-278
767,-276
768,-274
769,-274
770,-276
771,-278
772,-276
773,-273
774,-275
775,-276
776,-277
777,-275
778,-273
779,-273
780,-276
781,-278
782,-275
783,-273
784,-274
785,-276
786,-277
787,-276
788,-274
789,-275
790,-277
791,-278
792,-276
793,-274
794,-273
795,-276
796,-277
797,-276
798,-273
799,-274
800,-276
801,-277
802,-276
803,-273
804,-273
805,-276
806,-277
807,-276
808,-274
809,-274
810,-277
811,-278
812,-276
813,-274
814,-273
815,-276
816,-277
817,-275
818,-274
819,-273
820,-276
821,-278
822,-276
823,-273
824,-274
825,-276
826,-276
827,-276
828,-274
829,-273
830,-276
831,-277
832,-275
833,-274
834,-274
835,-276
836,-278
837,-275
838,-274
839,-274
840,-276
841,-278
842,-277
843,-274
844,-274
845,-276
846,-277
847,-275
848,-274
849,-273
850,-276
851,-278
852,-278
853,-274
854,-275
855,-275
856,-277
857,-277
858,-274
859,-273
860,-274
861,-278
862,-277
863,-274
864,-273
865,-274
866,-277
867,-277
868,-274
869,-274
870,-275
871,-278
872,-277
873,-274
874,-273
875,-275
876,-277
877,-277
878,-274
879,-273
880,-274
881,-278
882,-276
883,-275
884,-273
885,-275
886,-277
887,-278
888,-275
889,-273
890,-275
891,-278
892,-277
893,-274
894,-272
895,-274
896,-277
897,-276
898,-274
899,-273
900,-275
901,-278
902,-277
903,-276
904,-273
905,-274
906,-277
907,-277
908,-275
909,-274
910,-274
911,-277
912,-278
913,-275
914,-273
915,-275
916,-277
917,-278
918,-275
919,-272
920,-274
921,-277
922,-278
923,-275
924,-273
925,-275
926,-277
927,-278
928,-276
929,-274
930,-274
931,-277
932,-278
933,-275
934,-274
935,-274
936,-277
937,-278
938,-275
939,-273
940,-273
941,-277
942,-277
943,-276
944,-274
945,-275
946,-277
947,-278
948,-276
949,-273
950,-274
951,-276
952,-278
953,-276
954,-274
955,-274
956,-276
957,-278
958,-276
959,-274
960,-274
961,-277
962,-278
963,-276
964,-273
965,-274
966,-277
967,-278
968,-276
969,-274
970,-274
971,-277
972,-277
973,-276
974,-274
975,-273
976,-277
977,-278
978,-276
979,-274
980,-274
981,-277
982,-278
983,-276
984,-273
985,-274
986,-277
987,-278
988,-276
989,-274
990,-273
991,-276
992,-278
993,-276
994,-274
995,-274
996,-276
997,-278
998,-277
999,-274
1000,-274
1001,-276
1002,-277
1003,-277
1004,-274
1005,-273
1006,-276
1007,-278
1008,-276
1009,-274
1010,-274
1011,-275
1012,-278
1013,-278
1014,-274
1015,-275
1016,-276
1017,-278
1018,-277
1019,-274
1020,-273
1021,-276
1022,-278
1023,-277
1024,-274
1025,-274
1026,-276
1027,-277
1028,-276
1029,-275
1030,-273
1031,-275
1032,-278
1033,-277
1034,-275
1035,-274
1036,-275
1037,-277
1038,-277
1039,-274
1040,-273
1041,-275
1042,-278
1043,-277
1044,-274
1045,-273
1046,-275
1047,-277
1048,-276
1049,-275
1050,-273
1051,-274
1052,-278
1053,-277
1054,-274
1055,-274
1056,-275
1057,-278
1058,-277
1059,-275
1060,-273
1061,-275
1062,-277
1063,-277
1064,-274
1065,-274
1066,-275
1067,-277
1068,-277
1069,-274
1070,-273
1071,-274
1072,-277
1073,-278
1074,-274
1075,-273
1076,-275
1077,-277
1078,-278
1079,-275
1080,-272
1081,-274
1082,-277
1083,-277
1084,-275
1085,-274
1086,-274
1087,-278
1088,-277
1089,-274
1090,-273
1091,-274
1092,-277
1093,-277
1094,-275
1095,-273
1096,-275
1097,-277
1098,-277
1099,-275
1100,-273
1101,-275
1102,-277
1103,-277
1104,-275
1105,-273
1106,-274
1107,-276
1108,-276
1109,-275
1110,-273
1111,-274
1112,-276
1113,-277
1114,-276
1115,-273
1116,-275
1117,-277
1118,-277
1119,-275
1120,-273
1121,-274
1122,-276
1123,-278
1124,-276
1125,-273
1126,-273
1127,-277
1128,-277
1129,-275
1130,-273
1131,-274
1132,-277
1133,-278
1134,-276
1135,-274
1136,-274
1137,-276
1138,-277
1139,-275
1140,-274
1141,-274
1142,-276
1143,-278
1144,-276
1145,-274
1146,-275
1147,-277
1148,-277
1149,-276
1150,-274
1151,-273
1152,-276
1153,-278
1154,-277
1155,-273
1156,-274
1157,-277
1158,-277
1159,-276
1160,-274
1161,-274
1162,-276
1163,-278
1164,-277
1165,-274
1166,-274
1167,-276
1168,-277
1169,-276
1170,-274
1171,-274
1172,-276
1173,-278
1174,-276
1175,-273
1176,-274
1177,-275
1178,-278
1179,-276
1180,-273
1181,-273
1182,-276
1183,-277
1184,-277
1185,-274
1186,-273
1187,-276
1188,-278
1189,-276
1190,-273
1191,-273
1192,-275
1193,-277
1194,-276
1195,-274
1196,-274
1197,-276
1198,-278
1199,-277
1200,-274
1201,-272
1202,-275
1203,-279
1204,-276
1205,-274
1206,-273
1207,-276
1208,-278
1209,-276
1210,-273
1211,-275
1212,-277
1213,-277
1214,-275
1215,-273
1216,-275
1217,-278
1218,-277
1219,-275
1220,-273
1221,-275
1222,-278
1223,-277
1224,-273
1225,-274
1226,-275
1227,-278
1228,-275
1229,-275
1230,-274
1231,-275
1232,-278
1233,-276
1234,-274
1235,-273
1236,-274
1237,-278
1238,-277
1239,-275
1240,-273
1241,-275
1242,-277
1243,-277
1244,-275
1245,-273
1246,-275
1247,-277
1248,-277
1249,-274
1250,-273
1251,-275
1252,-277
1253,-277
1254,-275
1255,-273
1256,-275
1257,-278
1258,-276
1259,-275
1260,-273
1261,-274
1262,-277
1263,-277
1264,-275
1265,-273
1266,-274
1267,-278
1268,-278
1269,-274
1270,-273
1271,-274
1272,-277
1273,-277
1274,-275
1275,-274
1276,-275
1277,-277
1278,-277
1279,-274
1280,-273
1281,-275
1282,-278
1283,-278
1284,-275
1285,-273
1286,-275
1287,-277
1288,-278
1289,-274
1290,-273
1291,-274
1292,-276
1293,-278
1294,-275
1295,-273
1296,-273
1297,-277
1298,-277
1299,-276
1300,-273
1301,-275
1302,-277
1303,-277
1304,-275
1305,-274
1306,-273
1307,-277
1308,-278
1309,-275
1310,-274
1311,-275
1312,-277
1313,-278
1314,-276
1315,-273
1316,-274
1317,-277
1318,-278
1319,-276
1320,-273
1321,-273
1322,-277
1323,-277
1324,-275
1325,-273
1326,-274
1327,-276
1328,-276
1329,-275
1330,-274
1331,-274
1332,-276
1333,-278
1334,-277
1335,-273
1336,-275
1337,-276
1338,-277
1339,-275
1340,-273
1341,-274
1342,-276
1343,-278
1344,-275
1345,-273
1346,-274
1347,-276
1348,-278
1349,-276
1350,-274
1351,-274
1352,-277
1353,-278
1354,-276
1355,-274
1356,-273
1357,-277
1358,-278
1359,-276
1360,-275
1361,-273
1362,-277
1363,-277
1364,-277
1365,-274
1366,-275
1367,-276
1368,-277
1369,-275
1370,-273
1371,-275
1372,-277
1373,-277
1374,-276
1375,-273
1376,-273
1377,-276
1378,-278
1379,-277
1380,-274
1381,-274
1382,-276
1383,-278
1384,-276
1385,-273
1386,-273
1387,-275
1388,-276
1389,-277
1390,-274
1391,-274
1392,-276
1393,-277
1394,-277
1395,-274
1396,-274
1397,-276
1398,-278
1399,-277
1400,-274
1401,-274
1402,-275
1403,-278
1404,-277
1405,-274
1406,-274
1407,-276
1408,-278
1409,-277
1410,-274
1411,-274
1412,-275
1413,-278
1414,-275
1415,-274
1416,-273
1417,-275
1418,-277
1419,-277
1420,-273
1421,-274
1422,-275
1423,-277
1424,-276
1425,-274
1426,-273
1427,-275
1428,-278
1429,-276
1430,-274
1431,-273
1432,-275
1433,-277
1434,-276
1435,-274
1436,-272
1437,-275
1438,-278
1439,-276
1440,-274
1441,-273
1442,-275
1443,-278
1444,-277
1445,-274
1446,-272
1447,-274
1448,-277
1449,-277
1450,-274
1451,-273
1452,-275
1453,-277
1454,-277
1455,-274
1456,-272
1457,-275
1458,-278
1459,-277
1460,-273
1461,-273
1462,-275
1463,-277
1464,-277
1465,-274
1466,-273
1467,-275
1468,-276
1469,-277
1470,-274
1471,-273
1472,-274
1473,-277
1474,-277
1475,-274
1476,-273
1477,-275
1478,-277
1479,-276
1480,-274
1481,-273
1482,-274
1483,-277
1484,-277
1485,-274
1486,-273
1487,-274
1488,-276
1489,-276
1490,-274
1491,-274
1492,-274
1493,-276
1494,-277
1495,-274
1496,-273
1497,-274
1498,-277
1499,-276
1500,-274
1501,-273
1502,-274
1503,-277
1504,-276
1505,-275
1506,-273
1507,-274
1508,-276
1509,-277
1510,-275
1511,-273
1512,-274
1513,-277
1514,-277
1515,-275
1516,-272
1517,-274
1518,-276
1519,-276
1520,-275
1521,-272
1522,-275
1523,-276
1524,-276
1525,-274
1526,-272
1527,-274
1528,-277
1529,-277
1530,-274
1531,-273
1532,-274
1533,-277
1534,-277
1535,-274
1536,-273
1537,-273
1538,-277
1539,-277
1540,-275
1541,-273
1542,-274
1543,-277
1544,-277
1545,-275
1546,-272
1547,-274
1548,-276
1549,-277
1550,-275
1551,-273
1552,-273
1553,-277
1554,-277
1555,-275
1556,-272
1557,-273
1558,-277
1559,-277
1560,-275
1561,-273
1562,-273
1563,-277
1564,-276
1565,-275
1566,-272
1567,-272
1568,-275
1569,-276
1570,-275
1571,-273
1572,-273
1573,-276
1574,-278
1575,-276
1576,-273
1577,-273
1578,-275
1579,-276
1580,-275
1581,-272
1582,-274
1583,-276
1584,-278
1585,-275
1586,-274
1587,-273
1588,-275
1589,-277
1590,-275
1591,-273
1592,-273
1593,-275
1594,-278
1595,-275
1596,-273
1597,-273
1598,-276
1599,-277
1600,-275
1601,-272
1602,-272
1603,-276
1604,-278
1605,-278
1606,-274
1607,-273
1608,-275
1609,-277
1610,-275
1611,-272
1612,-272
1613,-275
1614,-277
1615,-276
1616,-274
1617,-274
1618,-277
1619,-277
1620,-275
1621,-272
1622,-273
1623,-276
1624,-275
1625,-276
1626,-274
1627,-274
1628,-275
1629,-278
1630,-276
1631,-273
1632,-272
1633,-276
1634,-277
1635,-276
1636,-274
1637,-273
1638,-276
1639,-278
1640,-276
1641,-273
1642,-273
1643,-276
1644,-276
1645,-275
1646,-273
1647,-273
1648,-275
1649,-278
1650,-275
1651,-273
1652,-272
1653,-275
1654,-277
1655,-276
1656,-272
1657,-272
1658,-275
1659,-275
1660,-276
1661,-274
1662,-273
1663,-276
1664,-278
1665,-276
1666,-273
1667,-271
1668,-274
1669,-276
1670,-276
1671,-273
1672,-274
1673,-275
1674,-278
1675,-277
1676,-274
1677,-273
1678,-274
1679,-276
1680,-276
1681,-273
1682,-272
1683,-275
1684,-278
1685,-277
1686,-274
1687,-273
1688,-276
1689,-276
1690,-275
1691,-273
1692,-272
1693,-274
1694,-277
1695,-277
1696,-274
1697,-273
1698,-275
1699,-278
1700,-275
1701,-273
1702,-272
1703,-275
1704,-277
1705,-276
1706,-273
1707,-273
1708,-275
1709,-277
1710,-276
1711,-273
1712,-272
1713,-274
1714,-276
1715,-277
1716,-273
1717,-273
1718,-275
1719,-277
1720,-276
1721,-274
1722,-272
1723,-274
1724,-277
1725,-276
1726,-273
1727,-272
1728,-275
1729,-277
1730,-276
1731,-274
1732,-273
1733,-274
1734,-276
1735,-277
1736,-274
1737,-272
1738,-274
1739,-277
1740,-276
1741,-274
1742,-273
1743,-275
1744,-276
1745,-276
1746,-273
1747,-272
1748,-274
1749,-276
1750,-277
1751,-276
1752,-274
1753,-274
1754,-277
1755,-276
1756,-273
1757,-272
1758,-273
1759,-277
1760,-277
1761,-275
1762,-274
1763,-276
1764,-277
1765,-275
1766,-273
1767,-273
1768,-273
1769,-276
1770,-275
1771,-275
1772,-274
1773,-275
1774,-279
1775,-278
1776,-274
1777,-273
1778,-273
1779,-275
1780,-274
1781,-273
1782,-272
1783,-274
1784,-278
1785,-278
1786,-275
1787,-272
1788,-273
1789,-276
1790,-276
1791,-274
1792,-271
1793,-274
1794,-277
1795,-278
1796,-275
1797,-273
1798,-274
1799,-277
1800,-277
1801,-273
1802,-270
1803,-273
1804,-277
1805,-279
1806,-276
1807,-273
1808,-274
1809,-276
1810,-276
1811,-272
1812,-270
1813,-273
1814,-276
1815,-276
1816,-275
1817,-276
1818,-275
1819,-277
1820,-277
1821,-274
1822,-271
1823,-272
1824,-276
1825,-276
1826,-275
1827,-274
1828,-275
1829,-278
1830,-277
1831,-274
1832,-272
1833,-273
1834,-274
1835,-274
1836,-273
1837,-273
1838,-275
1839,-278
1840,-278
1841,-276
1842,-273
1843,-273
1844,-275
1845,-275
1846,-273
1847,-271
1848,-274
1849,-278
1850,-278
1851,-276
1852,-273
1853,-275
1854,-276
1855,-276
1856,-272
1857,-270
1858,-273
1859,-277
1860,-277
1861,-275
1862,-274
1863,-275
1864,-277
1865,-278
1866,-273
1867,-271
1868,-273
1869,-275
1870,-275
1871,-274
1872,-274
1873,-275
1874,-278
1875,-277
1876,-274
1877,-271
1878,-273
1879,-274
1880,-275
1881,-274
1882,-273
1883,-275
1884,-279
1885,-278
1886,-276
1887,-274
1888,-273
1889,-275
1890,-276
1891,-273
1892,-272
1893,-274
1894,-276
1895,-278
1896,-277
1897,-272
1898,-274
1899,-275
1900,-276
1901,-273
1902,-272
1903,-272
1904,-276
1905,-277
1906,-276
1907,-274
1908,-274
1909,-277
1910,-276
1911,-275
1912,-272
1913,-272
1914,-275
1915,-276
1916,-276
1917,-274
1918,-275
1919,-277
1920,-277
1921,-275
1922,-271
1923,-273
1924,-275
1925,-275
1926,-274
1927,-272
1928,-274
1929,-277
1930,-277
1931,-275
1932,-272
1933,-272
1934,-275
1935,-275
1936,-274
1937,-272
1938,-274
1939,-276
1940,-278
1941,-276
1942,-274
1943,-274
1944,-276
1945,-276
1946,-274
1947,-271
1948,-272
1949,-275
1950,-277
1951,-276
1952,-273
1953,-275
1954,-276
1955,-276
1956,-274
1957,-271
1958,-272
1959,-275
1960,-276
1961,-275
1962,-274
1963,-274
1964,-277
1965,-277
1966,-275
1967,-272
1968,-272
1969,-274
1970,-276
1971,-275
1972,-272
1973,-274
1974,-277
1975,-278
1976,-276
1977,-273
1978,-273
1979,-276
1980,-276
1981,-275
1982,-271
1983,-274
1984,-276
1985,-278
1986,-276
1987,-273
1988,-274
1989,-276
1990,-276
1991,-274
1992,-272
1993,-272
1994,-276
1995,-277
1996,-277
1997,-274
1998,-275
1999,-276
2000,-277
2001,-274
2002,-271
2003,-272
2004,-274
2005,-277
2006,-276
2007,-273
2008,-274
2009,-277
2010,-278
2011,-275
2012,-272
2013,-271
2014,-274
2015,-276
2016,-274
2017,-272
2018,-273
2019,-276
2020,-277
2021,-275
2022,-273
2023,-272
2024,-275
2025,-275
2026,-274
2027,-272
2028,-273
2029,-275
2030,-278
2031,-275
2032,-272
2033,-273
2034,-275
2035,-276
2036,-273
2037,-271
2038,-272
2039,-275
2040,-277
2041,-276
2042,-274
2043,-274
2044,-275
2045,-277
2046,-274
2047,-272
2048,-272
2049,-274
2050,-276
2051,-275
2052,-274
2053,-273
2054,-275
2055,-277
2056,-274
2057,-271
2058,-272
2059,-275
2060,-276
2061,-274
2062,-273
2063,-273
2064,-276
2065,-278
2066,-276
2067,-273
2068,-271
2069,-274
2070,-276
2071,-274
2072,-272
2073,-272
2074,-276
2075,-277
2076,-276
2077,-273
2078,-273
2079,-274
2080,-275
2081,-273
2082,-272
2083,-272
2084,-275
2085,-276
2086,-275
2087,-274
2088,-272
2089,-275
2090,-276
2091,-275
2092,-271
2093,-272
2094,-274
2095,-276
2096,-275
2097,-272
2098,-273
2099,-275
2100,-277
2101,-275
2102,-273
2103,-270
2104,-274
2105,-275
2106,-274
2107,-273
2108,-273
2109,-275
2110,-276
2111,-274
2112,-272
2113,-272
2114,-274
2115,-276
2116,-275
2117,-271
2118,-272
2119,-274
2120,-277
2121,-276
2122,-272
2123,-272
2124,-274
2125,-275
2126,-274
2127,-272
2128,-271
2129,-274
2130,-275
2131,-275
2132,-273
2133,-272
2134,-274
2135,-275
2136,-274
2137,-271
2138,-271
2139,-272
2140,-275
2141,-275
2142,-273
2143,-272
2144,-275
2145,-276
2146,-275
2147,-272
2148,-270
2149,-272
2150,-275
2151,-274
2152,-273
2153,-272
2154,-275
2155,-276
2156,-275
2157,-272
2158,-272
2159,-272
2160,-275
2161,-273
2162,-272
2163,-272
2164,-274
2165,-277
2166,-275
2167,-273
2168,-272
2169,-273
2170,-275
2171,-274
2172,-271
2173,-271
2174,-274
2175,-276
2176,-274
2177,-272
2178,-272
2179,-273
2180,-275
2181,-274
2182,-271
2183,-271
2184,-272
2185,-276
2186,-275
2187,-273
2188,-272
2189,-273
2190,-275
2191,-274
2192,-271
2193,-271
2194,-272
2195,-275
2196,-275
2197,-272
2198,-272
2199,-274
2200,-277
2201,-275
2202,-272
2203,-271
2204,-273
2205,-276
2206,-274
2207,-272
2208,-271
2209,-273
2210,-276
2211,-275
2212,-272
2213,-272
2214,-273
2215,-275
2216,-275
2217,-271
2218,-271
2219,-273
2220,-275
2221,-275
2222,-273
2223,-271
2224,-274
2225,-275
2226,-273
2227,-271
2228,-270
2229,-272
2230,-276
2231,-275
2232,-272
2233,-272
2234,-274
2235,-276
2236,-274
2237,-272
2238,-270
2239,-272
2240,-275
2241,-275
2242,-272
2243,-272
2244,-273
2245,-275
2246,-275
2247,-272
2248,-271
2249,-272
2250,-276
2251,-274
2252,-272
2253,-271
2254,-273
2255,-276
2256,-275
2257,-272
2258,-271
2259,-273
2260,-274
2261,-273
2262,-272
2263,-270
2264,-273
2265,-275
2266,-275
2267,-272
2268,-272
2269,-273
2270,-275
2271,-274
2272,-271
2273,-271
2274,-272
2275,-276
2276,-274
2277,-273
2278,-272
2279,-274
2280,-276
2281,-275
2282,-272
2283,-270
2284,-272
2285,-275
2286,-274
2287,-272
2288,-271
2289,-273
2290,-275
2291,-275
2292,-272
2293,-270
2294,-273
2295,-275
2296,-274
2297,-272
2298,-271
2299,-273
2300,-275
2301,-275
2302,-272
2303,-271
2304,-272
2305,-275
2306,-275
2307,-271
2308,-270
2309,-273
2310,-276
2311,-275
2312,-272
2313,-272
2314,-273
2315,-275
2316,-274
2317,-272
2318,-271
2319,-272
2320,-276
2321,-275
2322,-273
2323,-272
2324,-273
2325,-275
2326,-275
2327,-272
2328,-270
2329,-272
2330,-275
2331,-275
2332,-273
2333,-271
2334,-273
2335,-276
2336,-276
2337,-271
2338,-271
2339,-271
2340,-275
2341,-275
2342,-272
2343,-271
2344,-272
2345,-276
2346,-275
2347,-273
2348,-271
2349,-273
2350,-274
2351,-274
2352,-272
2353,-271
2354,-272
2355,-275
2356,-275
2357,-273
2358,-271
2359,-271
2360,-275
2361,-275
2362,-272
2363,-272
2364,-272
2365,-276
2366,-275
2367,-273
2368,-271
2369,-272
2370,-275
2371,-275
2372,-272
2373,-270
2374,-273
2375,-275
2376,-276
2377,-273
2378,-271
2379,-273
2380,-276
2381,-275
2382,-273
2383,-270
2384,-273
2385,-275
2386,-274
2387,-272
2388,-271
2389,-272
2390,-275
2391,-276
2392,-273
2393,-271
2394,-273
2395,-275
2396,-276
2397,-273
2398,-271
2399,-273
2400,-275
2401,-276
2402,-273
2403,-272
2404,-274
2405,-275
2406,-274
2407,-273
2408,-271
2409,-273
2410,-275
2411,-275
2412,-273
2413,-272
2414,-273
2415,-275
2416,-275
2417,-273
2418,-271
2419,-272
2420,-275
2421,-276
2422,-273
2423,-272
2424,-273
2425,-276
2426,-275
2427,-273
2428,-271
2429,-273
2430,-276
2431,-275
2432,-273
2433,-271
2434,-273
2435,-276
2436,-276
2437,-274
2438,-272
2439,-272
2440,-275
2441,-276
2442,-274
2443,-272
2444,-273
2445,-275
2446,-276
2447,-274
2448,-271
2449,-273
2450,-275
2451,-275
2452,-273
2453,-271
2454,-273
2455,-276
2456,-276
2457,-275
2458,-272
2459,-273
2460,-275
2461,-275
2462,-275
2463,-272
2464,-273
2465,-275
2466,-276
2467,-274
2468,-273
2469,-274
2470,-276
2471,-275
2472,-275
2473,-271
2474,-272
2475,-275
2476,-277
2477,-274
2478,-272
2479,-273
2480,-276
2481,-276
2482,-274
2483,-272
2484,-273
2485,-275
2486,-276
2487,-275
2488,-272
2489,-273
2490,-276
2491,-277
2492,-274
2493,-273
2494,-273
2495,-275
2496,-276
2497,-275
2498,-272
2499,-274
2500,-276
2501,-277
2502,-275
2503,-273
2504,-273
2505,-275
2506,-276
2507,-274
2508,-272
2509,-272
2510,-275
2511,-277
2512,-275
2513,-272
2514,-274
2515,-276
2516,-277
2517,-275
2518,-272
2519,-273
2520,-276
2521,-277
2522,-276
2523,-272
2524,-272
2525,-276
2526,-276
2527,-275
2528,-273
2529,-272
2530,-275
2531,-276
2532,-275
2533,-272
2534,-272
2535,-275
2536,-277
2537,-275
2538,-271
2539,-272
2540,-274
2541,-275
2542,-274
2543,-273
2544,-272
2545,-276
2546,-277
2547,-276
2548,-273
2549,-273
2550,-275
2551,-277
2552,-275
2553,-273
2554,-272
2555,-275
2556,-276
2557,-274
2558,-273
2559,-273
2560,-275
2561,-276
2562,-275
2563,-272
2564,-272
2565,-275
2566,-276
2567,-275
2568,-272
2569,-273
2570,-274
2571,-276
2572,-275
2573,-273
2574,-272
2575,-275
2576,-276
2577,-276
2578,-272
2579,-273
2580,-275
2581,-277
2582,-275
2583,-272
2584,-272
2585,-275
2586,-277
2587,-275
2588,-273
2589,-273
2590,-275
2591,-277
2592,-275
2593,-272
2594,-272
2595,-274
2596,-276
2597,-276
2598,-273
2599,-272
2600,-275
2601,-277
2602,-276
2603,-273
2604,-272
2605,-274
2606,-277
2607,-275
2608,-272
2609,-272
2610,-274
2611,-276
2612,-275
2613,-272
2614,-273
2615,-274
2616,-276
2617,-275
2618,-274
2619,-272
2620,-274
2621,-277
2622,-275
2623,-273
2624,-271
2625,-275
2626,-276
2627,-276
2628,-273
2629,-272
2630,-274
2631,-277
2632,-275
2633,-273
2634,-271
2635,-273
2636,-277
2637,-276
2638,-274
2639,-272
2640,-273
2641,-276
2642,-276
2643,-273
2644,-272
2645,-274
2646,-277
2647,-277
2648,-274
2649,-272
2650,-274
2651,-276
2652,-275
2653,-273
2654,-272
2655,-274
2656,-277
2657,-275
2658,-273
2659,-273
2660,-274
2661,-277
2662,-276
2663,-273
2664,-272
2665,-273
2666,-276
2667,-276
2668,-274
2669,-272
2670,-274
2671,-276
2672,-276
2673,-274
2674,-272
2675,-274
2676,-276
2677,-277
2678,-274
2679,-273
2680,-273
2681,-276
2682,-276
2683,-274
2684,-272
2685,-273
2686,-277
2687,-277
2688,-273
2689,-274
2690,-273
2691,-276
2692,-277
2693,-274
2694,-272
2695,-273
2696,-276
2697,-277
2698,-274
2699,-272
2700,-274
2701,-276
2702,-277
2703,-274
2704,-272
2705,-273
2706,-276
2707,-276
2708,-274
2709,-273
2710,-274
2711,-277
2712,-276
2713,-275
2714,-271
2715,-273
2716,-276
2717,-276
2718,-274
2719,-272
2720,-273
2721,-275
2722,-278
2723,-275
2724,-272
2725,-274
2726,-276
2727,-277
2728,-274
2729,-272
2730,-274
2731,-277
2732,-277
2733,-275
2734,-273
2735,-273
2736,-277
2737,-277
2738,-275
2739,-273
2740,-274
2741,-275
2742,-276
2743,-275
2744,-272
2745,-273
2746,-276
2747,-276
2748,-274
2749,-272
2750,-273
2751,-276
2752,-277
2753,-275
2754,-273
2755,-274
2756,-275
2757,-277
2758,-276
2759,-272
2760,-273
2761,-275
2762,-277
2763,-276
2764,-272
2765,-272
2766,-275
2767,-277
2768,-275
2769,-272
2770,-273
2771,-276
2772,-277
2773,-275
2774,-272
2775,-273
2776,-275
2777,-276
2778,-275
2779,-273
2780,-273
2781,-276
2782,-277
2783,-275
2784,-273
2785,-273
2786,-275
2787,-276
2788,-276
2789,-273
2790,-273
2791,-276
2792,-277
2793,-275
2794,-273
2795,-272
2796,-275
2797,-277
2798,-275
2799,-273
2800,-273
2801,-275
2802,-277
2803,-275
2804,-273
2805,-273
2806,-275
2807,-277
2808,-276
2809,-274
2810,-273
2811,-274
2812,-276
2813,-276
2814,-274
2815,-273
2816,-275
2817,-277
2818,-275
2819,-274
2820,-272
2821,-274
2822,-276
2823,-277
2824,-273
2825,-273
2826,-276
2827,-277
2828,-276
2829,-273
2830,-272
2831,-274
2832,-276
2833,-275
2834,-274
2835,-272
2836,-274
2837,-277
2838,-276
2839,-274
2840,-272
2841,-274
2842,-277
2843,-276
2844,-273
2845,-272
2846,-273
2847,-276
2848,-276
2849,-274
2850,-272
2851,-273
2852,-276
2853,-277
2854,-273
2855,-273
2856,-274
2857,-276
2858,-276
2859,-273
2860,-272
2861,-273
2862,-277
2863,-276
2864,-274
2865,-271
2866,-274
2867,-276
2868,-277
2869,-274
2870,-272
2871,-275
2872,-276
2873,-276
2874,-274
2875,-272
2876,-273
2877,-277
2878,-276
2879,-274
2880,-272
2881,-274
2882,-277
2883,-276
2884,-273
2885,-272
2886,-272
2887,-276
2888,-277
2889,-275
2890,-272
2891,-274
2892,-276
2893,-277
2894,-273
2895,-273
2896,-273
2897,-276
2898,-275
2899,-274
2900,-273
2901,-272
2902,-277
2903,-276
2904,-276
2905,-272
2906,-273
2907,-276
2908,-276
2909,-275
2910,-273
2911,-274
2912,-276
2913,-277
2914,-275
2915,-272
2916,-273
2917,-276
2918,-276
2919,-275
2920,-271
2921,-273
2922,-277
2923,-277
2924,-275
2925,-274
2926,-273
2927,-276
2928,-277
2929,-275
2930,-273
2931,-273
2932,-275
2933,-276
2934,-275
2935,-273
2936,-274
2937,-276
2938,-277
2939,-276
2940,-273
2941,-273
2942,-276
2943,-276
2944,-275
2945,-272
2946,-273
2947,-275
2948,-277
2949,-275
2950,-272
2951,-273
2952,-276
2953,-277
2954,-275
2955,-273
2956,-273
2957,-275
2958,-277
2959,-275
2960,-273
2961,-273
2962,-276
2963,-276
2964,-275
2965,-272
2966,-273
2967,-276
2968,-277
2969,-275
2970,-273
2971,-273
2972,-275
2973,-277
2974,-275
2975,-272
2976,-273
2977,-275
2978,-276
2979,-275
2980,-273
2981,-272
2982,-275
2983,-277
2984,-275
2985,-273
2986,-273
2987,-276
2988,-278
2989,-276
2990,-274
2991,-273
2992,-275
2993,-277
2994,-275
2995,-272
2996,-272
2997,-274
2998,-276
2999,-275
3000,-273
3001,-272
3002,-275
3003,-276
3004,-275
3005,-273
3006,-273
3007,-275
3008,-277
3009,-276
3010,-273
3011,-272
3012,-275
3013,-278
3014,-276
3015,-274
3016,-272
3017,-275
3018,-276
3019,-275
3020,-273
3021,-273
3022,-275
3023,-277
3024,-276
3025,-273
3026,-273
3027,-275
3028,-277
3029,-276
3030,-273
3031,-272
3032,-274
3033,-276
3034,-276
3035,-274
3036,-273
3037,-275
3038,-278
3039,-275
3040,-273
3041,-273
3042,-274
3043,-276
3044,-275
3045,-274
3046,-275
3047,-278
3048,-276
3049,-273
3050,-272
3051,-274
3052,-276
3053,-276
3054,-273
3055,-273
3056,-274
3057,-277
3058,-277
3059,-274
3060,-272
3061,-274
3062,-277
3063,-275
3064,-273
3065,-272
3066,-275
3067,-278
3068,-276
3069,-274
3070,-273
3071,-273
3072,-277
3073,-276
3074,-274
3075,-272
3076,-273
3077,-276
3078,-276
3079,-275
3080,-274
3081,-274
3082,-276
3083,-276
3084,-274
3085,-272
3086,-273
3087,-276
3088,-277
3089,-274
3090,-273
3091,-274
3092,-278
3093,-276
3094,-274
3095,-273
3096,-273
3097,-278
3098,-276
3099,-274
3100,-272
3101,-274
3102,-277
3103,-277
3104,-274
3105,-272
3106,-274
3107,-276
3108,-277
3109,-274
3110,-272
3111,-274
3112,-276
3113,-276
3114,-275
3115,-273
3116,-274
3117,-277
3118,-277
3119,-274
3120,-273
3121,-274
3122,-277
3123,-277
3124,-274
3125,-273
3126,-274
3127,-276
3128,-276
3129,-274
3130,-272
3131,-274
3132,-276
3133,-276
3134,-274
3135,-273
3136,-274
3137,-277
3138,-277
3139,-275
3140,-273
3141,-274
3142,-277
3143,-276
3144,-274
3145,-273
3146,-274
3147,-276
3148,-278
3149,-275
3150,-273
3151,-275
3152,-276
3153,-277
3154,-275
3155,-273
3156,-274
3157,-277
3158,-277
3159,-274
3160,-273
3161,-274
3162,-275
3163,-277
3164,-274
3165,-273
3166,-274
3167,-277
3168,-277
3169,-275
3170,-273
3171,-274
3172,-277
3173,-277
3174,-275
3175,-272
3176,-274
3177,-277
3178,-277
3179,-275
3180,-273
3181,-273
3182,-277
3183,-277
3184,-276
3185,-272
3186,-274
3187,-275
3188,-278
3189,-276
3190,-273
3191,-274
3192,-277
3193,-278
3194,-275
3195,-272
3196,-273
3197,-276
3198,-277
3199,-275
3200,-274
3201,-273
3202,-277
3203,-278
3204,-277
3205,-273
3206,-273
3207,-276
3208,-277
3209,-277
3210,-273
3211,-274
3212,-277
3213,-277
3214,-276
3215,-274
3216,-274
3217,-276
3218,-278
3219,-276
3220,-273
3221,-274
3222,-276
3223,-278
3224,-277
3225,-274
3226,-274
3227,-276
3228,-277
3229,-277
3230,-274
3231,-274
3232,-276
3233,-278
3234,-276
3235,-274
3236,-274
3237,-276
3238,-278
3239,-276
3240,-273
3241,-273
3242,-277
3243,-278
3244,-276
3245,-273
3246,-274
3247,-276
3248,-278
3249,-276
3250,-274
3251,-274
3252,-276
3253,-278
3254,-277
3255,-274
3256,-274
3257,-276
3258,-278
3259,-277
3260,-274
3261,-274
3262,-277
3263,-278
3264,-277
3265,-275
3266,-275
3267,-276
3268,-278
3269,-277
3270,-275
3271,-274
3272,-276
3273,-278
3274,-276
3275,-274
3276,-274
3277,-276
3278,-278
3279,-277
3280,-274
3281,-274
3282,-276
3283,-278
3284,-277
3285,-274
3286,-274
3287,-275
3288,-278
3289,-277
3290,-275
3291,-274
3292,-276
3293,-278
3294,-278
3295,-275
3296,-274
3297,-275
3298,-278
3299,-277
3300,-274
3301,-274
3302,-276
3303,-278
3304,-276
3305,-275
3306,-274
3307,-277
3308,-278
3309,-277
3310,-275
3311,-274
3312,-275
3313,-278
3314,-278
3315,-275
3316,-274
3317,-275
3318,-278
3319,-277
3320,-274
3321,-274
3322,-276
3323,-278
3324,-277
3325,-274
3326,-274
3327,-275
3328,-278
3329,-278
3330,-275
3331,-273
3332,-275
3333,-278
3334,-277
3335,-275
3336,-274
3337,-276
3338,-279
3339,-277
3340,-275
3341,-274
3342,-275
3343,-278
3344,-278
3345,-275
3346,-274
3347,-275
3348,-278
3349,-277
3350,-275
3351,-274
3352,-275
3353,-278
3354,-277
3355,-274
3356,-273
3357,-275
3358,-278
3359,-278
3360,-275
3361,-274
3362,-274
3363,-278
3364,-278
3365,-275
3366,-273
3367,-275
3368,-278
3369,-277
3370,-275
3371,-274
3372,-275
3373,-278
3374,-278
3375,-275
3376,-274
3377,-275
3378,-277
3379,-278
3380,-275
3381,-274
3382,-275
3383,-278
3384,-277
3385,-274
3386,-274
3387,-274
3388,-277
3389,-278
3390,-275
3391,-273
3392,-275
3393,-278
3394,-277
3395,-276
3396,-274
3397,-274
3398,-277
3399,-278
3400,-276
3401,-273
3402,-275
3403,-278
3404,-278
3405,-277
3406,-274
3407,-274
3408,-277
3409,-278
3410,-276
3411,-274
3412,-275
3413,-278
3414,-278
3415,-276
3416,-274
3417,-275
3418,-278
3419,-278
3420,-276
3421,-274
3422,-274
3423,-277
3424,-278
3425,-276
3426,-274
3427,-275
3428,-278
3429,-278
3430,-277
3431,-274
3432,-275
3433,-277
3434,-277
3435,-275
3436,-274
3437,-275
3438,-278
3439,-278
3440,-276
3441,-273
3442,-274
3443,-277
3444,-277
3445,-276
3446,-274
3447,-275
3448,-278
3449,-279
3450,-276
3451,-274
3452,-275
3453,-276
3454,-278
3455,-276
3456,-274
3457,-275
3458,-278
3459,-278
3460,-276
3461,-274
3462,-275
3463,-278
3464,-278
3465,-277
3466,-274
3467,-274
3468,-277
3469,-278
3470,-277
3471,-274
3472,-275
3473,-277
3474,-278
3475,-277
3476,-275
3477,-274
3478,-276
3479,-278
3480,-276
3481,-275
3482,-275
3483,-278
3484,-278
3485,-276
3486,-274
3487,-275
3488,-278
3489,-278
3490,-277
3491,-275
3492,-275
3493,-277
3494,-279
3495,-277
3496,-274
3497,-274
3498,-276
3499,-278
3500,-277
3501,-274
3502,-275
3503,-277
3504,-278
3505,-277
3506,-274
3507,-274
3508,-277
3509,-278
3510,-277
3511,-274
3512,-275
3513,-276
3514,-279
3515,-277
3516,-274
3517,-274
3518,-276
3519,-277
3520,-278
3521,-273
3522,-274
3523,-277
3524,-279
3525,-277
3526,-274
3527,-275
3528,-276
3529,-279
3530,-277
3531,-274
3532,-274
3533,-276
3534,-278
3535,-277
3536,-274
3537,-275
3538,-277
3539,-279
3540,-277
3541,-275
3542,-275
3543,-276
3544,-278
3545,-277
3546,-275
3547,-273
3548,-275
3549,-277
3550,-277
3551,-275
3552,-274
3553,-276
3554,-278
3555,-278
3556,-275
3557,-275
3558,-276
3559,-279
3560,-277
3561,-275
3562,-274
3563,-276
3564,-278
3565,-277
3566,-275
3567,-274
3568,-275
3569,-278
3570,-277
3571,-275
3572,-274
3573,-275
3574,-279
3575,-277
3576,-275
3577,-273
3578,-275
3579,-278
3580,-278
3581,-274
3582,-274
3583,-275
3584,-278
3585,-278
3586,-275
3587,-274
3588,-275
3589,-278
3590,-278
3591,-275
3592,-274
3593,-276
3594,-279
3595,-276
3596,-275
3597,-274
3598,-275
3599,-278
3600,-277
3601,-276
3602,-274
3603,-276
3604,-278
3605,-277
3606,-275
3607,-274
3608,-275
3609,-278
3610,-278
3611,-275
3612,-274
3613,-276
3614,-278
3615,-278
3616,-276
3617,-274
3618,-275
3619,-279
3620,-278
3621,-275
3622,-274
3623,-275
3624,-278
3625,-278
3626,-275
3627,-274
3628,-275
3629,-279
3630,-278
3631,-275
3632,-274
3633,-275
3634,-277
3635,-278
3636,-275
3637,-275
3638,-275
3639,-278
3640,-279
3641,-275
3642,-274
3643,-275
3644,-278
3645,-278
3646,-276
3647,-274
3648,-275
3649,-278
3650,-278
3651,-275
3652,-274
3653,-275
3654,-278
3655,-278
3656,-276
3657,-274
3658,-275
3659,-278
3660,-278
3661,-276
3662,-274
3663,-274
3664,-278
3665,-278
3666,-276
3667,-274
3668,-276
3669,-278
3670,-278
3671,-276
3672,-274
3673,-275
3674,-278
3675,-278
3676,-276
3677,-274
3678,-275
3679,-278
3680,-278
3681,-276
3682,-275
3683,-275
3684,-277
3685,-277
3686,-276
3687,-274
3688,-275
3689,-277
3690,-279
3691,-276
3692,-273
3693,-274
3694,-278
3695,-278
3696,-276
3697,-274
3698,-274
3699,-278
3700,-278
3701,-277
3702,-274
3703,-275
3704,-277
3705,-278
3706,-277
3707,-273
3708,-274
3709,-278
3710,-278
3711,-276
3712,-274
3713,-275
3714,-278
3715,-278
3716,-276
3717,-275
3718,-275
3719,-277
3720,-278
3721,-277
3722,-274
3723,-274
3724,-278
3725,-278
3726,-277
3727,-274
3728,-275
3729,-277
3730,-278
3731,-277
3732,-274
3733,-275
3734,-277
3735,-278
3736,-277
3737,-274
3738,-274
3739,-278
3740,-279
3741,-276
3742,-274
3743,-274
3744,-278
3745,-278
3746,-277
3747,-274
3748,-275
3749,-277
3750,-278
3751,-275
3752,-274
3753,-275
3754,-277
3755,-278
3756,-276
3757,-274
3758,-275
3759,-277
3760,-279
3761,-276
3762,-274
3763,-274
3764,-277
3765,-278
3766,-276
3767,-274
3768,-274
3769,-277
3770,-278
3771,-277
3772,-274
3773,-275
3774,-277
3775,-278
3776,-276
3777,-273
3778,-274
3779,-277
3780,-279
3781,-277
3782,-275
3783,-274
3784,-276
3785,-278
3786,-276
3787,-274
3788,-274
3789,-276
3790,-278
3791,-277
3792,-274
3793,-274
3794,-276
3795,-278
3796,-276
3797,-273
3798,-275
3799,-276
3800,-278
3801,-276
3802,-274
3803,-273
3804,-276
3805,-278
3806,-277
3807,-274
3808,-273
3809,-276
3810,-278
3811,-277
3812,-274
3813,-275
3814,-276
3815,-278
3816,-276
3817,-273
3818,-273
3819,-276
3820,-277
3821,-276
3822,-274
3823,-274
3824,-276
3825,-278
3826,-277
3827,-274
3828,-273
3829,-275
3830,-277
3831,-276
3832,-273
3833,-274
3834,-275
3835,-278
3836,-277
3837,-274
3838,-273
3839,-276
3840,-278
3841,-277
3842,-274
3843,-273
3844,-276
3845,-278
3846,-276
3847,-274
3848,-273
3849,-276
3850,-278
3851,-277
3852,-273
3853,-274
3854,-275
3855,-278
3856,-277
3857,-274
3858,-274
3859,-276
3860,-278
3861,-276
3862,-274
3863,-273
3864,-275
3865,-277
3866,-276
3867,-274
3868,-273
3869,-275
3870,-278
3871,-277
3872,-273
3873,-273
3874,-274
3875,-277
3876,-277
3877,-275
3878,-273
3879,-275
3880,-278
3881,-277
3882,-273
3883,-273
3884,-275
3885,-278
3886,-276
3887,-274
3888,-273
3889,-275
3890,-278
3891,-277
3892,-274
3893,-274
3894,-275
3895,-278
3896,-276
3897,-274
3898,-273
3899,-274
3900,-277
3901,-277
3902,-275
3903,-273
3904,-275
3905,-278
3906,-277
3907,-274
3908,-273
3909,-275
3910,-276
3911,-277
3912,-274
3913,-273
3914,-274
3915,-278
3916,-276
3917,-275
3918,-272
3919,-274
3920,-278
3921,-276
3922,-275
3923,-273
3924,-275
3925,-277
3926,-276
3927,-274
3928,-273
3929,-274
3930,-277
3931,-276
3932,-274
3933,-272
3934,-274
3935,-277
3936,-277
3937,-274
3938,-272
3939,-274
3940,-277
3941,-277
3942,-274
3943,-272
3944,-274
3945,-277
3946,-276
3947,-274
3948,-273
3949,-273
3950,-277
3951,-277
3952,-274
3953,-273
3954,-274
3955,-277
3956,-276
3957,-274
3958,-273
3959,-275
3960,-277
3961,-276
3962,-274
3963,-273
3964,-273
3965,-277
3966,-277
3967,-275
3968,-273
3969,-274
3970,-277
3971,-276
3972,-274
3973,-273
3974,-275
3975,-277
3976,-277
3977,-275
3978,-273
3979,-273
3980,-277
3981,-276
3982,-275
3983,-272
3984,-274
3985,-277
3986,-276
3987,-275
3988,-272
3989,-273
3990,-276
3991,-276
3992,-275
3993,-272
3994,-274
3995,-277
3996,-277
3997,-275
3998,-273
3999,-274
4000,-276
4001,-277
4002,-275
4003,-272
4004,-274
4005,-277
4006,-277
4007,-275
4008,-272
4009,-275
4010,-277
4011,-276
4012,-275
4013,-273
4014,-274
4015,-277
4016,-277
4017,-275
4018,-273
4019,-274
4020,-277
4021,-277
4022,-275
4023,-272
4024,-274
4025,-275
4026,-277
4027,-275
4028,-273
4029,-273
4030,-277
4031,-276
4032,-276
4033,-272
4034,-274
4035,-276
4036,-277
4037,-275
4038,-273
4039,-274
4040,-276
4041,-277
4042,-276
4043,-272
4044,-273
4045,-276
4046,-277
4047,-275
4048,-273
4049,-274
4050,-277
4051,-277
4052,-275
4053,-273
4054,-274
4055,-276
4056,-277
4057,-275
4058,-274
4059,-273
4060,-277
4061,-277
4062,-275
4063,-273
4064,-273
4065,-277
4066,-277
4067,-275
4068,-274
4069,-274
4070,-277
4071,-277
4072,-275
4073,-273
4074,-274
4075,-277
4076,-277
4077,-275
4078,-272
4079,-273
4080,-276
4081,-277
4082,-276
4083,-273
4084,-274
4085,-276
4086,-277
4087,-276
4088,-272
4089,-273
4090,-276
4091,-277
4092,-275
4093,-273
4094,-273
4095,-276
4096,-277
4097,-275
4098,-273
4099,-274
4100,-277
4101,-277
4102,-274
4103,-273
4104,-274
4105,-276
4106,-278
4107,-276
4108,-272
4109,-274
4110,-276
4111,-278
4112,-276
4113,-273
4114,-273
4115,-275
4116,-277
4117,-275
4118,-273
4119,-273
4120,-276
4121,-277
4122,-276
4123,-273
4124,-272
4125,-276
4126,-277
4127,-276
4128,-273
4129,-274
4130,-277
4131,-278
4132,-275
4133,-273
4134,-273
4135,-275
4136,-277
4137,-276
4138,-274
4139,-273
4140,-276
4141,-277
4142,-275
4143,-273
4144,-273
4145,-275
4146,-277
4147,-276
4148,-273
4149,-274
4150,-275
4151,-277
4152,-277
4153,-272
4154,-273
4155,-275
4156,-277
4157,-276
4158,-273
4159,-273
4160,-275
4161,-278
4162,-275
4163,-272
4164,-273
4165,-276
4166,-277
4167,-275
4168,-274
4169,-273
4170,-276
4171,-277
4172,-275
4173,-273
4174,-272
4175,-275
4176,-278
4177,-276
4178,-273
4179,-273
4180,-276
4181,-278
4182,-276
4183,-273
4184,-273
4185,-275
4186,-277
4187,-276
4188,-273
4189,-273
4190,-275
4191,-276
4192,-276
4193,-274
4194,-272
4195,-275
4196,-276
4197,-276
4198,-274
4199,-273
4200,-277
4201,-277
4202,-275
4203,-273
4204,-273
4205,-275
4206,-278
4207,-276
4208,-274
4209,-272
4210,-274
4211,-276
4212,-275
4213,-274
4214,-273
4215,-275
4216,-276
4217,-277
4218,-273
4219,-273
4220,-275
4221,-277
4222,-276
4223,-274
4224,-272
4225,-276
4226,-277
4227,-276
4228,-274
4229,-272
4230,-273
4231,-277
4232,-276
4233,-274
4234,-273
4235,-274
4236,-276
4237,-276
4238,-273
4239,-273
4240,-274
4241,-276
4242,-276
4243,-274
4244,-273
4245,-274
4246,-276
4247,-276
4248,-274
4249,-272
4250,-273
4251,-277
4252,-276
4253,-273
4254,-272
4255,-274
4256,-276
4257,-275
4258,-274
4259,-272
4260,-274
4261,-277
4262,-277
4263,-273
4264,-272
4265,-275
4266,-277
4267,-277
4268,-274
4269,-273
4270,-274
4271,-276
4272,-277
4273,-274
4274,-273
4275,-274
4276,-276
4277,-277
4278,-275
4279,-273
4280,-274
4281,-277
4282,-277
4283,-274
4284,-273
4285,-274
4286,-276
4287,-276
4288,-273
4289,-272
4290,-273
4291,-276
4292,-277
4293,-274
4294,-273
4295,-275
4296,-275
4297,-276
4298,-274
4299,-273
4300,-273
4301,-276
4302,-277
4303,-274
4304,-272
4305,-274
4306,-276
4307,-275
4308,-275
4309,-272
4310,-275
4311,-277
4312,-276
4313,-275
4314,-272
4315,-274
4316,-276
4317,-276
4318,-274
4319,-273
4320,-273
4321,-277
4322,-276
4323,-274
4324,-273
4325,-274
4326,-276
4327,-277
4328,-275
4329,-273
4330,-274
4331,-276
4332,-277
4333,-275
4334,-272
4335,-274
4336,-277
4337,-277
4338,-274
4339,-273
4340,-273
4341,-276
4342,-277
4343,-274
4344,-272
4345,-274
4346,-277
4347,-277
4348,-275
4349,-273
4350,-273
4351,-277
4352,-277
4353,-275
4354,-272
4355,-272
4356,-275
4357,-276
4358,-275
4359,-272
4360,-273
4361,-277
4362,-278
4363,-275
4364,-272
4365,-272
4366,-275
4367,-277
4368,-276
4369,-273
4370,-274
4371,-276
4372,-277
4373,-275
4374,-273
4375,-273
4376,-276
4377,-277
4378,-275
4379,-272
4380,-273
4381,-276
4382,-277
4383,-274
4384,-272
4385,-274
4386,-276
4387,-276
4388,-275
4389,-273
4390,-273
4391,-275
4392,-277
4393,-276
4394,-273
4395,-274
4396,-275
4397,-278
4398,-275
4399,-273
4400,-273
4401,-276
4402,-277
4403,-275
4404,-273
4405,-273
4406,-276
4407,-278
4408,-275
4409,-273
4410,-273
4411,-276
4412,-278
4413,-277
4414,-272
4415,-273
4416,-276
4417,-277
4418,-276
4419,-273
4420,-273
4421,-276
4422,-277
4423,-275
4424,-273
4425,-273
4426,-276
4427,-277
4428,-276
4429,-273
4430,-273
4431,-275
4432,-277
4433,-276
4434,-272
4435,-273
4436,-275
4437,-277
4438,-276
4439,-274
4440,-272
4441,-274
4442,-277
4443,-276
4444,-273
4445,-273
4446,-275
4447,-278
4448,-275
4449,-273
4450,-273
4451,-276
4452,-276
4453,-276
4454,-274
4455,-274
4456,-275
4457,-277
4458,-275
4459,-273
4460,-272
4461,-275
4462,-277
4463,-275
4464,-273
4465,-273
4466,-274
4467,-277
4468,-276
4469,-273
4470,-273
4471,-275
4472,-277
4473,-276
4474,-273
4475,-272
4476,-274
4477,-277
4478,-276
4479,-273
4480,-272
4481,-275
4482,-276
4483,-276
4484,-273
4485,-273
4486,-275
4487,-277
4488,-276
4489,-273
4490,-273
4491,-275
4492,-278
4493,-276
4494,-274
4495,-273
4496,-275
4497,-277
4498,-277
4499,-274
4500,-273
4501,-275
4502,-277
4503,-277
4504,-273
4505,-272
4506,-274
4507,-277
4508,-275
4509,-274
4510,-273
4511,-275
4512,-276
4513,-276
4514,-273
4515,-273
4516,-275
4517,-276
4518,-277
4519,-275
4520,-273
4521,-275
4522,-277
4523,-277
4524,-274
4525,-273
4526,-275
4527,-278
4528,-276
4529,-275
4530,-272
4531,-274
4532,-277
4533,-277
4534,-274
4535,-274
4536,-274
4537,-278
4538,-277
4539,-274
4540,-272
4541,-274
4542,-277
4543,-276
4544,-275
4545,-273
4546,-274
4547,-277
4548,-276
4549,-275
4550,-273
4551,-274
4552,-277
4553,-276
4554,-274
4555,-273
4556,-274
4557,-278
4558,-277
4559,-274
4560,-273
4561,-275
4562,-278
4563,-276
4564,-274
4565,-274
4566,-275
4567,-278
4568,-278
4569,-274
4570,-274
4571,-273
4572,-277
4573,-277
4574,-275
4575,-273
4576,-274
4577,-277
4578,-277
4579,-275
4580,-273
4581,-274
4582,-277
4583,-275
4584,-273
4585,-274
4586,-277
4587,-276
4588,-274
4589,-273
4590,-275
4591,-277
4592,-276
4593,-275
4594,-273
4595,-274
4596,-277
4597,-278
4598,-275
4599,-272
4600,-275
4601,-278
4602,-277
4603,-275
4604,-273
4605,-274
4606,-277
4607,-277
4608,-275
4609,-273
4610,-274
4611,-277
4612,-276
4613,-275
4614,-273
4615,-274
4616,-278
4617,-278
4618,-275
4619,-273
4620,-274
4621,-276
4622,-279
4623,-275
4624,-273
4625,-275
4626,-277
4627,-277
4628,-275
4629,-273
4630,-273
4631,-276
4632,-277
4633,-275
4634,-273
4635,-274
4636,-276
4637,-278
4638,-275
4639,-272
4640,-274
4641,-277
4642,-277
4643,-275
4644,-272
4645,-274
4646,-277
4647,-277
4648,-275
4649,-273
4650,-274
4651,-277
4652,-277
4653,-276
4654,-273
4655,-274
4656,-278
4657,-277
4658,-275
4659,-273
4660,-274
4661,-276
4662,-277
4663,-275
4664,-273
4665,-274
4666,-276
4667,-278
4668,-275
4669,-272
4670,-273
4671,-276
4672,-276
4673,-275
4674,-272
4675,-273
4676,-277
4677,-277
4678,-276
4679,-273
4680,-274
4681,-277
4682,-277
4683,-276
4684,-273
4685,-274
4686,-277
4687,-277
4688,-276
4689,-273
4690,-273
4691,-276
4692,-278
4693,-275
4694,-273
4695,-274
4696,-276
4697,-277
4698,-276
4699,-273
4700,-273
4701,-276
4702,-278
4703,-276
4704,-273
4705,-273
4706,-276
4707,-277
4708,-276
4709,-274
4710,-274
4711,-276
4712,-277
4713,-275
4714,-273
4715,-274
4716,-276
4717,-278
4718,-275
4719,-273
4720,-274
4721,-276
4722,-277
4723,-276
4724,-274
4725,-274
4726,-275
4727,-278
4728,-275
4729,-272
4730,-274
4731,-276
4732,-277
4733,-276
4734,-273
4735,-274
4736,-276
4737,-277
4738,-276
4739,-273
4740,-273
4741,-276
4742,-278
4743,-276
4744,-274
4745,-274
4746,-276
4747,-277
4748,-275
4749,-273
4750,-273
4751,-276
4752,-278
4753,-275
4754,-272
4755,-273
4756,-276
4757,-277
4758,-276
4759,-273
4760,-274
4761,-276
4762,-277
4763,-275
4764,-274
4765,-273
4766,-275
4767,-276
4768,-275
4769,-273
4770,-273
4771,-276
4772,-277
4773,-276
4774,-273
4775,-273
4776,-275
4777,-277
4778,-276
4779,-274
4780,-273
4781,-275
4782,-277
4783,-275
4784,-272
4785,-273
4786,-276
4787,-278
4788,-276
4789,-273
4790,-272
4791,-275
4792,-277
4793,-275
4794,-273
4795,-273
4796,-275
4797,-278
4798,-276
4799,-273
4800,-272
4801,-276
4802,-276
4803,-276
4804,-273
4805,-273
4806,-275
4807,-276
4808,-276
4809,-272
4810,-273
4811,-275
4812,-277
4813,-275
4814,-273
4815,-273
4816,-275
4817,-277
4818,-276
4819,-274
4820,-273
4821,-276
4822,-276
4823,-275
4824,-274
4825,-274
4826,-275
4827,-276
4828,-276
4829,-273
4830,-273
4831,-275
4832,-276
4833,-277
4834,-274
4835,-272
4836,-275
4837,-276
4838,-276
4839,-273
4840,-274
4841,-277
4842,-276
4843,-272
4844,-273
4845,-274
4846,-277
4847,-276
4848,-273
4849,-272
4850,-274
4851,-277
4852,-275
4853,-272
4854,-273
4855,-274
4856,-277
4857,-276
4858,-273
4859,-272
4860,-275
4861,-276
4862,-276
4863,-273
4864,-272
4865,-274
4866,-277
4867,-277
4868,-273
4869,-273
4870,-274
4871,-277
4872,-276
4873,-273
4874,-272
4875,-274
4876,-277
4877,-276
4878,-273
4879,-273
4880,-273
4881,-277
4882,-275
4883,-272
4884,-272
4885,-273
4886,-276
4887,-275
4888,-273
4889,-273
4890,-274
4891,-276
4892,-276
4893,-273
4894,-272
4895,-273
4896,-277
4897,-276
4898,-274
4899,-271
4900,-273
4901,-276
4902,-276
4903,-272
4904,-272
4905,-274
4906,-277
4907,-275
4908,-274
4909,-273
4910,-274
4911,-276
4912,-275
4913,-273
4914,-272
4915,-273
4916,-275
4917,-276
4918,-274
4919,-273
4920,-273
4921,-276
4922,-276
4923,-273
4924,-271
4925,-273
4926,-276
4927,-276
4928,-273
4929,-272
4930,-275
4931,-275
4932,-276
4933,-274
4934,-272
4935,-274
4936,-275
4937,-277
4938,-273
4939,-271
4940,-273
4941,-276
4942,-275
4943,-273
4944,-272
4945,-273
4946,-276
4947,-276
4948,-273
4949,-272
4950,-273
4951,-276
4952,-276
4953,-274
4954,-272
4955,-274
4956,-277
4957,-275
4958,-274
4959,-272
4960,-273
4961,-276
4962,-277
4963,-274
4964,-272
4965,-273
4966,-275
4967,-276
4968,-273
4969,-273
4970,-274
4971,-276
4972,-275
4973,-273
4974,-272
4975,-274
4976,-276
4977,-276
4978,-274
4979,-271
4980,-273
4981,-276
4982,-275
4983,-273
4984,-272
4985,-274
4986,-275
4987,-276
4988,-273
4989,-271
4990,-273
4991,-276
4992,-275
4993,-274
4994,-272
4995,-273
4996,-276
4997,-276
4998,-274
4999,-271
5000,-273
5001,-276
5002,-277
5003,-273
5004,-272
5005,-272
5006,-276
5007,-276
5008,-273
5009,-271
5010,-273
5011,-275
5012,-276
5013,-274
5014,-272
5015,-273
5016,-275
5017,-276
5018,-274
5019,-271
5020,-272
5021,-276
5022,-275
5023,-274
5024,-271
5025,-273
5026,-275
5027,-276
5028,-273
5029,-272
5030,-273
5031,-275
5032,-275
5033,-274
5034,-271
5035,-273
5036,-275
5037,-275
5038,-273
5039,-271
5040,-273
5041,-275
5042,-275
5043,-274
5044,-271
5045,-272
5046,-275
5047,-276
5048,-274
5049,-271
5050,-272
5051,-275
5052,-275
5053,-274
5054,-271
5055,-273
5056,-275
5057,-275
5058,-273
5059,-271
5060,-273
5061,-276
5062,-276
5063,-274
5064,-272
5065,-273
5066,-276
5067,-276
5068,-273
5069,-271
5070,-272
5071,-275
5072,-276
5073,-274
5074,-271
5075,-273
5076,-275
5077,-275
5078,-274
5079,-272
5080,-272
5081,-275
5082,-275
5083,-274
5084,-271
5085,-273
5086,-276
5087,-275
5088,-274
5089,-272
5090,-271
5091,-275
5092,-275
5093,-273
5094,-272
5095,-273
5096,-274
5097,-276
5098,-274
5099,-272
5100,-271
5101,-274
5102,-276
5103,-274
5104,-271
5105,-272
5106,-274
5107,-275
5108,-274
5109,-271
5110,-272
5111,-275
5112,-276
5113,-273
5114,-271
5115,-271
5116,-274
5117,-275
5118,-274
5119,-271
5120,-272
5121,-274
5122,-277
5123,-274
5124,-271
5125,-272
5126,-275
5127,-275
5128,-274
5129,-271
5130,-272
5131,-274
5132,-275
5133,-275
5134,-271
5135,-271
5136,-274
5137,-276
5138,-274
5139,-271
5140,-271
5141,-275
5142,-274
5143,-274
5144,-271
5145,-271
5146,-274
5147,-275
5148,-273
5149,-271
5150,-272
5151,-275
5152,-275
5153,-274
5154,-271
5155,-272
5156,-274
5157,-275
5158,-273
5159,-271
5160,-272
5161,-274
5162,-276
5163,-274
5164,-271
5165,-271
5166,-275
5167,-275
5168,-274
5169,-272
5170,-271
5171,-274
5172,-276
5173,-275
5174,-271
5175,-271
5176,-274
5177,-275
5178,-274
5179,-272
5180,-271
5181,-274
5182,-275
5183,-273
5184,-271
5185,-272
5186,-274
5187,-275
5188,-274
5189,-271
5190,-271
5191,-273
5192,-275
5193,-274
5194,-272
5195,-272
5196,-272
5197,-276
5198,-274
5199,-272
5200,-272
5201,-274
5202,-275
5203,-274
5204,-271
5205,-271
5206,-274
5207,-275
5208,-275
5209,-271
5210,-271
5211,-274
5212,-275
5213,-274
5214,-271
5215,-271
5216,-274
5217,-275
5218,-274
5219,-271
5220,-271
5221,-273
5222,-275
5223,-274
5224,-270
5225,-271
5226,-274
5227,-276
5228,-274
5229,-272
5230,-272
5231,-274
5232,-276
5233,-274
5234,-271
5235,-271
5236,-274
5237,-276
5238,-274
5239,-272
5240,-272
5241,-273
5242,-276
5243,-274
5244,-272
5245,-271
5246,-273
5247,-275
5248,-274
5249,-272
5250,-271
5251,-273
5252,-276
5253,-275
5254,-272
5255,-271
5256,-272
5257,-275
5258,-274
5259,-272
5260,-271
5261,-273
5262,-275
5263,-274
5264,-271
5265,-271
5266,-273
5267,-275
5268,-274
5269,-271
5270,-270
5271,-273
5272,-275
5273,-274
5274,-272
5275,-272
5276,-272
5277,-275
5278,-274
5279,-272
5280,-271
5281,-272
5282,-275
5283,-275
5284,-272
5285,-270
5286,-273
5287,-275
5288,-274
5289,-272
5290,-271
5291,-273
5292,-276
5293,-275
5294,-272
5295,-271
5296,-272
5297,-275
5298,-274
5299,-272
5300,-271
5301,-272
5302,-275
5303,-274
5304,-272
5305,-270
5306,-272
5307,-276
5308,-274
5309,-272
5310,-270
5311,-273
5312,-275
5313,-274
5314,-271
5315,-271
5316,-272
5317,-275
5318,-274
5319,-271
5320,-271
5321,-272
5322,-275
5323,-275
5324,-273
5325,-271
5326,-272
5327,-275
5328,-275
5329,-273
5330,-271
5331,-272
5332,-275
5333,-275
5334,-272
5335,-271
5336,-273
5337,-275
5338,-275
5339,-272
5340,-271
5341,-272
5342,-275
5343,-275
5344,-272
5345,-271
5346,-273
5347,-274
5348,-274
5349,-273
5350,-271
5351,-272
5352,-275
5353,-275
5354,-273
5355,-271
5356,-273
5357,-276
5358,-275
5359,-273
5360,-271
5361,-272
5362,-274
5363,-275
5364,-273
5365,-272
5366,-272
5367,-275
5368,-275
5369,-273
5370,-272
5371,-273
5372,-275
5373,-275
5374,-273
5375,-271
5376,-272
5377,-275
5378,-275
5379,-273
5380,-272
5381,-272
5382,-274
5383,-275
5384,-273
5385,-271
5386,-274
5387,-276
5388,-275
5389,-273
5390,-271
5391,-272
5392,-276
5393,-276
5394,-273
5395,-272
5396,-272
5397,-275
5398,-275
5399,-273
5400,-272
5401,-272
5402,-275
5403,-276
5404,-273
5405,-272
5406,-272
5407,-275
5408,-276
5409,-274
5410,-271
5411,-272
5412,-275
5413,-275
5414,-273
5415,-270
5416,-273
5417,-275
5418,-275
5419,-273
5420,-271
5421,-272
5422,-275
5423,-276
5424,-274
5425,-272
5426,-272
5427,-275
5428,-275
5429,-273
5430,-271
5431,-271
5432,-276
5433,-276
5434,-273
5435,-272
5436,-272
5437,-275
5438,-276
5439,-274
5440,-271
5441,-272
5442,-275
5443,-275
5444,-273
5445,-271
5446,-271
5447,-275
5448,-275
5449,-274
5450,-272
5451,-272
5452,-274
5453,-275
5454,-273
5455,-271
5456,-272
5457,-274
5458,-275
5459,-273
5460,-271
5461,-272
5462,-274
5463,-276
5464,-275
5465,-270
5466,-271
5467,-274
5468,-275
5469,-273
5470,-271
5471,-272
5472,-275
5473,-275
5474,-273
5475,-270
5476,-272
5477,-275
5478,-275
5479,-273
5480,-271
5481,-271
5482,-275
5483,-275
5484,-274
5485,-271
5486,-272
5487,-274
5488,-275
5489,-273
5490,-272
5491,-272
5492,-274
5493,-275
5494,-273
5495,-270
5496,-271
5497,-273
5498,-275
5499,-274
5500,-272
5501,-271
5502,-273
5503,-274
5504,-273
5505,-270
5506,-272
5507,-274
5508,-275
5509,-274
5510,-271
5511,-271
5512,-273
5513,-275
5514,-273
5515,-271
5516,-271
5517,-274
5518,-274
5519,-275
5520,-271
5521,-272
5522,-273
5523,-275
5524,-273
5525,-271
5526,-272
5527,-275
5528,-275
5529,-274
5530,-271
5531,-271
5532,-273
5533,-275
5534,-275
5535,-272
5536,-271
5537,-274
5538,-276
5539,-274
5540,-272
5541,-271
5542,-274
5543,-275
5544,-271
5545,-271
5546,-274
5547,-275
5548,-274
5549,-270
5550,-271
5551,-273
5552,-275
5553,-274
5554,-272
5555,-272
5556,-273
5557,-276
5558,-274
5559,-271
5560,-271
5561,-273
5562,-275
5563,-274
5564,-272
5565,-272
5566,-273
5567,-276
5568,-274
5569,-272
5570,-271
5571,-274
5572,-275
5573,-274
5574,-271
5575,-272
5576,-274
5577,-275
5578,-275
5579,-271
5580,-272
5581,-273
5582,-275
5583,-275
5584,-272
5585,-272
5586,-273
5587,-275
5588,-274
5589,-272
5590,-271
5591,-273
5592,-275
5593,-275
5594,-272
5595,-272
5596,-273
5597,-275
5598,-275
5599,-272
5600,-271
5601,-273
5602,-275
5603,-275
5604,-272
5605,-271
5606,-274
5607,-275
5608,-275
5609,-272
5610,-271
5611,-273
5612,-275
5613,-275
5614,-272
5615,-271
5616,-273
5617,-275
5618,-275
5619,-273
5620,-271
5621,-273
5622,-275
5623,-274
5624,-272
5625,-271
5626,-273
5627,-275
5628,-275
5629,-272
5630,-271
5631,-272
5632,-276
5633,-275
5634,-272
5635,-271
5636,-273
5637,-275
5638,-275
5639,-272
5640,-271
5641,-272
5642,-275
5643,-274
5644,-273
5645,-271
5646,-272
5647,-275
5648,-275
5649,-272
5650,-271
5651,-273
5652,-275
5653,-275
5654,-272
5655,-271
5656,-273
5657,-275
5658,-276
5659,-273
5660,-271
5661,-273
5662,-275
5663,-275
5664,-273
5665,-270
5666,-273
5667,-274
5668,-275
5669,-272
5670,-271
5671,-272
5672,-274
5673,-275
5674,-273
5675,-272
5676,-273
5677,-276
5678,-275
5679,-272
5680,-271
5681,-271
5682,-275
5683,-275
5684,-272
5685,-271
5686,-272
5687,-275
5688,-275
5689,-273
5690,-271
5691,-271
5692,-275
5693,-275
5694,-273
5695,-270
5696,-272
5697,-275
5698,-274
5699,-272
5700,-271
5701,-272
5702,-274
5703,-275
5704,-273
5705,-270
5706,-272
5707,-275
5708,-275
5709,-273
5710,-271
5711,-272
5712,-275
5713,-275
5714,-273
5715,-271
5716,-272
5717,-274
5718,-275
5719,-273
5720,-271
5721,-272
5722,-274
5723,-275
5724,-273
5725,-271
5726,-271
5727,-275
5728,-276
5729,-273
5730,-271
5731,-271
5732,-275
5733,-275
5734,-274
5735,-271
5736,-271
5737,-275
5738,-276
5739,-273
5740,-271
5741,-271
5742,-275
5743,-275
5744,-273
5745,-271
5746,-272
5747,-274
5748,-275
5749,-273
5750,-271
5751,-271
5752,-275
5753,-275
5754,-274
5755,-270
5756,-271
5757,-274
5758,-275
5759,-273
5760,-271
5761,-271
5762,-273
5763,-275
5764,-274
5765,-271
5766,-271
5767,-274
5768,-275
5769,-273
5770,-271
5771,-271
5772,-275
5773,-275
5774,-274
5775,-271
5776,-271
5777,-274
5778,-275
5779,-271
5780,-271
5781,-273
5782,-276
5783,-274
5784,-271
5785,-271
5786,-274
5787,-275
5788,-273
5789,-271
5790,-270
5791,-273
5792,-275
5793,-273
5794,-270
5795,-271
5796,-274
5797,-275
5798,-273
5799,-270
5800,-270
5801,-273
5802,-274
5803,-273
5804,-271
5805,-271
5806,-273
5807,-275
5808,-274
5809,-270
5810,-271
5811,-272
5812,-275
5813,-274
5814,-270
5815,-270
5816,-273
5817,-274
5818,-273
5819,-271
5820,-270
5821,-272
5822,-275
5823,-273
5824,-271
5825,-270
5826,-273
5827,-274
5828,-273
5829,-271
5830,-270
5831,-273
5832,-274
5833,-274
5834,-271
5835,-270
5836,-273
5837,-274
5838,-273
5839,-271
5840,-270
5841,-273
5842,-275
5843,-274
5844,-270
5845,-270
5846,-271
5847,-275
5848,-272
5849,-271
5850,-269
5851,-271
5852,-274
5853,-273
5854,-271
5855,-270
5856,-271
5857,-275
5858,-274
5859,-272
5860,-270
5861,-272
5862,-274
5863,-274
5864,-271
5865,-270
5866,-271
5867,-275
5868,-273
5869,-271
5870,-270
5871,-270
5872,-274
5873,-273
5874,-271
5875,-270
5876,-271
5877,-274
5878,-274
5879,-272
5880,-270
5881,-270
5882,-274
5883,-273
5884,-271
5885,-270
5886,-271
5887,-274
5888,-273
5889,-271
5890,-269
5891,-271
5892,-274
5893,-273
5894,-270
5895,-269
5896,-272
5897,-273
5898,-273
5899,-271
5900,-270
5901,-271
5902,-274
5903,-273
5904,-272
5905,-270
5906,-270
5907,-273
5908,-273
5909,-271
5910,-270
5911,-272
5912,-274
5913,-273
5914,-272
5915,-270
5916,-271
5917,-273
5918,-273
5919,-272
5920,-269
5921,-270
5922,-273
5923,-273
5924,-271
5925,-269
5926,-270
5927,-273
5928,-273
5929,-272
5930,-270
5931,-271
5932,-273
5933,-273
5934,-271
5935,-270
5936,-271
5937,-274
5938,-274
5939,-272
5940,-270
5941,-270
5942,-273
5943,-273
5944,-271
5945,-269
5946,-270
5947,-274
5948,-274
5949,-272
5950,-269
5951,-270
5952,-273
5953,-274
5954,-272
5955,-269
5956,-270
5957,-272
5958,-273
5959,-271
5960,-269
5961,-269
5962,-272
5963,-273
5964,-272
5965,-270
5966,-270
5967,-272
5968,-274
5969,-272
5970,-270
5971,-269
5972,-272
5973,-273
5974,-273
5975,-269
5976,-269
5977,-273
5978,-274
5979,-272
5980,-270
5981,-270
5982,-272
5983,-274
5984,-272
5985,-271
5986,-269
5987,-272
5988,-274
5989,-272
5990,-270
5991,-270
5992,-272
5993,-274
5994,-273
5995,-269
5996,-270
5997,-272
5998,-274
5999,-273
6000,-270
6001,-270
6002,-273
6003,-274
6004,-273
6005,-269
6006,-270
6007,-272
6008,-274
6009,-272
6010,-269
6011,-269
6012,-272
6013,-274
6014,-273
6015,-270
6016,-270
6017,-272
6018,-274
6019,-272
6020,-270
6021,-270
6022,-271
6023,-273
6024,-273
6025,-271
6026,-270
6027,-272
6028,-274
6029,-273
6030,-270
6031,-269
6032,-272
6033,-274
6034,-272
6035,-270
6036,-270
6037,-271
6038,-274
6039,-273
6040,-270
6041,-269
6042,-271
6043,-274
6044,-272
6045,-270
6046,-270
6047,-272
6048,-274
6049,-274
6050,-270
6051,-270
6052,-271
6053,-274
6054,-273
6055,-270
6056,-270
6057,-271
6058,-274
6059,-273
6060,-270
6061,-269
6062,-272
6063,-273
6064,-272
6065,-270
6066,-269
6067,-271
6068,-273
6069,-272
6070,-271
6071,-270
6072,-271
6073,-274
6074,-273
6075,-271
6076,-270
6077,-271
6078,-274
6079,-273
6080,-270
6081,-269
6082,-271
6083,-274
6084,-273
6085,-271
6086,-269
6087,-272
6088,-273
6089,-272
6090,-271
6091,-270
6092,-270
6093,-273
6094,-274
6095,-271
6096,-269
6097,-270
6098,-273
6099,-273
6100,-271
6101,-269
6102,-272
6103,-274
6104,-273
6105,-270
6106,-270
6107,-271
6108,-274
6109,-273
6110,-270
6111,-270
6112,-271
6113,-274
6114,-274
6115,-271
6116,-269
6117,-271
6118,-274
6119,-273
6120,-271
6121,-270
6122,-270
6123,-273
6124,-274
6125,-271
6126,-270
6127,-271
6128,-274
6129,-273
6130,-270
6131,-269
6132,-271
6133,-274
6134,-274
6135,-272
6136,-269
6137,-271
6138,-274
6139,-273
6140,-272
6141,-270
6142,-270
6143,-273
6144,-274
6145,-272
6146,-269
6147,-270
6148,-273
6149,-273
6150,-272
6151,-270
6152,-271
6153,-274
6154,-274
6155,-272
6156,-270
6157,-270
6158,-273
6159,-274
6160,-272
6161,-270
6162,-270
6163,-273
6164,-274
6165,-272
6166,-270
6167,-270
6168,-273
6169,-274
6170,-272
6171,-270
6172,-269
6173,-273
6174,-275
6175,-272
6176,-270
6177,-271
6178,-273
6179,-273
6180,-272
6181,-270
6182,-270
6183,-273
6184,-273
6185,-272
6186,-269
6187,-270
6188,-272
6189,-273
6190,-272
6191,-270
6192,-270
6193,-272
6194,-274
6195,-273
6196,-269
6197,-270
6198,-272
6199,-274
6200,-272
6201,-271
6202,-270
6203,-272
6204,-274
6205,-272
6206,-270
6207,-269
6208,-272
6209,-273
6210,-272
6211,-269
6212,-270
6213,-272
6214,-274
6215,-272
6216,-270
6217,-269
6218,-272
6219,-274
6220,-272
6221,-270
6222,-269
6223,-272
6224,-274
6225,-272
6226,-270
6227,-270
6228,-272
6229,-274
6230,-272
6231,-270
6232,-270
6233,-272
6234,-274
6235,-272
6236,-270
6237,-269
6238,-272
6239,-273
6240,-272
6241,-270
6242,-270
6243,-272
6244,-274
6245,-273
6246,-271
6247,-270
6248,-272
6249,-273
6250,-272
6251,-270
6252,-270
6253,-272
6254,-274
6255,-272
6256,-272
6257,-270
6258,-272
6259,-274
6260,-273
6261,-271
6262,-270
6263,-272
6264,-275
6265,-273
6266,-270
6267,-270
6268,-272
6269,-275
6270,-273
6271,-270
6272,-270
6273,-272
6274,-274
6275,-273
6276,-271
6277,-270
6278,-273
6279,-274
6280,-274
6281,-270
6282,-270
6283,-272
6284,-275
6285,-274
6286,-270
6287,-270
6288,-271
6289,-275
6290,-274
6291,-271
6292,-270
6293,-271
6294,-275
6295,-273
6296,-271
6297,-270
6298,-271
6299,-275
6300,-274
6301,-271
6302,-270
6303,-271
6304,-274
6305,-272
6306,-271
6307,-269
6308,-271
6309,-274
6310,-273
6311,-271
6312,-270
6313,-271
6314,-275
6315,-273
6316,-271
6317,-269
6318,-271
6319,-273
6320,-273
6321,-271
6322,-269
6323,-271
6324,-274
6325,-273
6326,-271
6327,-269
6328,-271
6329,-274
6330,-273
6331,-272
6332,-270
6333,-271
6334,-274
6335,-273
6336,-271
6337,-270
6338,-270
6339,-274
6340,-274
6341,-271
6342,-269
6343,-271
6344,-274
6345,-273
6346,-271
6347,-270
6348,-271
6349,-273
6350,-273
6351,-272
6352,-270
6353,-269
6354,-274
6355,-272
6356,-272
6357,-270
6358,-271
6359,-273
6360,-274
6361,-271
6362,-269
6363,-271
6364,-275
6365,-274
6366,-272
6367,-269
6368,-272
6369,-273
6370,-273
6371,-272
6372,-269
6373,-271
6374,-274
6375,-274
6376,-271
6377,-269
6378,-270
6379,-274
6380,-275
6381,-272
6382,-269
6383,-270
6384,-273
6385,-274
6386,-272
6387,-270
6388,-270
6389,-273
6390,-274
6391,-273
6392,-269
6393,-270
6394,-273
6395,-273
6396,-273
6397,-269
6398,-270
6399,-273
6400,-274
6401,-272
6402,-270
6403,-271
6404,-273
6405,-274
6406,-272
6407,-269
6408,-271
6409,-273
6410,-274
6411,-272
6412,-269
6413,-270
6414,-273
6415,-273
6416,-272
6417,-270
6418,-269
6419,-272
6420,-273
6421,-272
6422,-269
6423,-270
6424,-272
6425,-274
6426,-273
6427,-270
6428,-270
6429,-272
6430,-273
6431,-272
6432,-269
6433,-269
6434,-272
6435,-274
6436,-271
6437,-270
6438,-270
6439,-272
6440,-275
6441,-273
6442,-270
6443,-269
6444,-272
6445,-274
6446,-272
6447,-269
6448,-271
6449,-272
6450,-273
6451,-273
6452,-270
6453,-270
6454,-272
6455,-273
6456,-272
6457,-269
6458,-269
6459,-272
6460,-274
6461,-272
6462,-270
6463,-270
6464,-272
6465,-273
6466,-273
6467,-269
6468,-269
6469,-273
6470,-274
6471,-272
6472,-269
6473,-270
6474,-271
6475,-273
6476,-272
6477,-270
6478,-269
6479,-272
6480,-274
6481,-272
6482,-270
6483,-269
6484,-272
6485,-274
6486,-273
6487,-270
6488,-269
6489,-271
6490,-274
6491,-273
6492,-269
6493,-269
6494,-272
6495,-274
6496,-272
6497,-269
6498,-269
6499,-272
6500,-273
6501,-273
6502,-269
6503,-269
6504,-270
6505,-273
6506,-273
6507,-270
6508,-269
6509,-271
6510,-273
6511,-272
6512,-269
6513,-268
6514,-271
6515,-273
6516,-272
6517,-269
6518,-270
6519,-271
6520,-274
6521,-272
6522,-271
6523,-269
6524,-270
6525,-273
6526,-273
6527,-270
6528,-269
6529,-270
6530,-273
6531,-272
6532,-270
6533,-269
6534,-271
6535,-273
6536,-272
6537,-270
6538,-269
6539,-270
6540,-273
6541,-272
6542,-270
6543,-269
6544,-270
6545,-273
6546,-272
6547,-270
6548,-269
6549,-271
6550,-274
6551,-273
6552,-270
6553,-269
6554,-271
6555,-274
6556,-272
6557,-270
6558,-268
6559,-270
6560,-273
6561,-273
6562,-271
6563,-269
6564,-269
6565,-273
6566,-272
6567,-270
6568,-269
6569,-271
6570,-273
6571,-272
6572,-270
6573,-269
6574,-270
6575,-273
6576,-274
6577,-270
6578,-269
6579,-270
6580,-273
6581,-273
6582,-270
6583,-269
6584,-270
6585,-273
6586,-273
6587,-270
6588,-269
6589,-269
6590,-273
6591,-273
6592,-271
6593,-269
6594,-270
6595,-273
6596,-273
6597,-271
6598,-268
6599,-270
6600,-272
6601,-273
6602,-271
6603,-269
6604,-269
6605,-272
6606,-273
6607,-270
6608,-269
6609,-269
6610,-273
6611,-272
6612,-271
6613,-268
6614,-270
6615,-272
6616,-273
6617,-271
6618,-268
6619,-270
6620,-272
6621,-273
6622,-271
6623,-269
6624,-269
6625,-272
6626,-273
6627,-271
6628,-269
6629,-269
6630,-272
6631,-273
6632,-271
6633,-269
6634,-269
6635,-272
6636,-273
6637,-272
6638,-269
6639,-270
6640,-273
6641,-273
6642,-271
6643,-269
6644,-270
6645,-272
6646,-273
6647,-272
6648,-268
6649,-270
6650,-272
6651,-273
6652,-272
6653,-269
6654,-269
6655,-272
6656,-274
6657,-271
6658,-269
6659,-269
6660,-272
6661,-274
6662,-272
6663,-269
6664,-269
6665,-272
6666,-274
6667,-274
6668,-269
6669,-271
6670,-272
6671,-273
6672,-273
6673,-269
6674,-270
6675,-273
6676,-273
6677,-273
6678,-270
6679,-270
6680,-273
6681,-274
6682,-272
6683,-270
6684,-270
6685,-273
6686,-273
6687,-273
6688,-270
6689,-270
6690,-273
6691,-274
6692,-274
6693,-270
6694,-270
6695,-272
6696,-275
6697,-274
6698,-271
6699,-271
6700,-272
6701,-275
6702,-273
6703,-270
6704,-270
6705,-272
6706,-274
6707,-273
6708,-271
6709,-271
6710,-273
6711,-275
6712,-274
6713,-271
6714,-271
6715,-272
6716,-274
6717,-273
6718,-272
6719,-271
6720,-272
6721,-275
6722,-274
6723,-272
6724,-271
6725,-274
6726,-275
6727,-273
6728,-272
6729,-271
6730,-273
6731,-275
6732,-274
6733,-272
6734,-270
6735,-273
6736,-274
6737,-275
6738,-273
6739,-271
6740,-273
6741,-274
6742,-274
6743,-273
6744,-272
6745,-273
6746,-275
6747,-274
6748,-272
6749,-270
6750,-272
6751,-275
6752,-275
6753,-273
6754,-271
6755,-273
6756,-275
6757,-274
6758,-273
6759,-270
6760,-273
6761,-275
6762,-276
6763,-273
6764,-272
6765,-273
6766,-275
6767,-275
6768,-273
6769,-271
6770,-273
6771,-275
6772,-275
6773,-273
6774,-272
6775,-272
6776,-275
6777,-275
6778,-273
6779,-272
6780,-273
6781,-275
6782,-276
6783,-273
6784,-271
6785,-272
6786,-276
6787,-276
6788,-273
6789,-272
6790,-273
6791,-276
6792,-275
6793,-273
6794,-272
6795,-272
6796,-276
6797,-275
6798,-273
6799,-271
6800,-272
6801,-275
6802,-276
6803,-274
6804,-272
6805,-272
6806,-276
6807,-275
6808,-274
6809,-271
6810,-272
6811,-276
6812,-277
6813,-274
6814,-272
6815,-273
6816,-274
6817,-276
6818,-274
6819,-271
6820,-273
6821,-276
6822,-276
6823,-275
6824,-272
6825,-273
6826,-275
6827,-276
6828,-274
6829,-272
6830,-273
6831,-275
6832,-275
6833,-274
6834,-272
6835,-273
6836,-275
6837,-276
6838,-275
6839,-271
6840,-272
6841,-276
6842,-277
6843,-275
6844,-272
6845,-273
6846,-276
6847,-276
6848,-274
6849,-272
6850,-272
6851,-275
6852,-277
6853,-275
6854,-272
6855,-272
6856,-275
6857,-276
6858,-275
6859,-272
6860,-273
6861,-275
6862,-276
6863,-275
6864,-273
6865,-272
6866,-276
6867,-277
6868,-275
6869,-272
6870,-273
6871,-275
6872,-276
6873,-275
6874,-273
6875,-272
6876,-275
6877,-276
6878,-276
6879,-272
6880,-272
6881,-275
6882,-276
6883,-275
6884,-273
6885,271
6886,-275
6887,-276
6888,-275
6889,-273
6890,-272
6891,-275
6892,-277
6893,-275
6894,-273
6895,-273
6896,-275
6897,-276
6898,-276
6899,-273
6900,-272
6901,-275
6902,-278
6903,-276
6904,-273
6905,-272
6906,-274
6907,-278
6908,-275
6909,-273
6910,-273
6911,-275
6912,-277
6913,-276
6914,-274
6915,-273
6916,-275
6917,-277
6918,-275
6919,-274
6920,-273
6921,-275
6922,-277
6923,-277
6924,-274
6925,-273
6926,-274
6927,-277
6928,-276
6929,-274
6930,-273
6931,-274
6932,-276
6933,-276
6934,-273
6935,-272
6936,-274
6937,-276
6938,-276
6939,-274
6940,-273
6941,-274
6942,-277
6943,-276
6944,-274
6945,-273
6946,-274
6947,-278
6948,-276
6949,-273
6950,-273
6951,-275
6952,-277
6953,-276
6954,-274
6955,-273
6956,-275
6957,-278
6958,-277
6959,-274
6960,-273
6961,-275
6962,-276
6963,-277
6964,-273
6965,-272
6966,-274
6967,-277
6968,-276
6969,-274
6970,-273
6971,-275
6972,-277
6973,-277
6974,-275
6975,-273
6976,-274
6977,-276
6978,-277
6979,-274
6980,-272
6981,-274
6982,-277
6983,-278
6984,-275
6985,-272
6986,-274
6987,-276
6988,-277
6989,-275
6990,-274
6991,-275
6992,-277
6993,-277
6994,-274
6995,-272
6996,-274
6997,-277
6998,-276
6999,-275
7000,-272
7001,-274
7002,-277
7003,-278
7004,-275
7005,-272
7006,-275
7007,-277
7008,-277
7009,-275
7010,-272
7011,-274
7012,-277
7013,-277
7014,-276
7015,-273
7016,-274
7017,-277
7018,-276
7019,-275
7020,-272
7021,-275
7022,-276
7023,-276
7024,-275
7025,-272
7026,-274
7027,-277
7028,-277
7029,-275
7030,-273
7031,-274
7032,-277
7033,-277
7034,-275
7035,-273
7036,-275
7037,-276
7038,-278
7039,-276
7040,-273
7041,-273
7042,-276
7043,-277
7044,-276
7045,-273
7046,-274
7047,-277
7048,-278
7049,-276
7050,-273
7051,-273
7052,-276
7053,-278
7054,-276
7055,-274
7056,-273
7057,-277
7058,-277
7059,-277
7060,-273
7061,-274
7062,-275
7063,-278
7064,-276
7065,-274
7066,-274
7067,-277
7068,-278
7069,-276
7070,-274
7071,-274
7072,-277
7073,-278
7074,-276
7075,-273
7076,-274
7077,-276
7078,-278
7079,-276
7080,-274
7081,-275
7082,-276
7083,-278
7084,-275
7085,-274
7086,-273
7087,-276
7088,-278
7089,-277
7090,-274
7091,-274
7092,-276
7093,-279
7094,-277
7095,-273
7096,-274
7097,-275
7098,-277
7099,-276
7100,-274
7101,-273
7102,-276
7103,-279
7104,-276
7105,-273
7106,-274
7107,-276
7108,-278
7109,-276
7110,-274
7111,-273
7112,-276
7113,-279
7114,-277
7115,-274
7116,-274
7117,-276
7118,-278
7119,-276
7120,-274
7121,-274
7122,-275
7123,-277
7124,-278
7125,-274
7126,-275
7127,-276
7128,-277
7129,-276
7130,-274
7131,-273
7132,-275
7133,-277
7134,-276
7135,-274
7136,-273
7137,-275
7138,-279
7139,-277
7140,-274
7141,-273
7142,-275
7143,-277
7144,-277
7145,-274
7146,-273
7147,-275
7148,-277
7149,-277
7150,-274
7151,-273
7152,-274
7153,-277
7154,-277
7155,-274
7156,-273
7157,-275
7158,-277
7159,-277
7160,-275
7161,-273
7162,-275
7163,-278
7164,-277
7165,-274
7166,-274
7167,-276
7168,-278
7169,-277
7170,-275
7171,-273
7172,-275
7173,-277
7174,-278
7175,-275
7176,-274
7177,-275
7178,-279
7179,-278
7180,-275
7181,-274
7182,-276
7183,-278
7184,-278
7185,-276
7186,-274
7187,-274
7188,-278
7189,-278
7190,-275
7191,-275
7192,-275
7193,-279
7194,-278
7195,-276
7196,-274
7197,-276
7198,-278
7199,-278
7200,-276
7201,-274
7202,-276
7203,-278
7204,-279
7205,-276
7206,-274
7207,-275
7208,-278
7209,-278
7210,-276
7211,-275
7212,-275
7213,-278
7214,-278
7215,-277
7216,-274
7217,-275
7218,-278
7219,-279
7220,-277
7221,-274
7222,-275
7223,-278
7224,-279
7225,-276
7226,-274
7227,-275
7228,-279
7229,-279
7230,-276
7231,-274
7232,-275
7233,-278
7234,-279
7235,-277
7236,-274
7237,-275
7238,-278
7239,-279
7240,-278
7241,-275
7242,-275
7243,-278
7244,-278
7245,-277
7246,-275
7247,-275
7248,-277
7249,-279
7250,-278
7251,-275
7252,-274
7253,-278
7254,-278
7255,-276
7256,-275
7257,-275
7258,-277
7259,-278
7260,-277
7261,-275
7262,-274
7263,-278
7264,-278
7265,-276
7266,-275
7267,-275
7268,-277
7269,-279
7270,-277
7271,-274
7272,-275
7273,-277
7274,-278
7275,-276
7276,-275
7277,-275
7278,-278
7279,-280
7280,-276
7281,-274
7282,-275
7283,-278
7284,-278
7285,-277
7286,-274
7287,-274
7288,-278
7289,-278
7290,-276
7291,-274
7292,-275
7293,-277
7294,-278
7295,-277
7296,-274
7297,-274
7298,-277
7299,-279
7300,-277
7301,-274
7302,-275
7303,-277
7304,-277
7305,-275
7306,-274
7307,-277
7308,-280
7309,-277
7310,-275
7311,-275
7312,-277
7313,-279
7314,-277
7315,-275
7316,-274
7317,-277
7318,-279
7319,-278
7320,-274
7321,-275
7322,-277
7323,-278
7324,-278
7325,-275
7326,-274
7327,-277
7328,-279
7329,-277
7330,-275
7331,-274
7332,-277
7333,-279
7334,-278
7335,-275
7336,-275
7337,-277
7338,-279
7339,-278
7340,-276
7341,-275
7342,-276
7343,-279
7344,-278
7345,-276
7346,-275
7347,-277
7348,-278
7349,-278
7350,-275
7351,-275
7352,-277
7353,-279
7354,-278
7355,-276
7356,-275
7357,-277
7358,-279
7359,-278
7360,-276
7361,-275
7362,-278
7363,-279
7364,-278
7365,-275
7366,-275
7367,-277
7368,-279
7369,-278
7370,-276
7371,-275
7372,-276
7373,-280
7374,-279
7375,-276
7376,-275
7377,-277
7378,-280
7379,-278
7380,-276
7381,-277
7382,-277
7383,-280
7384,-279
7385,-276
7386,-276
7387,-277
7388,-280
7389,-278
7390,-276
7391,-276
7392,-277
7393,-280
7394,-280
7395,-277
7396,-275
7397,-276
7398,-280
7399,-280
7400,-276
7401,-276
7402,-277
7403,-279
7404,-280
7405,-277
7406,-275
7407,-277
7408,-279
7409,-279
7410,-277
7411,-275
7412,-277
7413,-280
7414,-279
7415,-277
7416,-275
7417,-277
7418,-279
7419,-279
7420,-277
7421,-275
7422,-275
7423,-280
7424,-279
7425,-277
7426,-276
7427,-276
7428,-280
7429,-279
7430,-277
7431,-275
7432,-276
7433,-279
7434,-279
7435,-277
7436,-276
7437,-276
7438,-280
7439,-279
7440,-277
7441,-274
7442,-277
7443,-279
7444,-279
7445,-278
7446,-276
7447,-276
7448,-279
7449,-279
7450,-277
7451,-275
7452,-276
7453,-280
7454,-279
7455,-277
7456,-276
7457,-276
7458,-279
7459,-280
7460,-277
7461,-275
7462,-277
7463,-279
7464,-280
7465,-278
7466,-274
7467,-276
7468,-278
7469,-279
7470,-278
7471,-275
7472,-276
7473,-279
7474,-280
7475,-277
7476,-275
7477,-276
7478,-278
7479,-279
7480,-277
7481,-275
7482,-277
7483,-279
7484,-279
7485,-278
7486,-275
7487,-277
7488,-279
7489,-279
7490,-278
7491,-275
7492,-275
7493,-279
7494,-280
7495,-277
7496,-276
7497,-276
7498,-277
7499,-280
7500,-278
7501,-275
7502,-276
7503,-278
7504,-279
7505,-278
7506,-275
7507,-276
7508,-278
7509,-279
7510,-278
7511,-276
7512,-276
7513,-279
7514,-280
7515,-278
7516,-276
7517,-275
7518,-277
7519,-280
7520,-278
7521,-275
7522,-276
7523,-278
7524,-279
7525,-278
7526,-275
7527,-275
7528,-277
7529,-279
7530,-278
7531,-275
7532,-275
7533,-277
7534,-279
7535,-279
7536,-275
7537,-276
7538,-278
7539,-279
7540,-278
7541,-275
7542,-274
7543,-276
7544,-280
7545,-278
7546,-275
7547,-275
7548,-276
7549,-278
7550,-279
7551,-276
7552,-275
7553,-277
7554,-279
7555,-278
7556,-275
7557,-275
7558,-277
7559,-280
7560,-278
7561,-276
7562,-275
7563,-277
7564,-279
7565,-279
7566,-275
7567,-275
7568,-277
7569,-280
7570,-279
7571,-275
7572,-275
7573,-276
7574,-279
7575,-278
7576,-276
7577,-276
7578,-277
7579,-279
7580,-278
7581,-275
7582,-275
7583,-276
7584,-279
7585,-278
7586,-275
7587,-275
7588,-277
7589,-278
7590,-279
7591,-276
7592,-276
7593,-275
7594,-279
7595,-278
7596,-276
7597,-274
7598,-275
7599,-279
7600,-279
7601,-276
7602,-275
7603,-276
7604,-279
7605,-279
7606,-277
7607,-275
7608,-276
7609,-279
7610,-279
7611,-277
7612,-275
7613,-276
7614,-279
7615,-279
7616,-275
7617,-274
7618,-276
7619,-280
7620,-279
7621,-277
7622,-274
7623,-276
7624,-278
7625,-279
7626,-277
7627,-274
7628,-276
7629,-279
7630,-279
7631,-277
7632,-275
7633,-277
7634,-279
7635,-279
7636,-277
7637,-275
7638,-276
7639,-279
7640,-278
7641,-276
7642,-274
7643,-275
7644,-280
7645,-279
7646,-276
7647,-276
7648,-275
7649,-278
7650,-279
7651,-276
7652,-275
7653,-275
7654,-278
7655,-279
7656,-277
7657,-275
7658,-276
7659,-278
7660,-278
7661,-277
7662,-274
7663,-276
7664,-278
7665,-280
7666,-277
7667,-275
7668,-276
7669,-278
7670,-279
7671,-277
7672,-275
7673,-276
7674,-278
7675,-279
7676,-278
7677,-275
7678,-276
7679,-278
7680,-279
7681,-278
7682,-276
7683,-275
7684,-278
7685,-279
7686,-277
7687,-275
7688,-276
7689,-278
7690,-280
7691,-277
7692,-275
7693,-275
7694,-278
7695,-279
7696,-278
7697,-275
7698,-274
7699,-278
7700,-278
7701,-277
7702,-275
7703,-275
7704,-278
7705,-278
7706,-278
7707,-275
7708,-275
7709,-278
7710,-280
7711,-278
7712,-276
7713,-276
7714,-278
7715,-278
7716,-278
7717,-275
7718,-276
7719,-278
7720,-280
7721,-278
7722,-275
7723,-276
7724,-278
7725,-279
7726,-278
7727,-275
7728,-276
7729,-278
7730,-280
7731,-278
7732,-275
7733,-275
7734,-278
7735,-280
7736,-279
7737,-276
7738,-275
7739,-278
7740,-280
7741,-278
7742,-275
7743,-275
7744,-277
7745,-280
7746,-278
7747,-276
7748,-275
7749,-277
7750,-280
7751,-277
7752,-276
7753,-275
7754,-277
7755,-279
7756,-278
7757,-276
7758,-275
7759,-277
7760,-279
7761,-279
7762,-276
7763,-275
7764,-277
7765,-280
7766,-278
7767,-276
7768,-275
7769,-277
7770,-279
7771,-278
7772,-276
7773,-275
7774,-277
7775,-280
7776,-278
7777,-277
7778,-275
7779,-277
7780,-280
7781,-279
7782,-276
7783,-275
7784,-277
7785,-279
7786,-278
7787,-275
7788,-275
7789,-276
7790,-279
7791,-278
7792,-277
7793,-275
7794,-277
7795,-279
7796,-279
7797,-276
7798,-275
7799,-277
7800,-280
7801,-280
7802,-277
7803,-274
7804,-277
7805,-279
7806,-279
7807,-276
7808,-274
7809,-276
7810,-279
7811,-279
7812,-277
7813,-276
7814,-277
7815,-280
7816,-279
7817,-277
7818,-275
7819,-276
7820,-279
7821,-279
7822,-277
7823,-275
7824,-276
7825,-279
7826,-279
7827,-277
7828,-274
7829,-276
7830,-279
7831,-279
7832,-277
7833,-276
7834,-277
7835,-279
7836,-279
7837,-277
7838,-275
7839,-277
7840,-278
7841,-280
7842,-277
7843,-276
7844,-277
7845,-279
7846,-279
7847,-278
7848,-274
7849,-276
7850,-279
7851,-279
7852,-277
7853,-275
7854,-276
7855,-279
7856,-279
7857,-278
7858,-275
7859,-276
7860,-279
7861,-280
7862,-277
7863,-275
7864,-275
7865,-280
7866,-280
7867,-278
7868,-275
7869,-276
7870,-278
7871,-279
7872,-278
7873,-275
7874,-276
7875,-279
7876,-279
7877,-277
7878,-275
7879,-276
7880,-278
7881,-279
7882,-278
7883,-275
7884,-275
7885,-279
7886,-279
7887,-279
7888,-275
7889,-275
7890,-278
7891,-280
7892,-278
7893,-276
7894,-275
7895,-278
7896,-278
7897,-278
7898,-276
7899,-275
7900,-279
7901,-279
7902,-278
7903,-275
7904,-276
7905,-278
7906,-280
7907,-278
7908,-275
7909,-276
7910,-278
7911,-280
7912,-277
7913,-276
7914,-275
7915,-278
7916,-280
7917,-278
7918,-275
7919,-275
7920,-278
7921,-280
7922,-277
7923,-275
7924,-276
7925,-278
7926,-280
7927,-278
7928,-275
7929,-275
7930,-277
7931,-280
7932,-278
7933,-275
7934,-275
7935,-278
7936,-279
7937,-278
7938,-275
7939,-274
7940,-278
7941,-279
7942,-278
7943,-276
7944,-276
7945,-278
7946,-280
7947,-278
7948,-275
7949,-276
7950,-277
7951,-280
7952,-278
7953,-275
7954,-274
7955,-277
7956,-280
7957,-277
7958,-276
7959,-275
7960,-277
7961,-279
7962,-278
7963,-275
7964,-275
7965,-277
7966,-279
7967,-278
7968,-275
7969,-275
7970,-276
7971,-279
7972,-278
7973,-276
7974,-274
7975,-277
7976,-279
7977,-278
7978,-275
7979,-275
7980,-277
7981,-278
7982,-278
7983,-276
7984,-275
7985,-276
7986,-279
7987,-279
7988,-275
7989,-274
7990,-277
7991,-279
7992,-278
7993,-275
7994,-275
7995,-276
7996,-279
7997,-278
7998,-275
7999,-275
8000,-276
8001,-280
8002,-278
8003,-275
8004,-275
8005,-276
8006,-278
8007,-278
8008,-276
8009,-275
8010,-277
8011,-279
8012,-278
8013,-276
8014,-275
8015,-276
8016,-279
8017,-278
8018,-275
8019,-274
8020,-275
8021,-280
8022,-278
8023,-276
8024,-275
8025,-276
8026,-279
8027,-278
8028,-276
8029,-274
8030,-276
8031,-278
8032,-278
8033,-275
8034,-275
8035,-276
8036,-280
8037,-279
8038,-276
8039,-274
8040,-275
8041,-278
8042,-278
8043,-275
8044,-275
8045,-276
8046,-278
8047,-278
8048,-276
8049,-274
8050,-276
8051,-278
8052,-278
8053,-277
8054,-275
8055,-276
8056,-278
8057,-278
8058,-276
8059,-274
8060,-276
8061,-278
8062,-278
8063,-276
8064,-274
8065,-275
8066,-278
8067,-278
8068,-277
8069,-275
8070,-275
8071,-279
8072,-279
8073,-276
8074,-274
8075,-275
8076,-278
8077,-279
8078,-277
8079,-275
8080,-275
8081,-278
8082,-278
8083,-276
8084,-274
8085,-275
8086,-278
8087,-278
8088,-276
8089,-275
8090,-276
8091,-278
8092,-278
8093,-276
8094,-275
8095,-276
8096,-278
8097,-278
8098,-277
8099,-274
8100,-276
8101,-278
8102,-278
8103,-277
8104,-274
8105,-275
8106,-278
8107,-279
8108,-277
8109,-274
8110,-275
8111,-278
8112,-278
8113,-277
8114,-274
8115,-275
8116,-278
8117,-278
8118,-277
8119,-275
8120,-275
8121,-278
8122,-279
8123,-277
8124,-274
8125,-275
8126,-278
8127,-279
8128,-277
8129,-275
8130,-275
8131,-278
8132,-279
8133,-277
8134,-275
8135,-275
8136,-278
8137,-279
8138,-277
8139,-275
8140,-275
8141,-278
8142,-279
8143,-278
8144,-275
8145,-275
8146,-278
8147,-278
8148,-278
8149,-274
8150,-275
8151,-278
8152,-279
8153,-277
8154,-274
8155,-275
8156,-278
8157,-279
8158,-277
8159,-275
8160,-275
8161,-276
8162,-278
8163,-278
8164,-275
8165,-275
8166,-277
8167,-279
8168,-276
8169,-274
8170,-275
8171,-277
8172,-278
8173,-276
8174,-274
8175,-274
8176,-277
8177,-278
8178,-277
8179,-274
8180,-274
8181,-277
8182,-279
8183,-277
8184,-275
8185,-274
8186,-277
8187,-279
8188,-277
8189,-275
8190,-275
8191,-277
8192,-278
8193,-277
8194,-274
8195,-275
8196,-277
8197,-279
8198,-277
8199,-275
8200,-274
8201,-276
8202,-278
8203,-277
8204,-274
8205,-274
8206,-276
8207,-278
8208,-277
8209,-274
8210,-275
8211,-276
8212,-278
8213,-277
8214,-275
8215,-274
8216,-276
8217,-278
8218,-276
8219,-275
8220,-273
8221,-276
8222,-277
8223,-277
8224,-275
8225,-274
8226,-275
8227,-278
8228,-278
8229,-274
8230,-273
8231,-277
8232,-279
8233,-278
8234,-274
8235,-274
8236,-277
8237,-278
8238,-277
8239,-274
8240,-274
8241,-276
8242,-278
8243,-277
8244,-275
8245,-274
8246,-277
8247,-278
8248,-277
8249,-274
8250,-273
8251,-276
8252,-278
8253,-277
8254,-274
8255,-273
8256,-276
8257,-278
8258,-278
8259,-275
8260,-273
8261,-276
8262,-278
8263,-278
8264,-275
8265,-274
8266,-275
8267,-278
8268,-277
8269,-275
8270,-274
8271,-276
8272,-278
8273,-278
8274,-276
8275,-274
8276,-276
8277,-279
8278,-278
8279,-275
8280,-273
8281,-276
8282,-277
8283,-277
8284,-274
8285,-273
8286,-275
8287,-278
8288,-278
8289,-276
8290,-274
8291,-275
8292,-278
8293,-278
8294,-275
8295,-274
8296,-276
8297,-278
8298,-278
8299,-276
8300,-273
8301,-275
8302,-278
8303,-277
8304,-275
8305,-273
8306,-275
8307,-277
8308,-278
8309,-275
8310,-274
8311,-275
8312,-278
8313,-277
8314,-274
8315,-274
8316,-276
8317,-278
8318,-278
8319,-275
8320,-274
8321,-275
8322,-278
8323,-277
8324,-275
8325,-273
8326,-275
8327,-278
8328,-278
8329,-275
8330,-274
8331,-275
8332,-279
8333,-277
8334,-275
8335,-274
8336,-275
8337,-278
8338,-277
8339,-274
8340,-274
8341,-275
8342,-277
8343,-277
8344,-275
8345,-273
8346,-275
8347,-278
8348,-278
8349,-276
8350,-274
8351,-274
8352,-277
8353,-278
8354,-275
8355,-273
8356,-275
8357,-277
8358,-278
8359,-276
8360,-274
8361,-275
8362,-277
8363,-278
8364,-276
8365,-274
8366,-275
8367,-277
8368,-278
8369,-275
8370,-272
8371,-275
8372,-277
8373,-277
8374,-276
8375,-273
8376,-275
8377,-277
8378,-277
8379,-276
8380,-274
8381,-273
8382,-276
8383,-278
8384,-276
8385,-273
8386,-273
8387,-276
8388,-277
8389,-276
8390,-273
8391,-274
8392,-277
8393,-277
8394,-276
8395,-273
8396,-274
8397,-277
8398,-277
8399,-276
8400,-273
8401,-274
8402,-276
8403,-277
8404,-275
8405,-274
8406,-273
8407,-276
8408,-278
8409,-275
8410,-273
8411,-274
8412,-275
8413,-277
8414,-275
8415,-274
8416,-274
8417,-275
8418,-277
8419,-276
8420,-274
8421,-273
8422,-276
8423,-277
8424,-275
8425,-273
8426,-274
8427,-276
8428,-277
8429,-276
8430,-273
8431,-273
8432,-275
8433,-278
8434,-276
8435,-273
8436,-273
8437,-275
8438,-277
8439,-276
8440,-274
8441,-273
8442,-275
8443,-277
8444,-276
8445,-273
8446,-273
8447,-275
8448,-277
8449,-276
8450,-274
8451,-273
8452,-275
8453,-278
8454,-276
8455,-274
8456,-273
8457,-275
8458,-278
8459,-276
8460,-274
8461,-273
8462,-274
8463,-277
8464,-276
8465,-273
8466,-272
8467,-275
8468,-276
8469,-276
8470,-274
8471,-273
8472,-275
8473,-277
8474,-277
8475,-273
8476,-272
8477,-274
8478,-276
8479,-276
8480,-274
8481,-273
8482,-275
8483,-276
8484,-275
8485,-274
8486,-272
8487,-274
8488,-277
8489,-276
8490,-274
8491,-273
8492,-274
8493,-277
8494,-277
8495,-273
8496,-273
8497,-274
8498,-277
8499,-276
8500,-273
8501,-273
8502,-274
8503,-277
8504,-276
8505,-273
8506,-272
8507,-274
8508,-276
8509,-276
8510,-274
8511,-272
8512,-273
8513,-276
8514,-276
8515,-274
8516,-272
8517,-274
8518,-276
8519,-277
8520,-274
8521,-272
8522,-273
8523,-276
8524,-275
8525,-273
8526,-273
8527,-273
8528,-277
8529,-276
8530,-273
8531,-272
8532,-273
8533,-277
8534,-275
8535,-274
8536,-272
8537,-273
8538,-276
8539,-276
8540,-274
8541,-272
8542,-273
8543,-276
8544,-276
8545,-274
8546,-272
8547,-273
8548,-276
8549,-276
8550,-274
8551,-272
8552,-273
8553,-275
8554,-276
8555,-274
8556,-272
8557,-273
8558,-276
8559,-276
8560,-273
8561,-272
8562,-273
8563,-275
8564,-277
8565,-274
8566,-272
8567,-273
8568,-276
8569,-277
8570,-274
8571,-272
8572,-273
8573,-275
8574,-275
8575,-274
8576,-273
8577,-274
8578,-276
8579,-276
8580,-274
8581,-273
8582,-273
8583,-275
8584,-276
8585,-274
8586,-272
8587,-273
8588,-275
8589,-277
8590,-275
8591,-272
8592,-272
8593,-275
8594,-276
8595,-274
8596,-271
8597,-273
8598,-275
8599,-276
8600,-275
8601,-272
8602,-273
8603,-275
8604,-275
8605,-275
8606,-272
8607,-272
8608,-275
8609,-276
8610,-275
8611,-272
8612,-272
8613,-275
8614,-276
8615,-274
8616,-272
8617,-272
8618,-276
8619,-275
8620,-275
8621,-271
8622,-272
8623,-275
8624,-277
8625,-275
8626,-273
8627,-273
8628,-275
8629,-276
8630,-274
8631,-273
8632,-272
8633,-275
8634,-277
8635,-275
8636,-272
8637,-272
8638,-275
8639,-276
8640,-276
8641,-272
8642,-272
8643,-275
8644,-276
8645,-275
8646,-273
8647,-273
8648,-274
8649,-276
8650,-275
8651,-272
8652,-272
8653,-275
8654,-276
8655,-275
8656,-273
8657,-272
8658,-274
8659,-276
8660,-275
8661,-273
8662,-273
8663,-275
8664,-276
8665,-275
8666,-273
8667,-272
8668,-274
8669,-276
8670,-275
8671,-272
8672,-272
8673,-274
8674,-277
8675,-274
8676,-272
8677,-272
8678,-274
8679,-277
8680,-275
8681,-273
8682,-273
8683,-274
8684,-276
8685,-275
8686,-272
8687,-272
8688,-274
8689,-276
8690,-275
8691,-272
8692,-272
8693,-273
8694,-276
8695,-275
8696,-272
8697,-272
8698,-273
8699,-277
8700,-276
8701,-272
8702,-271
8703,-273
8704,-276
8705,-275
8706,-272
8707,-272
8708,-273
8709,-275
8710,-275
8711,-273
8712,-272
8713,-274
8714,-276
8715,-275
8716,-273
8717,-270
8718,-272
8719,6
8720,-275
8721,-273
8722,-272
8723,-273
8724,-275
8725,-275
8726,-273
8727,-272
8728,-273
8729,-276
8730,-275
8731,-273
8732,-272
8733,-273
8734,-276
8735,-275
8736,-273
8737,-271
8738,-272
8739,-275
8740,-275
8741,-272
8742,-271
8743,-274
8744,-276
8745,-276
8746,-274
8747,-272
8748,-274
8749,-277
8750,-276
8751,-273
8752,-272
8753,-273
8754,-276
8755,-275
8756,-273
8757,-272
8758,-273
8759,-276
8760,-276
8761,-273
8762,-271
8763,-273
8764,-276
8765,-275
8766,-274
8767,-272
8768,-273
8769,-275
8770,-276
8771,-273
8772,-271
8773,-272
8774,-275
8775,-276
8776,-273
8777,-272
8778,-274
8779,-276
8780,-275
8781,-274
8782,-271
8783,-272
8784,-275
8785,-276
8786,-274
8787,-271
8788,-274
8789,-275
8790,-276
8791,-274
8792,-272
8793,-272
8794,-276
8795,-276
8796,-273
8797,-272
8798,-273
8799,-276
8800,-276
8801,-274
8802,-271
8803,-273
8804,-275
8805,-276
8806,-274
8807,-273
8808,-273
8809,-276
8810,-276
8811,-274
8812,-273
8813,-273
8814,-276
8815,-277
8816,-274
8817,-272
8818,-272
8819,-276
8820,-276
8821,-274
8822,-272
8823,-273
8824,-276
8825,-277
8826,-275
8827,-272
8828,-274
8829,-276
8830,-277
8831,-274
8832,-272
8833,-273
8834,-276
8835,-277
8836,-275
8837,-272
8838,-273
8839,-276
8840,-276
8841,-274
8842,-273
8843,-272
8844,-277
8845,-276
8846,-275
8847,-272
8848,-273
8849,-276
8850,-277
8851,-276
8852,-272
8853,-273
8854,-276
8855,-277
8856,-275
8857,-273
8858,-274
8859,-275
8860,-277
8861,-275
8862,-273
8863,-274
8864,-276
8865,-277
8866,-276
8867,-272
8868,-273
8869,-275
8870,-276
8871,-275
8872,-273
8873,-273
8874,-276
8875,-277
8876,-276
8877,-272
8878,-272
8879,-276
8880,-276
8881,-276
8882,-272
8883,-273
8884,-275
8885,-276
8886,-274
8887,-274
8888,-273
8889,-276
8890,-277
8891,-275
8892,-273
8893,-273
8894,-275
8895,-277
8896,-274
8897,-273
8898,-275
8899,-277
8900,-276
8901,-272
8902,-273
8903,-276
8904,-275
8905,-275
8906,-272
8907,-273
8908,-275
8909,-277
8910,-274
8911,-272
8912,-273
8913,-276
8914,-277
8915,-274
8916,-272
8917,-272
8918,-275
8919,-277
8920,-275
8921,-273
8922,-273
8923,-275
8924,-277
8925,-276
8926,-273
8927,-272
8928,-275
8929,-276
8930,-276
8931,-273
8932,-273
8933,-274
8934,-276
8935,-275
8936,-272
8937,-272
8938,-275
8939,-277
8940,-275
8941,-273
8942,-273
8943,-275
8944,-277
8945,-275
8946,-274
8947,-272
8948,-275
8949,-277
8950,-275
8951,-272
8952,-273
8953,-275
8954,-277
8955,-275
8956,-273
8957,-272
8958,-275
8959,-276
8960,-275
8961,-272
8962,-273
8963,-274
8964,-276
8965,-275
8966,-274
8967,-273
8968,-274
8969,-276
8970,-275
8971,-272
8972,-272
8973,-275
8974,-277
8975,-274
8976,-272
8977,-273
8978,-275
8979,-276
8980,-275
8981,-272
8982,-272
8983,-274
8984,-276
8985,-275
8986,-272
8987,-272
8988,-273
8989,-276
8990,-275
8991,-272
8992,-272
8993,-274
8994,-277
8995,-275
8996,-273
8997,-272
8998,-274
8999,-276
9000,-276
9001,-273
9002,-271
9003,-273
9004,-277
9005,-274
9006,-272
9007,-272
9008,-273
9009,-276
9010,-276
9011,-272
9012,-272
9013,-274
9014,-275
9015,-275
9016,-272
9017,-271
9018,-274
9019,-276
9020,-275
9021,-273
9022,-272
9023,-273
9024,-276
9025,-275
9026,-271
9027,-271
9028,-274
9029,-275
9030,-275
9031,-272
9032,-271
9033,-273
9034,-276
9035,-275
9036,-272
9037,-272
9038,-273
9039,-276
9040,-276
9041,-272
9042,-272
9043,-273
9044,-276
9045,-275
9046,-272
9047,-272
9048,-273
9049,-276
9050,-275
9051,-273
9052,-271
9053,-274
9054,-275
9055,-275
9056,-272
9057,-271
9058,-274
9059,-276
9060,-275
9061,-273
9062,-270
9063,-273
9064,-276
9065,-275
9066,-272
9067,-272
9068,-272
9069,-275
9070,-276
9071,-272
9072,-272
9073,-273
9074,-276
9075,-275
9076,-272
9077,-271
9078,-272
9079,-274
9080,-275
9081,-272
9082,-271
9083,-272
9084,-275
9085,-275
9086,-272
9087,-271
9088,-272
9089,-275
9090,-275
9091,-272
9092,-271
9093,-272
9094,-275
9095,-275
9096,-272
9097,-271
9098,-272
9099,-275
9100,-275
9101,-272
9102,-271
9103,-272
9104,-275
9105,-275
9106,-272
9107,-271
9108,-272
9109,-275
9110,-274
9111,-272
9112,-271
9113,-272
9114,-275
9115,-275
9116,-272
9117,-271
9118,-273
9119,-275
9120,-275
9121,-271
9122,-271
9123,-272
9124,-274
9125,-275
9126,-273
9127,-270
9128,-272
9129,-275
9130,-275
9131,-272
9132,-271
9133,-272
9134,-275
9135,-275
9136,-273
9137,-271
9138,-272
9139,-276
9140,-275
9141,-273
9142,-271
9143,-272
9144,-275
9145,-275
9146,-272
9147,-270
9148,-272
9149,-274
9150,-275
9151,-272
9152,-270
9153,-272
9154,-275
9155,-275
9156,-273
9157,-270
9158,-272
9159,-275
9160,-275
9161,-273
9162,-271
9163,-272
9164,-274
9165,-274
9166,-272
9167,-270
9168,-271
9169,-275
9170,-275
9171,-272
9172,-270
9173,-271
9174,-274
9175,-275
9176,-273
9177,-270
9178,-272
9179,-275
9180,-275
9181,-273
9182,-271
9183,-271
9184,-274
9185,-274
9186,-273
9187,-270
9188,-272
9189,-274
9190,-275
9191,-272
9192,-270
9193,-271
9194,-273
9195,-275
9196,272
9197,-269
9198,-270
9199,-275
9200,-275
9201,-273
9202,-270
9203,-270
9204,-274
9205,-275
9206,-273
9207,-270
9208,-271
9209,-275
9210,-275
9211,-273
9212,-271
9213,-272
9214,-274
9215,-275
9216,-272
9217,-270
9218,-271
9219,-274
9220,-274
9221,-273
9222,-270
9223,-271
9224,-274
9225,-274
9226,-273
9227,-271
9228,-271
9229,-274
9230,-275
9231,-273
9232,-271
9233,-270
9234,-274
9235,-274
9236,-272
9237,-270
9238,-270
9239,-272
9240,-275
9241,-272
9242,-270
9243,-271
9244,-274
9245,-274
9246,-273
9247,-270
9248,-271
9249,-273
9250,-275
9251,-273
9252,-270
9253,-270
9254,-274
9255,-275
9256,-273
9257,-270
9258,-271
9259,-273
9260,-275
9261,-273
9262,-270
9263,-271
9264,-273
9265,-274
9266,-273
9267,-270
9268,-271
9269,-274
9270,-274
9271,-272
9272,-270
9273,-271
9274,-274
9275,-274
9276,-273
9277,-270
9278,-271
9279,-273
9280,-275
9281,-273
9282,-270
9283,-271
9284,-273
9285,-274
9286,-273
9287,-271
9288,-271
9289,-273
9290,-275
9291,-273
9292,-270
9293,-270
9294,-273
9295,-275
9296,-274
9297,-270
9298,-270
9299,-273
9300,-275
9301,-274
9302,-270
9303,-271
9304,-272
9305,-274
9306,-273
9307,-271
9308,-271
9309,-274
9310,-275
9311,-274
9312,-271
9313,-270
9314,-273
9315,-275
9316,-274
9317,-271
9318,-271
9319,-273
9320,-275
9321,-274
9322,-271
9323,-270
9324,-272
9325,-275
9326,-274
9327,-271
9328,-271
9329,-273
9330,-275
9331,-273
9332,-271
9333,-270
9334,-273
9335,-275
9336,-273
9337,-271
9338,-270
9339,-272
9340,-275
9341,-273
9342,-271
9343,-270
9344,-273
9345,-275
9346,-274
9347,-270
9348,-270
9349,-272
9350,-275
9351,-273
9352,-270
9353,-271
9354,-272
9355,-274
9356,-273
9357,-271
9358,-270
9359,-273
9360,-274
9361,-274
9362,-270
9363,-270
9364,-272
9365,-274
9366,-274
9367,-271
9368,-270
9369,-272
9370,-275
9371,-273
9372,-270
9373,-270
9374,-272
9375,-274
9376,-274
9377,-271
9378,-270
9379,-272
9380,-275
9381,-274
9382,-271
9383,-270
9384,-272
9385,-275
9386,-274
9387,-271
9388,-270
9389,-272
9390,-275
9391,-273
9392,-271
9393,-270
9394,-272
9395,-275
9396,-274
9397,-271
9398,-269
9399,-272
9400,-274
9401,-273
9402,-272
9403,-270
9404,-272
9405,-274
9406,-273
9407,-272
9408,-269
9409,-272
9410,-275
9411,-273
9412,-271
9413,-269
9414,-271
9415,-273
9416,-273
9417,-271
9418,-270
9419,-271
9420,-274
9421,-274
9422,-271
9423,-269
9424,-271
9425,-274
9426,-274
9427,-271
9428,-270
9429,-272
9430,-274
9431,-274
9432,-271
9433,-270
9434,-271
9435,-275
9436,-273
9437,-271
9438,-270
9439,-272
9440,-273
9441,-273
9442,-272
9443,-270
9444,-272
9445,-274
9446,-274
9447,-272
9448,-270
9449,-271
9450,-275
9451,-273
9452,-270
9453,-270
9454,-271
9455,-274
9456,-274
9457,-271
9458,-270
9459,-271
9460,-274
9461,-273
9462,-272
9463,-270
9464,-271
9465,-273
9466,-274
9467,-271
9468,-269
9469,-271
9470,-274
9471,-273
9472,-271
9473,-270
9474,-271
9475,-274
9476,-273
9477,-271
9478,-269
9479,-271
9480,-274
9481,-274
9482,-272
9483,-271
9484,-272
9485,-274
9486,-273
9487,-271
9488,-270
9489,-271
9490,-273
9491,-274
9492,-272
9493,-269
9494,-271
9495,-274
9496,-274
9497,-272
9498,-270
9499,-270
9500,-273
9501,-274
9502,-272
9503,-269
9504,-270
9505,-274
9506,-273
9507,-272
9508,-270
9509,-271
9510,-274
9511,-274
9512,-272
9513,-269
9514,-270
9515,-274
9516,-274
9517,-272
9518,-269
9519,-271
9520,-273
9521,-274
9522,-272
9523,-270
9524,-271
9525,-273
9526,-274
9527,-272
9528,-270
9529,-271
9530,-274
9531,-275
9532,-272
9533,-270
9534,-270
9535,-274
9536,-273
9537,-272
9538,-270
9539,-271
9540,-273
9541,-274
9542,-271
9543,-270
9544,-270
9545,-274
9546,-273
9547,-271
9548,-270
9549,-271
9550,-273
9551,-274
9552,-272
9553,-270
9554,-270
9555,-273
9556,-274
9557,-271
9558,-269
9559,-271
9560,-273
9561,-273
9562,-273
9563,-269
9564,-270
9565,-272
9566,-273
9567,-273
9568,-270
9569,-270
9570,-273
9571,-273
9572,-272
9573,-270
9574,-270
9575,-273
9576,-273
9577,-271
9578,-269
9579,-270
9580,-273
9581,-273
9582,-272
9583,-270
9584,-269
9585,-272
9586,-274
9587,-272
9588,-269
9589,-270
9590,-273
9591,-274
9592,-272
9593,-269
9594,-270
9595,-273
9596,-274
9597,-271
9598,-270
9599,-270
9600,-273
9601,-274
9602,-272
9603,-269
9604,-269
9605,-273
9606,-274
9607,-272
9608,-270
9609,-269
9610,-272
9611,-274
9612,-271
9613,-269
9614,-269
9615,-272
9616,-274
9617,-271
9618,-269
9619,-270
9620,-272
9621,-274
9622,-272
9623,-270
9624,-269
9625,-273
9626,-274
9627,-272
9628,-270
9629,-270
9630,-273
9631,-273
9632,-272
9633,-269
9634,-269
9635,-272
9636,-273
9637,-271
9638,-269
9639,-269
9640,-272
9641,-273
9642,-272
9643,-269
9644,-269
9645,-272
9646,-274
9647,-271
9648,-269
9649,-269
9650,-271
9651,-273
9652,-272
9653,-269
9654,-270
9655,-271
9656,-273
9657,-272
9658,-269
9659,-270
9660,-273
9661,-274
9662,-272
9663,-268
9664,-269
9665,-271
9666,-274
9667,-272
9668,-269
9669,-269
9670,-272
9671,-273
9672,-272
9673,-269
9674,-269
9675,-272
9676,-273
9677,-271
9678,-269
9679,-269
9680,-271
9681,-274
9682,-272
9683,-269
9684,-269
9685,-272
9686,-274
9687,-272
9688,-269
9689,-268
9690,-271
9691,-274
9692,-273
9693,-269
9694,-269
9695,-271
9696,-272
9697,-272
9698,-269
9699,-269
9700,-272
9701,-274
9702,-272
9703,-269
9704,-269
9705,-271
9706,-272
9707,-272
9708,-269
9709,-269
9710,-271
9711,-272
9712,-272
9713,-269
9714,-269
9715,-271
9716,-273
9717,-271
9718,-269
9719,-269
9720,-271
9721,-273
9722,-271
9723,-269
9724,-269
9725,-271
9726,-272
9727,-272
9728,-269
9729,-269
9730,-271
9731,-273
9732,-272
9733,-269
9734,-268
9735,-271
9736,-273
9737,-272
9738,-268
9739,-269
9740,-272
9741,-273
9742,-272
9743,-269
9744,-269
9745,-271
9746,-273
9747,-271
9748,-269
9749,-268
9750,-271
9751,-272
9752,-271
9753,-269
9754,-268
9755,-270
9756,-272
9757,-272
9758,-269
9759,-269
9760,-272
9761,-273
9762,-271
9763,-269
9764,-268
9765,-271
9766,-273
9767,-272
9768,-269
9769,-268
9770,-269
9771,-273
9772,-272
9773,-269
9774,-269
9775,-270
9776,-273
9777,-272
9778,-269
9779,-269
9780,-270
9781,-272
9782,-272
9783,-269
9784,-268
9785,-271
9786,-273
9787,-272
9788,-269
9789,-268
9790,-270
9791,-273
9792,-272
9793,-269
9794,-268
9795,-270
9796,-272
9797,-271
9798,-269
9799,-269
9800,-270
9801,-273
9802,-272
9803,-270
9804,-269
9805,-270
9806,-273
9807,-272
9808,-269
9809,-269
9810,-270
9811,-272
9812,-273
9813,-269
9814,-268
9815,-270
9816,-273
9817,-272
9818,-269
9819,-268
9820,-271
9821,-272
9822,-272
9823,-269
9824,-268
9825,-269
9826,-273
9827,-272
9828,-270
9829,-268
9830,-270
9831,-273
9832,-272
9833,-269
9834,-268
9835,-270
9836,-273
9837,-271
9838,-269
9839,-269
9840,-271
9841,-274
9842,-272
9843,-269
9844,-268
9845,-269
9846,-273
9847,-272
9848,-269
9849,-270
9850,-272
9851,-271
9852,-270
9853,-268
9854,-269
9855,-273
9856,-272
9857,-269
9858,-268
9859,-270
9860,-274
9861,-272
9862,-270
9863,-269
9864,-270
9865,-273
9866,-273
9867,-270
9868,-269
9869,-270
9870,-272
9871,-272
9872,-270
9873,-269
9874,-269
9875,-272
9876,-273
9877,-270
9878,-269
9879,-270
9880,-272
9881,-272
9882,-271
9883,-268
9884,-269
9885,-272
9886,-272
9887,-270
9888,-269
9889,-270
9890,-273
9891,-272
9892,-270
9893,-269
9894,-269
9895,-272
9896,-273
9897,-271
9898,-269
9899,-270
9900,-273
9901,-272
9902,-270
9903,-269
9904,-270
9905,-273
9906,-273
9907,-270
9908,-268
9909,-270
9910,-272
9911,-272
9912,-270
9913,-269
9914,-270
9915,-272
9916,-272
9917,-270
9918,-268
9919,-269
9920,-273
9921,-273
9922,-270
9923,-269
9924,-269
9925,-273
9926,-273
9927,-270
9928,-267
9929,-270
9930,-273
9931,-272
9932,-271
9933,-268
9934,-271
9935,-272
9936,-272
9937,-270
9938,-269
9939,-269
9940,-273
9941,-271
9942,-271
9943,-268
9944,-270
9945,-273
9946,-273
9947,-270
9948,-269
9949,-269
9950,-272
9951,-272
9952,-271
9953,-268
9954,-270
9955,-272
9956,-273
9957,-271
9958,-268
9959,-269
9960,-272
9961,-272
9962,-271
9963,-269
9964,-269
9965,-271
9966,-272
9967,-271
9968,-268
9969,-269
9970,-272
9971,-272
9972,-271
9973,-269
9974,-269
9975,-272
9976,-273
9977,-271
9978,-268
9979,-269
9980,-272
9981,-272
9982,-270
9983,-268
9984,-268
9985,-272
9986,-273
9987,-271
9988,-269
9989,-269
9990,-271
9991,-272
9992,-272
9993,-269
9994,-270
9995,-272
9996,-273
9997,-271
9998,-269
9999,-268
10000,-272
