,0
0,-645
1,-644
2,-641
3,-642
4,-645
5,-646
6,-644
7,-641
8,-642
9,-645
10,-646
11,-644
12,-641
13,-642
14,-645
15,-645
16,-644
17,-642
18,-642
19,-644
20,-647
21,-644
22,-642
23,-642
24,-645
25,-646
26,-644
27,-642
28,-643
29,-646
30,-647
31,-644
32,-641
33,-643
34,-645
35,-646
36,-644
37,-642
38,-642
39,-646
40,-646
41,-644
42,-642
43,-643
44,-645
45,-645
46,-645
47,-642
48,-641
49,-645
50,-646
51,-644
52,-642
53,-643
54,-645
55,-647
56,-644
57,-641
58,-642
59,-645
60,-646
61,-645
62,-643
63,-643
64,-645
65,-646
66,-644
67,-641
68,-643
69,-646
70,-647
71,-645
72,-643
73,-643
74,-645
75,-647
76,-644
77,-643
78,-643
79,-644
80,-646
81,-646
82,-642
83,-643
84,-646
85,-647
86,-645
87,-643
88,-643
89,-646
90,-648
91,-646
92,-643
93,-643
94,-646
95,-647
96,-645
97,-643
98,-643
99,-646
100,-646
101,-645
102,-643
103,-642
104,-646
105,-647
106,-645
107,-643
108,-643
109,-645
110,-647
111,-645
112,-644
113,-643
114,-645
115,-646
116,-645
117,-642
118,-642
119,-645
120,-647
121,-644
122,-643
123,-643
124,-646
125,-648
126,-646
127,-643
128,-644
129,-646
130,-647
131,-645
132,-643
133,-643
134,-646
135,-647
136,-645
137,-642
138,-643
139,-646
140,-648
141,-646
142,-643
143,-643
144,-646
145,-648
146,-646
147,-644
148,-644
149,-645
150,-647
151,-646
152,-644
153,-643
154,-646
155,-648
156,-646
157,-643
158,-643
159,-646
160,-648
161,-646
162,-643
163,-643
164,-646
165,-648
166,-646
167,-643
168,-643
169,-646
170,-647
171,-646
172,-644
173,-643
174,-646
175,-647
176,-646
177,-644
178,-644
179,-646
180,-648
181,-646
182,-643
183,-643
184,-646
185,-647
186,-645
187,-643
188,-644
189,-646
190,-647
191,-647
192,-644
193,-644
194,-645
195,-649
196,-646
197,-644
198,-643
199,-645
200,-647
201,-646
202,-644
203,-643
204,-646
205,-647
206,-647
207,-645
208,-644
209,-646
210,-648
211,-647
212,-644
213,-644
214,-646
215,-648
216,-646
217,-645
218,-644
219,-646
220,-647
221,-647
222,-644
223,-643
224,-646
225,-649
226,-647
227,-644
228,-645
229,-646
230,-649
231,-647
232,-644
233,-644
234,-646
235,-649
236,-647
237,-644
238,-644
239,-646
240,-648
241,-647
242,-644
243,-644
244,-645
245,-648
246,-648
247,-645
248,-644
249,-647
250,-648
251,-648
252,-646
253,-643
254,-646
255,-648
256,-648
257,-645
258,-644
259,-646
260,-649
261,-647
262,-645
263,-644
264,-646
265,-648
266,-646
267,-645
268,-643
269,-646
270,-648
271,-648
272,-644
273,-643
274,-646
275,-648
276,-647
277,-645
278,-644
279,-646
280,-648
281,-648
282,-644
283,-644
284,-646
285,-648
286,-647
287,-644
288,-644
289,-646
290,-649
291,-648
292,-644
293,-644
294,-645
295,-649
296,-647
297,-645
298,-644
299,-646
300,-648
301,-647
302,-645
303,-643
304,-645
305,-648
306,-647
307,-645
308,-644
309,-645
310,-648
311,-648
312,-645
313,-643
314,-645
315,-648
316,-647
317,-644
318,-644
319,-646
320,-649
321,-648
322,-646
323,-644
324,-646
325,-648
326,-648
327,-645
328,-644
329,-646
330,-649
331,-648
332,-645
333,-643
334,-645
335,-648
336,-648
337,-644
338,-644
339,-646
340,-648
341,-648
342,-646
343,-644
344,-646
345,-648
346,-648
347,-646
348,-644
349,-646
350,-649
351,-648
352,-645
353,-645
354,-646
355,-648
356,-648
357,-645
358,-644
359,-645
360,-648
361,-648
362,-646
363,-645
364,-646
365,-648
366,-648
367,-646
368,-644
369,-646
370,-649
371,-648
372,-646
373,-644
374,-646
375,-649
376,-648
377,-645
378,-645
379,-646
380,-649
381,-647
382,-646
383,-644
384,-646
385,-649
386,-648
387,-646
388,-644
389,-646
390,-649
391,-648
392,-646
393,-644
394,-646
395,-648
396,-649
397,-646
398,-645
399,-646
400,-648
401,-648
402,-646
403,-645
404,-645
405,-649
406,-648
407,-646
408,-645
409,-646
410,-648
411,-649
412,-646
413,-645
414,-646
415,-649
416,-648
417,-647
418,-645
419,-646
420,-650
421,-648
422,-644
423,-646
424,-649
425,-649
426,-646
427,-645
428,-645
429,-647
430,-648
431,-647
432,-645
433,-646
434,-649
435,-648
436,-647
437,-645
438,-646
439,-648
440,-648
441,-646
442,-644
443,-646
444,-648
445,-648
446,-647
447,-645
448,-646
449,-649
450,-648
451,-647
452,-645
453,-646
454,-648
455,-649
456,-647
457,-644
458,-646
459,-648
460,-649
461,-646
462,-645
463,-646
464,-648
465,-649
466,-647
467,-645
468,-646
469,-649
470,-648
471,-646
472,-645
473,-646
474,-649
475,-649
476,-647
477,-644
478,-646
479,-649
480,-649
481,-646
482,-645
483,-645
484,-648
485,-649
486,-647
487,-644
488,-646
489,-649
490,-649
491,-647
492,-645
493,-646
494,-648
495,-650
496,-647
497,-644
498,-646
499,-649
500,-649
501,-646
502,-645
503,-646
504,-648
505,-649
506,-647
507,-645
508,-645
509,-649
510,-649
511,-647
512,-645
513,-646
514,-648
515,-649
516,-647
517,-645
518,-646
519,-649
520,-649
521,-647
522,-645
523,-646
524,-649
525,-648
526,-649
527,-645
528,-646
529,-648
530,-649
531,-648
532,-646
533,-647
534,-649
535,-649
536,-648
537,-645
538,-645
539,-649
540,-649
541,-647
542,-645
543,-647
544,-650
545,-650
546,-648
547,-645
548,-646
549,-649
550,-649
551,-647
552,-645
553,-646
554,648
555,-649
556,-648
557,-645
558,-646
559,-649
560,-650
561,-647
562,-645
563,-646
564,-648
565,-649
566,-648
567,-646
568,-646
569,-648
570,-650
571,-647
572,-646
573,-645
574,-648
575,-650
576,-647
577,-645
578,-645
579,-648
580,-649
581,-648
582,-645
583,-646
584,-648
585,-649
586,-648
587,-645
588,-645
589,-648
590,-649
591,-648
592,-645
593,-646
594,-649
595,-650
596,-647
597,-644
598,-646
599,-648
600,-650
601,-648
602,-646
603,-646
604,-648
605,-649
606,-648
607,-645
608,-645
609,-649
610,-649
611,-648
612,-645
613,-645
614,-648
615,-649
616,-647
617,-645
618,-645
619,-648
620,-649
621,-648
622,-645
623,-646
624,-648
625,-649
626,-648
627,-646
628,-645
629,-648
630,-650
631,-648
632,-645
633,-646
634,-648
635,-650
636,-648
637,-645
638,-645
639,-648
640,-649
641,-648
642,-645
643,-645
644,-648
645,-650
646,-648
647,-645
648,-646
649,-648
650,-650
651,-648
652,-646
653,-644
654,-648
655,-649
656,-648
657,-646
658,-646
659,-647
660,-650
661,-648
662,-645
663,-646
664,-648
665,-649
666,-648
667,-646
668,-646
669,-648
670,-650
671,-648
672,-646
673,-645
674,-648
675,-651
676,-649
677,-646
678,-646
679,-648
680,-650
681,-650
682,-646
683,-646
684,-648
685,-649
686,-649
687,-646
688,-645
689,-648
690,-650
691,-648
692,-647
693,-646
694,-648
695,-650
696,-649
697,-646
698,-646
699,-648
700,-650
701,-650
702,-647
703,-645
704,-647
705,-650
706,-649
707,-647
708,-647
709,-648
710,-651
711,-649
712,-647
713,-646
714,-648
715,-650
716,-649
717,-646
718,-646
719,-648
720,-650
721,-649
722,-647
723,-645
724,-648
725,-650
726,-649
727,-646
728,-646
729,-648
730,-650
731,-650
732,-647
733,-645
734,-648
735,-651
736,-649
737,-646
738,-646
739,-648
740,-650
741,-650
742,-647
743,-645
744,-648
745,-649
746,-650
747,-647
748,-646
749,-648
750,-651
751,-650
752,-647
753,-646
754,-648
755,-650
756,-650
757,-647
758,-646
759,-647
760,-651
761,-650
762,-647
763,-646
764,-649
765,-651
766,-649
767,-646
768,-646
769,-648
770,-651
771,-651
772,-648
773,-647
774,-648
775,-651
776,-651
777,-648
778,-646
779,-647
780,-651
781,-649
782,-647
783,-646
784,-647
785,-651
786,-650
787,-648
788,-646
789,-648
790,-651
791,-649
792,-648
793,-646
794,-648
795,-651
796,-651
797,-648
798,-647
799,-648
800,-651
801,-651
802,-648
803,-646
804,-648
805,-651
806,-651
807,-648
808,-646
809,-648
810,-651
811,-651
812,-648
813,-647
814,-648
815,-651
816,-651
817,-648
818,-645
819,-646
820,-650
821,-648
822,-646
823,-648
824,-651
825,-650
826,-648
827,-646
828,-648
829,-651
830,-651
831,-649
832,-647
833,-649
834,-651
835,-651
836,-648
837,-647
838,-648
839,-651
840,-651
841,-648
842,-647
843,-648
844,-651
845,-651
846,-649
847,-647
848,-648
849,-651
850,-651
851,-648
852,-647
853,-647
854,-651
855,-650
856,-649
857,-646
858,-648
859,-649
860,-651
861,-648
862,-646
863,-648
864,-651
865,-651
866,-648
867,-648
868,-651
869,-651
870,-648
871,-646
872,-647
873,-650
874,-650
875,-648
876,-646
877,-648
878,-651
879,-651
880,-648
881,-646
882,-648
883,-651
884,-651
885,-648
886,-646
887,-648
888,-650
889,-651
890,-649
891,-646
892,-648
893,-651
894,-650
895,-648
896,-647
897,-648
898,-651
899,-650
900,-649
901,-647
902,-647
903,-650
904,-650
905,-648
906,-646
907,-648
908,-651
909,-651
910,-648
911,-646
912,-647
913,-651
914,-651
915,-650
916,-646
917,-647
918,-651
919,-651
920,-648
921,-645
922,-648
923,-650
924,-651
925,-649
926,-647
927,-647
928,-651
929,-651
930,-649
931,-646
932,-647
933,-650
934,-651
935,-648
936,-646
937,-647
938,-650
939,-651
940,-650
941,-647
942,-648
943,-650
944,-651
945,-649
946,-647
947,-647
948,-650
949,-651
950,-648
951,-646
952,-647
953,-649
954,-651
955,-648
956,-647
957,-647
958,-650
959,-651
960,-649
961,-646
962,-648
963,-649
964,-651
965,-650
966,-647
967,-647
968,-650
969,-650
970,-649
971,-646
972,-646
973,-650
974,-650
975,-649
976,-647
977,-647
978,-650
979,-650
980,-648
981,-647
982,-647
983,-648
984,-650
985,-649
986,-646
987,-646
988,-649
989,-650
990,-649
991,-647
992,-647
993,-648
994,-651
995,-648
996,-645
997,-647
998,-649
999,-650
1000,-649
