,0
0,-635
1,-632
2,-634
3,-637
4,-638
5,-635
6,-633
7,-634
8,-637
9,-637
10,-635
11,-633
12,-634
13,-637
14,-637
15,-636
16,-633
17,-634
18,-637
19,-636
20,-635
21,-633
22,-634
23,-636
24,-638
25,-635
26,-634
27,-635
28,-637
29,-638
30,-635
31,-633
32,-634
33,-637
34,-637
35,-635
36,-634
37,-635
38,-637
39,-637
40,-636
41,-633
42,-635
43,-638
44,-637
45,-636
46,-633
47,-634
48,-637
49,-636
50,-635
51,-633
52,-634
53,-637
54,-637
55,-635
56,-633
57,-634
58,-637
59,-638
60,-635
61,-634
62,-633
63,-637
64,-637
65,-636
66,-633
67,-634
68,-637
69,-637
70,-635
71,-633
72,-634
73,-637
74,-638
75,-635
76,-633
77,-635
78,-637
79,-638
80,-636
81,-633
82,-634
83,-637
84,-639
85,-637
86,-633
87,-634
88,-637
89,-638
90,-636
91,-633
92,-634
93,-637
94,-638
95,-636
96,-633
97,-633
98,-638
99,-638
100,-635
101,-634
102,-634
103,-637
104,-638
105,-636
106,-634
107,-634
108,-637
109,-637
110,-636
111,-634
112,-635
113,-637
114,-637
115,-636
116,-633
117,-634
118,-637
119,-638
120,-637
121,-633
122,-635
123,-637
124,-638
125,-637
126,-634
127,-634
128,-637
129,-638
130,-637
131,-633
132,-635
133,-637
134,-638
135,-636
136,-634
137,-633
138,-636
139,-638
140,-636
141,-634
142,-634
143,-637
144,-638
145,-636
146,-634
147,-634
148,-637
149,-638
150,-637
151,-633
152,-635
153,-636
154,-638
155,-637
156,-634
157,-634
158,-636
159,638
160,-636
161,-634
162,-634
163,-637
164,-637
165,-636
166,-634
167,-634
168,-637
169,-637
170,-637
171,-634
172,-634
173,-637
174,-637
175,-636
176,-634
177,-633
178,-636
179,-638
180,-636
181,-634
182,-634
183,-636
184,-638
185,-637
186,-634
187,-634
188,-636
189,-637
190,-636
191,-634
192,-634
193,-636
194,-637
195,-637
196,-634
197,-634
198,-637
199,-637
200,-636
201,-634
202,-634
203,-636
204,-638
205,-636
206,-634
207,-633
208,-635
209,-637
210,-636
211,-633
212,-634
213,-636
214,-638
215,-637
216,-634
217,-633
218,-637
219,-639
220,-637
221,-634
222,-634
223,-637
224,-638
225,-636
226,-634
227,-634
228,-636
229,-638
230,-637
231,-634
232,-634
233,-636
234,-638
235,-637
236,-634
237,-634
238,-636
239,-639
240,-638
241,-634
242,-634
243,-636
244,-638
245,-636
246,-634
247,-634
248,-636
249,-638
250,-638
251,-634
252,-633
253,-636
254,-639
255,-637
256,-635
257,-634
258,-636
259,-638
260,-637
261,-635
262,-634
263,-636
264,-638
265,-636
266,-634
267,-634
268,-634
269,-638
270,-637
271,-634
272,-633
273,-636
274,-638
275,-637
276,-634
277,-634
278,-636
279,-638
280,-637
281,-634
282,-632
283,-635
284,-638
285,-637
286,-634
287,-634
288,-635
289,-639
290,-637
291,-635
292,-634
293,-636
294,-638
295,-636
296,-635
297,-634
298,-635
299,-638
300,-635
301,-635
302,-634
303,-635
304,-637
305,-637
306,-635
307,-634
308,-636
309,-638
310,-637
311,-634
312,-633
313,-635
314,-637
315,-637
316,-634
317,-633
318,-635
319,-638
320,-637
321,-635
322,-634
323,-635
324,-638
325,-637
326,-635
327,-634
328,-635
329,-638
330,-637
331,-635
332,-634
333,-635
334,-637
335,-638
336,-635
337,-633
338,-636
339,-638
340,-638
341,-635
342,-634
343,-636
344,-638
345,-637
346,-635
347,-633
348,-636
349,-638
350,-637
351,-636
352,-634
353,-635
354,-639
355,-637
356,-636
357,-634
358,-635
359,-639
360,-637
361,-636
362,-634
363,-636
364,-639
365,-638
366,-636
367,-634
368,-635
369,-639
370,-637
371,-635
372,-634
373,-635
374,-638
375,-637
376,-635
377,-634
378,-635
379,-639
380,-638
381,-635
382,-635
383,-636
384,-638
385,-638
386,-636
387,-635
388,-636
389,-639
390,-638
391,-635
392,-634
393,-635
394,-638
395,-637
396,-636
397,-634
398,-636
399,-639
400,-638
401,-636
402,-634
403,-636
404,-639
405,-639
406,-636
407,-634
408,-636
409,-639
410,-639
411,-637
412,-634
413,-635
414,-638
415,-639
416,-636
417,-635
418,-636
419,-637
420,-639
421,-636
422,-634
423,-635
424,-638
425,-639
426,-636
427,-634
428,-636
429,-639
430,-639
431,-637
432,-634
433,-635
434,-638
435,-639
436,-636
437,-635
438,-635
439,-639
440,-638
441,-636
442,-635
443,-635
444,-638
445,-639
446,-637
447,-635
448,-636
449,-638
450,-638
451,-638
452,-634
453,-636
454,-638
455,-639
456,-638
457,-635
458,-635
459,-638
460,-640
461,-637
462,-636
463,-635
464,-637
465,-639
466,-638
467,-634
468,-634
469,-638
470,-639
471,-637
472,-635
473,-635
474,-638
475,-639
476,-637
477,-634
478,-635
479,-637
480,-639
481,-637
482,-634
483,-635
484,-638
485,-639
486,-636
487,-635
488,-635
489,-637
490,-639
491,-638
492,-635
493,-635
494,-638
495,-638
496,-637
497,-634
498,-636
499,-638
500,-639
501,-637
502,-635
503,-635
504,-638
505,-639
506,-637
507,-635
508,-635
509,-638
510,-639
511,-637
512,-635
513,-635
514,-637
515,-639
516,-638
517,-635
518,-635
519,-639
520,-639
521,-637
522,-635
523,-635
524,-638
525,-640
526,-637
527,-634
528,-635
529,-637
530,-639
531,-638
532,-634
533,-635
534,-638
535,-638
536,-638
537,-634
538,-635
539,-638
540,-639
541,-637
542,-634
543,-635
544,-637
545,-640
546,-638
547,-634
548,-634
549,-637
550,-639
551,-637
552,-636
553,-634
554,-638
555,-639
556,-638
557,-635
558,-634
559,-638
560,-639
561,-638
562,-634
563,-635
564,-637
565,-639
566,-637
567,-635
568,-635
569,-637
570,-639
571,-636
572,-635
573,-634
574,-636
575,-639
576,-637
577,-635
578,-634
579,-636
580,-639
581,-637
582,-634
583,-634
584,-637
585,-639
586,-637
587,-635
588,-634
589,-636
590,-639
591,-637
592,-635
593,-634
594,-637
595,-639
596,-638
597,-635
598,-635
599,-637
600,-639
601,-639
602,-634
603,-634
604,-637
605,-639
606,-637
607,-635
608,-634
609,-637
610,-639
611,-638
612,-634
613,-634
614,-637
615,-639
616,-638
617,-635
618,-634
619,-637
620,-638
621,-638
622,-635
623,-634
624,-637
625,-640
626,-638
627,-635
628,-635
629,-637
630,-639
631,-638
632,-635
633,-634
634,-637
635,-640
636,-637
637,-635
638,-635
639,-636
640,-639
641,-638
642,-635
643,-634
644,-636
645,-639
646,-638
647,-635
648,-635
649,-636
650,-639
651,-638
652,-636
653,-634
654,-635
655,-638
656,-638
657,-635
658,-635
659,-637
660,-639
661,-638
662,-636
663,-634
664,-637
665,-640
666,-639
667,-633
668,-636
669,-639
670,-638
671,-636
672,-634
673,-636
674,-639
675,-639
676,-635
677,-634
678,-636
679,-639
680,-639
681,-636
682,-634
683,-637
684,-639
685,-638
686,-635
687,-634
688,-636
689,-640
690,-638
691,-636
692,-634
693,-636
694,-639
695,-638
696,-636
697,-635
698,-636
699,-640
700,-638
701,-636
702,-635
703,-636
704,-640
705,-639
706,-636
707,-635
708,-636
709,-638
710,-638
711,-636
712,-635
713,-636
714,-638
715,-638
716,-637
717,-635
718,-636
719,-639
720,-639
721,-636
722,-635
723,-637
724,-639
725,-639
726,-636
727,-635
728,-636
729,-640
730,-639
731,-636
732,-635
733,-637
734,-640
735,-639
736,-637
737,-635
738,-636
739,-639
740,-639
741,-636
742,-635
743,-637
744,-640
745,-639
746,-637
747,-635
748,-637
749,-639
750,-639
751,-637
752,-635
753,-636
754,-640
755,-639
756,-636
757,-635
758,-637
759,-640
760,-639
761,-637
762,-635
763,-637
764,-640
765,-639
766,-636
767,-636
768,-637
769,-639
770,-640
771,-636
772,-636
773,-637
774,-640
775,-640
776,-636
777,-635
778,-637
779,-640
780,-639
781,-638
782,-635
783,-637
784,-640
785,-640
786,-637
787,-636
788,-637
789,-640
790,-640
791,-637
792,-635
793,-637
794,-640
795,-640
796,-637
797,-635
798,-636
799,-640
800,-640
801,-638
802,-636
803,-636
804,-640
805,-639
806,-637
807,-635
808,-637
809,-640
810,-640
811,-639
812,-635
813,-637
814,-639
815,-639
816,-637
817,-635
818,-637
819,-639
820,-640
821,-637
822,-634
823,-637
824,-639
825,-639
826,-638
827,-636
828,-637
829,-639
830,-640
831,-638
832,-634
833,-636
834,-640
835,-641
836,-637
837,-636
838,-636
839,-639
840,-640
841,-638
842,-635
843,-636
844,-640
845,-640
846,-638
847,-636
848,-637
849,-640
850,-640
851,-637
852,-635
853,-637
854,-639
855,-640
856,-637
857,-635
858,-636
859,-640
860,-640
861,-639
862,-636
863,-638
864,-639
865,-640
866,-638
867,-636
868,-636
869,-640
870,-640
871,-638
872,-636
873,-636
874,-639
875,-640
876,-638
877,-635
878,-636
879,-640
880,-640
881,-638
882,-636
883,-637
884,-640
885,-640
886,-639
887,-635
888,-637
889,-639
890,-640
891,-639
892,-635
893,-636
894,-639
895,-640
896,-637
897,-635
898,-637
899,-640
900,-640
901,-638
902,-636
903,-637
904,-640
905,-640
906,-638
907,-635
908,-637
909,-639
910,-640
911,-638
912,-636
913,-637
914,-639
915,-641
916,-639
917,-636
918,-637
919,-639
920,-641
921,-638
922,-636
923,-636
924,-639
925,-640
926,-638
927,-635
928,-636
929,-640
930,-640
931,-638
932,-635
933,-636
934,-639
935,-639
936,-638
937,-636
938,-637
939,-639
940,-640
941,-638
942,-636
943,-636
944,-639
945,-640
946,-639
947,-636
948,-637
949,-639
950,-641
951,-639
952,-636
953,-637
954,-639
955,-640
956,-639
957,-636
958,-636
959,-639
960,-640
961,-639
962,-636
963,-636
964,-640
965,-640
966,-639
967,-635
968,-637
969,-638
970,-640
971,-639
972,-635
973,-636
974,-639
975,-641
976,-639
977,-635
978,-637
979,-638
980,-641
981,-639
982,-635
983,-636
984,-639
985,-640
986,-638
987,-636
988,-637
989,-639
990,-640
991,-639
992,-636
993,-637
994,-639
995,-640
996,-639
997,-636
998,-636
999,-638
1000,-640
1001,-638
1002,-636
1003,-635
1004,-639
1005,-640
1006,-639
1007,-637
1008,-636
1009,-639
1010,-641
1011,-639
1012,-636
1013,-635
1014,-639
1015,-641
1016,-639
1017,-636
1018,-636
1019,-638
1020,-640
1021,-638
1022,-636
1023,-636
1024,-637
1025,-640
1026,-639
1027,-637
1028,-636
1029,-639
1030,-640
1031,-639
1032,-636
1033,-636
1034,-638
1035,-640
1036,-639
1037,-635
1038,-636
1039,-638
1040,-640
1041,-639
1042,-636
1043,-636
1044,-638
1045,-640
1046,-639
1047,-636
1048,-636
1049,-637
1050,-639
1051,-638
1052,-637
1053,-636
1054,-637
1055,-640
1056,-639
1057,-636
1058,-637
1059,-638
1060,-639
1061,-639
1062,-635
1063,-636
1064,-638
1065,-640
1066,-640
1067,-637
1068,-636
1069,-638
1070,-640
1071,-638
1072,-637
1073,-636
1074,-638
1075,-640
1076,-639
1077,-636
1078,-636
1079,-638
1080,-641
1081,-638
1082,-636
1083,-635
1084,-638
1085,-640
1086,-639
1087,-636
1088,-637
1089,-637
1090,-640
1091,-638
1092,-636
1093,-635
1094,-638
1095,-640
1096,-640
1097,-636
1098,-634
1099,-638
1100,-640
1101,-639
1102,-636
1103,-636
1104,-637
1105,-640
1106,-638
1107,-636
1108,-634
1109,-638
1110,-639
1111,-639
1112,-636
1113,-636
1114,-638
1115,-639
1116,-638
1117,-637
1118,-634
1119,-637
1120,-639
1121,-637
1122,-637
1123,-635
1124,-637
1125,-640
1126,-639
1127,-636
1128,-635
1129,-637
1130,-639
1131,-639
1132,-636
1133,-635
1134,-637
1135,-639
1136,-639
1137,-636
1138,-636
1139,-637
1140,-640
1141,-639
1142,-637
1143,-635
1144,-637
1145,-639
1146,-638
1147,-635
1148,-635
1149,-637
1150,-640
1151,-639
1152,-637
1153,-635
1154,-637
1155,-640
1156,-639
1157,-637
1158,-636
1159,-636
1160,-639
1161,-639
1162,-637
1163,-635
1164,-637
1165,-640
1166,-638
1167,-637
1168,-634
1169,-636
1170,-639
1171,-638
1172,-636
1173,-636
1174,-636
1175,-639
1176,-639
1177,-636
1178,-635
1179,-636
1180,-639
1181,-638
1182,-636
1183,-634
1184,-636
1185,-640
1186,-640
1187,-636
1188,-635
1189,-636
1190,-639
1191,-639
1192,-637
1193,-635
1194,-637
1195,-639
1196,-638
1197,-636
1198,-635
1199,-637
1200,-640
1201,-638
1202,-636
1203,-635
1204,-636
1205,-639
1206,-639
1207,-636
1208,-634
1209,-636
1210,-639
1211,-639
1212,-636
1213,-635
1214,-637
1215,-639
1216,-639
1217,-636
1218,-634
1219,-636
1220,-639
1221,-638
1222,-636
1223,-634
1224,-636
1225,-640
1226,-639
1227,-637
1228,-635
1229,-636
1230,-639
1231,-638
1232,-636
1233,-635
1234,-636
1235,-639
1236,-639
1237,-636
1238,-635
1239,-636
1240,-639
1241,-639
1242,-637
1243,-634
1244,-636
1245,-639
1246,-639
1247,-636
1248,-635
1249,-635
1250,-639
1251,-639
1252,-637
1253,-635
1254,-637
1255,-639
1256,-640
1257,-636
1258,-635
1259,-636
1260,-639
1261,-640
1262,-637
1263,-634
1264,-636
1265,-638
1266,-639
1267,-637
1268,-634
1269,-636
1270,-639
1271,-640
1272,-637
1273,-635
1274,-637
1275,-639
1276,-639
1277,-637
1278,-635
1279,-635
1280,-639
1281,-638
1282,-636
1283,-634
1284,-637
1285,-640
1286,-639
1287,-637
1288,-635
1289,-635
1290,-639
1291,-639
1292,-637
1293,-635
1294,-635
1295,-639
1296,-639
1297,-636
1298,-634
1299,-635
1300,-640
1301,-639
1302,-636
1303,-634
1304,-636
1305,-639
1306,-639
1307,-636
1308,-634
1309,-636
1310,-639
1311,-638
1312,-636
1313,-634
1314,-636
1315,-639
1316,-637
1317,-637
1318,-635
1319,-635
1320,-638
1321,-639
1322,-637
1323,-635
1324,-636
1325,-639
1326,-639
1327,-636
1328,-634
1329,-636
1330,-638
1331,-639
1332,-636
1333,-634
1334,-635
1335,-638
1336,-638
1337,-636
1338,-635
1339,-636
1340,-639
1341,-639
1342,-636
1343,-634
1344,-635
1345,-638
1346,-638
1347,-636
1348,-635
1349,-636
1350,-639
1351,-639
1352,-636
1353,-634
1354,-635
1355,-638
1356,-638
1357,-636
1358,-634
1359,-636
1360,-637
1361,-638
1362,-636
1363,-634
1364,-635
1365,-638
1366,-638
1367,-636
1368,-634
1369,-634
1370,-638
1371,-638
1372,-636
1373,-634
1374,-635
1375,-639
1376,-639
1377,-636
1378,-633
1379,-636
1380,-637
1381,-638
1382,-636
1383,-633
1384,-635
1385,-639
1386,-638
1387,-635
1388,-634
1389,-634
1390,-639
1391,-639
1392,-636
1393,-634
1394,-635
1395,-638
1396,-638
1397,-636
1398,-633
1399,-635
1400,-638
1401,-637
1402,-636
1403,-634
1404,-635
1405,-638
1406,-638
1407,-636
1408,-634
1409,-635
1410,-638
1411,-637
1412,-635
1413,-633
1414,-635
1415,-639
1416,-638
1417,-636
1418,-633
1419,-635
1420,-639
1421,-638
1422,-636
1423,-634
1424,-635
1425,-639
1426,-637
1427,-636
1428,-634
1429,-635
1430,-637
1431,-638
1432,-636
1433,-634
1434,-635
1435,-638
1436,-636
1437,-634
1438,-635
1439,-638
1440,-638
1441,-636
1442,-634
1443,-635
1444,-638
1445,-637
1446,-636
1447,-634
1448,-635
1449,-637
1450,-637
1451,-635
1452,-634
1453,-634
1454,-638
1455,-639
1456,-636
1457,-634
1458,-634
1459,-638
1460,-638
1461,-636
1462,-634
1463,-635
1464,-639
1465,-638
1466,-636
1467,-634
1468,-635
1469,-637
1470,-638
1471,-636
1472,-633
1473,-635
1474,-639
1475,-638
1476,-635
1477,-634
1478,-635
1479,-639
1480,-638
1481,-635
1482,-634
1483,-636
1484,-639
1485,-638
1486,-636
1487,-634
1488,-635
1489,-637
1490,-639
1491,-637
1492,-634
1493,-635
1494,-637
1495,-639
1496,-636
1497,-635
1498,-634
1499,-638
1500,-639
1501,-636
1502,-634
1503,-636
1504,-638
1505,-639
1506,-636
1507,-634
1508,-636
1509,-639
1510,-638
1511,-637
1512,-634
1513,-635
1514,-638
1515,-639
1516,-636
1517,-634
1518,-635
1519,-639
1520,-638
1521,-636
1522,-635
1523,-636
1524,-639
1525,-638
1526,-637
1527,-634
1528,-635
1529,-639
1530,-638
1531,-636
1532,-634
1533,-636
1534,-638
1535,-639
1536,-636
1537,-634
1538,-635
1539,-638
1540,-639
1541,-636
1542,-634
1543,-635
1544,-638
1545,-639
1546,-636
1547,-635
1548,-635
1549,-639
1550,-637
1551,-636
1552,-634
1553,-634
1554,-638
1555,-639
1556,-636
1557,-635
1558,-636
1559,-638
1560,-639
1561,-637
1562,-634
1563,-635
1564,-638
1565,-638
1566,-636
1567,-634
1568,-635
1569,-638
1570,-638
1571,-637
1572,-634
1573,-636
1574,-638
1575,-638
1576,-636
1577,-634
1578,-635
1579,-637
1580,-639
1581,-637
1582,-633
1583,-635
1584,-638
1585,-638
1586,-637
1587,-634
1588,-636
1589,-638
1590,-638
1591,-636
1592,-633
1593,-634
1594,-638
1595,-638
1596,-636
1597,-634
1598,-634
1599,-638
1600,-639
1601,-636
1602,-634
1603,-634
1604,-638
1605,-638
1606,-636
1607,-634
1608,-635
1609,-639
1610,-639
1611,-636
1612,-635
1613,-636
1614,-638
1615,-639
1616,-636
1617,-634
1618,-635
1619,-639
1620,-639
1621,-637
1622,-633
1623,-635
1624,-638
1625,-638
1626,-637
1627,-634
1628,-635
1629,-639
1630,-637
1631,-636
1632,-634
1633,-636
1634,-639
1635,-638
1636,-636
1637,-633
1638,-635
1639,-639
1640,-639
1641,-636
1642,-634
1643,-635
1644,-638
1645,-638
1646,-637
1647,-633
1648,-634
1649,-638
1650,-638
1651,-636
1652,-633
1653,-635
1654,-638
1655,-638
1656,-637
1657,-634
1658,-635
1659,-639
1660,-638
1661,-636
1662,-634
1663,-635
1664,-638
1665,-638
1666,-636
1667,-634
1668,-636
1669,-638
1670,-637
1671,-636
1672,-634
1673,-635
1674,-637
1675,-637
1676,-636
1677,-634
1678,-635
1679,-637
1680,-639
1681,-636
1682,-634
1683,-634
1684,-639
1685,-638
1686,-636
1687,-633
1688,-634
1689,-638
1690,-638
1691,-635
1692,-634
1693,-634
1694,-638
1695,-637
1696,-636
1697,-633
1698,-635
1699,-638
1700,-638
1701,-635
1702,-634
1703,-635
1704,-637
1705,-639
1706,-635
1707,-633
1708,-636
1709,-639
1710,-638
1711,-636
1712,-634
1713,-635
1714,-637
1715,-638
1716,-636
1717,-634
1718,-635
1719,-639
1720,-637
1721,-636
1722,-634
1723,-635
1724,-638
1725,-638
1726,-637
1727,-634
1728,-635
1729,-638
1730,-637
1731,-637
1732,-634
1733,-635
1734,-638
1735,-637
1736,-636
1737,-633
1738,-636
1739,-638
1740,-638
1741,-636
1742,-634
1743,-635
1744,-639
1745,-638
1746,-637
1747,-634
1748,-635
1749,-638
1750,-638
1751,-636
1752,-634
1753,-635
1754,-638
1755,-638
1756,-636
1757,-634
1758,-635
1759,-638
1760,-638
1761,-637
1762,-633
1763,-635
1764,-637
1765,-639
1766,-636
1767,-634
1768,-634
1769,-638
1770,-638
1771,-636
1772,-634
1773,-635
1774,-638
1775,-638
1776,-635
1777,-634
1778,-635
1779,-638
1780,-639
1781,-635
1782,-635
1783,-635
1784,-638
1785,-638
1786,-637
1787,-634
1788,-635
1789,-639
1790,-639
1791,-636
1792,-634
1793,-635
1794,-638
1795,-639
1796,-637
1797,-634
1798,-634
1799,-639
1800,-637
1801,-636
1802,-634
1803,-636
1804,-638
1805,-638
1806,-636
1807,-634
1808,-635
1809,-639
1810,-638
1811,-636
1812,-634
1813,-636
1814,-638
1815,-638
1816,-636
1817,-634
1818,-635
1819,-638
1820,-639
1821,-636
1822,-635
1823,-636
1824,-638
1825,-639
1826,-635
1827,-634
1828,-635
1829,-639
1830,-639
1831,-637
1832,-634
1833,-635
1834,-638
1835,-639
1836,-637
1837,-634
1838,-635
1839,-638
1840,-638
1841,-637
1842,-634
1843,-636
1844,-638
1845,-639
1846,-637
1847,-635
1848,-636
1849,-638
1850,-638
1851,-637
1852,-635
1853,-635
1854,-638
1855,-638
1856,-636
1857,-634
1858,-635
1859,-638
1860,-639
1861,-636
1862,-635
1863,-635
1864,-639
1865,-639
1866,-637
1867,-634
1868,-635
1869,-638
1870,-638
1871,-637
1872,-635
1873,-636
1874,-639
1875,-638
1876,-636
1877,-635
1878,-635
1879,-640
1880,-638
1881,-636
1882,-635
1883,-636
1884,-638
1885,-639
1886,-637
1887,-634
1888,-637
1889,-639
1890,-638
1891,-636
1892,-634
1893,-636
1894,-639
1895,-639
1896,-637
1897,-635
1898,-635
1899,-639
1900,-639
1901,-636
1902,-634
1903,-636
1904,-640
1905,-639
1906,-637
1907,-634
1908,-635
1909,-638
1910,-638
1911,-636
1912,-634
1913,-636
1914,-639
1915,-639
1916,-637
1917,-634
1918,-636
1919,-639
1920,-639
1921,-636
1922,-634
1923,-635
1924,-640
1925,-639
1926,-637
1927,-635
1928,-636
1929,-639
1930,-640
1931,-637
1932,-635
1933,-636
1934,-639
1935,-640
1936,-637
1937,-635
1938,-637
1939,-639
1940,-639
1941,-637
1942,-635
1943,-636
1944,-639
1945,-638
1946,-637
1947,-635
1948,-637
1949,-639
1950,-639
1951,-637
1952,-635
1953,-637
1954,-640
1955,-638
1956,-636
1957,-635
1958,-637
1959,-640
1960,-639
1961,-636
1962,-635
1963,-637
1964,-639
1965,-639
1966,-637
1967,-635
1968,-636
1969,-639
1970,-640
1971,-636
1972,-635
1973,-636
1974,-640
1975,-639
1976,-637
1977,-634
1978,-637
1979,-640
1980,-639
1981,-637
1982,-636
1983,-636
1984,-639
1985,-640
1986,-636
1987,-635
1988,-637
1989,-640
1990,-640
1991,-638
1992,-635
1993,-637
1994,-640
1995,-640
1996,-637
1997,-635
1998,-636
1999,-640
2000,-640
2001,-638
2002,-635
2003,-637
2004,-640
2005,-639
2006,-637
2007,-636
2008,-637
2009,-639
2010,-639
2011,-638
2012,-635
2013,-636
2014,-640
2015,-639
2016,-637
2017,-636
2018,-637
2019,-640
2020,-639
2021,-637
2022,-636
2023,-637
2024,-640
2025,-640
2026,-637
2027,-636
2028,-637
2029,-640
2030,-640
2031,-637
2032,-636
2033,-637
2034,-640
2035,-640
2036,-638
2037,-636
2038,-637
2039,-640
2040,-640
2041,-637
2042,-635
2043,-638
2044,-641
2045,-640
2046,-637
2047,-636
2048,-636
2049,-639
2050,-639
2051,-637
2052,-636
2053,-637
2054,-640
2055,-640
2056,-637
2057,-635
2058,-636
2059,-640
2060,-639
2061,-637
2062,-636
2063,-637
2064,-640
2065,-640
2066,-638
2067,-637
2068,-637
2069,-640
2070,-640
2071,-638
2072,-636
2073,-637
2074,-640
2075,-640
2076,-637
2077,-635
2078,-638
2079,-640
2080,-640
2081,-638
2082,-636
2083,-638
2084,-640
2085,-640
2086,-637
2087,-636
2088,-637
2089,-641
2090,-640
2091,-638
2092,-635
2093,-638
2094,-640
2095,-640
2096,-638
2097,-636
2098,-637
2099,-641
2100,-640
2101,-638
2102,-636
2103,-637
2104,-641
2105,-640
2106,-637
2107,-636
2108,-637
2109,-640
2110,-640
2111,-637
2112,-636
2113,-638
2114,-640
2115,-640
2116,-638
2117,-636
2118,-638
2119,-641
2120,-640
2121,-638
2122,-636
2123,-637
2124,-640
2125,-640
2126,-637
2127,-636
2128,-638
2129,-640
2130,-640
2131,-638
2132,-636
2133,-637
2134,-640
2135,-640
2136,-637
2137,-637
2138,-638
2139,-641
2140,-641
2141,-639
2142,-637
2143,-637
2144,-641
2145,-641
2146,-638
2147,-637
2148,-638
2149,-641
2150,-640
2151,-638
2152,-636
2153,-638
2154,-641
2155,-641
2156,-638
2157,-636
2158,-638
2159,-641
2160,-641
2161,-638
2162,-637
2163,-638
2164,-640
2165,-640
2166,-637
2167,-637
2168,-639
2169,-641
2170,-640
2171,-637
2172,-637
2173,-639
2174,-642
2175,-641
2176,-639
2177,-637
2178,-639
2179,-641
2180,-641
2181,-638
2182,-636
2183,-638
2184,-641
2185,-641
2186,-638
2187,-637
2188,-638
2189,-641
2190,-641
2191,-639
2192,-638
2193,-637
2194,-641
2195,-640
2196,-637
2197,-636
2198,-638
2199,-641
2200,-641
2201,-638
2202,-636
2203,-639
2204,-641
2205,-642
2206,-639
2207,-637
2208,-639
2209,-641
2210,-641
2211,-638
2212,-636
2213,-638
2214,-640
2215,-642
2216,-638
2217,-636
2218,-638
2219,-641
2220,-641
2221,-639
2222,-637
2223,-638
2224,-641
2225,-641
2226,-638
2227,-637
2228,-638
2229,-641
2230,-640
2231,-638
2232,-636
2233,-638
2234,-641
2235,-641
2236,-638
2237,-636
2238,-638
2239,-642
2240,-641
2241,-639
2242,-637
2243,-638
2244,-641
2245,-640
2246,-638
2247,-637
2248,-638
2249,-640
2250,-641
2251,-638
2252,-637
2253,-638
2254,-641
2255,-640
2256,-639
2257,-637
2258,-638
2259,-641
2260,-641
2261,-638
2262,-637
2263,-638
2264,-641
2265,-640
2266,-639
2267,-636
2268,-638
2269,-641
2270,-642
2271,-638
2272,-637
2273,-638
2274,-641
2275,-641
2276,-639
2277,-637
2278,-638
2279,-641
2280,-641
2281,-638
2282,-637
2283,-638
2284,-641
2285,-642
2286,-638
2287,-637
2288,-639
2289,-641
2290,-640
2291,-639
2292,-636
2293,-638
2294,-641
2295,-641
2296,-639
2297,-637
2298,-638
2299,-642
2300,-640
2301,-639
2302,-636
2303,-638
2304,-641
2305,-641
2306,-638
2307,-637
2308,-638
2309,-641
2310,-640
2311,-639
2312,-636
2313,-638
2314,-640
2315,-640
2316,-638
2317,-638
2318,-638
2319,-641
2320,-641
2321,-638
2322,-637
2323,-639
2324,-641
2325,-642
2326,-638
2327,-637
2328,-638
2329,-641
2330,-641
2331,-638
2332,-637
2333,-637
2334,-641
2335,-642
2336,-639
2337,-637
2338,-639
2339,-641
2340,-641
2341,-638
2342,-637
2343,-638
2344,-641
2345,-641
2346,-638
2347,-637
2348,-639
2349,-641
2350,-640
2351,-638
2352,-637
2353,-638
2354,-641
2355,-640
2356,-639
2357,-637
2358,-638
2359,-641
2360,-641
2361,-639
2362,-638
2363,-639
2364,-641
2365,-641
2366,-638
2367,-637
2368,-639
2369,-642
2370,-641
2371,-638
2372,-637
2373,-638
2374,-640
2375,-641
2376,-639
2377,-637
2378,-638
2379,-641
2380,-641
2381,-639
2382,-637
2383,-638
2384,-642
2385,-642
2386,-639
2387,-637
2388,-639
2389,-641
2390,-642
2391,-639
2392,-637
2393,-640
2394,-641
2395,-642
2396,-639
2397,-637
2398,-638
2399,-641
2400,-642
2401,-639
2402,-637
2403,-638
2404,-642
2405,-641
2406,-640
2407,-636
2408,-638
2409,-641
2410,-641
2411,-638
2412,-638
2413,-639
2414,-642
2415,-641
2416,-639
2417,-637
2418,-639
2419,-642
2420,-641
2421,-638
2422,-637
2423,-639
2424,-641
2425,-641
2426,-640
2427,-637
2428,-638
2429,-642
2430,-641
2431,-639
2432,-637
2433,-639
2434,-642
2435,-641
2436,-639
2437,-637
2438,-639
2439,-641
2440,-642
2441,-640
2442,-637
2443,-637
2444,-641
2445,-642
2446,-638
2447,-637
2448,-639
2449,-641
2450,-641
2451,-639
2452,-638
2453,-638
2454,-643
2455,-641
2456,-640
2457,-637
2458,-639
2459,-641
2460,-642
2461,-640
2462,-638
2463,-639
2464,-643
2465,-641
2466,-640
2467,-638
2468,-639
2469,-641
2470,-642
2471,-638
2472,-637
2473,-638
2474,-640
2475,-641
2476,-639
2477,-637
2478,-638
2479,-642
2480,-641
2481,-639
2482,-638
2483,-638
2484,-642
2485,-642
2486,-639
2487,-637
2488,-639
2489,-641
2490,-641
2491,-639
2492,-637
2493,-639
2494,-642
2495,-641
2496,-639
2497,-637
2498,-638
2499,-642
2500,-641
2501,-638
2502,-637
2503,-638
2504,-641
2505,-641
2506,-638
2507,-637
2508,-638
2509,-641
2510,-642
2511,-638
2512,-637
2513,-638
2514,-642
2515,-641
2516,-639
2517,-637
2518,-638
2519,-641
2520,-641
2521,-640
2522,-637
2523,-639
2524,-642
2525,-642
2526,-638
2527,-637
2528,-639
2529,-642
2530,-640
2531,-639
2532,-637
2533,-638
2534,-641
2535,-641
2536,-638
2537,-636
2538,-638
2539,-641
2540,-641
2541,-639
2542,-637
2543,-638
2544,-641
2545,-641
2546,-638
2547,-637
2548,-638
2549,-641
2550,-641
2551,-638
2552,-637
2553,-638
2554,-641
2555,-641
2556,-639
2557,-637
2558,-639
2559,-641
2560,-642
2561,-639
2562,-637
2563,-638
2564,-641
2565,-641
2566,-639
2567,-636
2568,-638
2569,-639
2570,-642
2571,-639
2572,-637
2573,-639
2574,-641
2575,-641
2576,-638
2577,-637
2578,-638
2579,-641
2580,-641
2581,-638
2582,-637
2583,-638
2584,-641
2585,-641
2586,-639
2587,-638
2588,-638
2589,-641
2590,-641
2591,-639
2592,-636
2593,-638
2594,-640
2595,-641
2596,-637
2597,-637
2598,-637
2599,-641
2600,-640
2601,-639
2602,-637
2603,-637
2604,-641
2605,-641
2606,-639
2607,-636
2608,-638
2609,-640
2610,-641
2611,-639
2612,-636
2613,-638
2614,-640
2615,-641
2616,-639
2617,-636
2618,-637
2619,-641
2620,-641
2621,-639
2622,-636
2623,-637
2624,-640
2625,-642
2626,-638
2627,-636
2628,-637
2629,-641
2630,-641
2631,-639
2632,-637
2633,-637
2634,-640
2635,-641
2636,-639
2637,-637
2638,-638
2639,-640
2640,-642
2641,-640
2642,-636
2643,-637
2644,-641
2645,-641
2646,-639
2647,-637
2648,-638
2649,-641
2650,-641
2651,-639
2652,-636
2653,-637
2654,-641
2655,-641
2656,-639
2657,-636
2658,-637
2659,-640
2660,-641
2661,-640
2662,-636
2663,-636
2664,-640
2665,-640
2666,-640
2667,-637
2668,-637
2669,-640
2670,-640
2671,-638
2672,-637
2673,-637
2674,-639
2675,-641
2676,-638
2677,-637
2678,-637
2679,-640
2680,-641
2681,-639
2682,-636
2683,-638
2684,-640
2685,-640
2686,-639
2687,-636
2688,-636
2689,-640
2690,-640
2691,-638
2692,-636
2693,-636
2694,-640
2695,-640
2696,-638
2697,-637
2698,-637
2699,-639
2700,-640
2701,-638
2702,-636
2703,-637
2704,-639
2705,-641
2706,-639
2707,-636
2708,-637
2709,-639
2710,-641
2711,-639
2712,-636
2713,-638
2714,-640
2715,-641
2716,-640
2717,-636
2718,-637
2719,-639
2720,-640
2721,-639
2722,-636
2723,-637
2724,-639
2725,-640
2726,-638
2727,-636
2728,-635
2729,-640
2730,-640
2731,-639
2732,-637
2733,-637
2734,-639
2735,-641
2736,-639
2737,-636
2738,-636
2739,-640
2740,-640
2741,-639
2742,-636
2743,-636
2744,-639
2745,-640
2746,-639
2747,-637
2748,-636
2749,-639
2750,-640
2751,-639
2752,-636
2753,-635
2754,-639
2755,-640
2756,-639
2757,-636
2758,-637
2759,-639
2760,-641
2761,-639
2762,-635
2763,-635
2764,-638
2765,-640
2766,-639
2767,-636
2768,-636
2769,-638
2770,-641
2771,-639
2772,-635
2773,-636
2774,-639
2775,-641
2776,-640
2777,-636
2778,-636
2779,-639
2780,-640
2781,-640
2782,-636
2783,-636
2784,-639
2785,-641
2786,-639
2787,-637
2788,-636
2789,-638
2790,-640
2791,-637
2792,-636
2793,-636
2794,-638
2795,-640
2796,-638
2797,-637
2798,-635
2799,-639
2800,-640
2801,-639
2802,-636
2803,-636
2804,-639
2805,-641
2806,-639
2807,-635
2808,-637
2809,-639
2810,-640
2811,-639
2812,-636
2813,-636
2814,-638
2815,-640
2816,-640
2817,-636
2818,-637
2819,-638
2820,-640
2821,-639
2822,-637
2823,-635
2824,-639
2825,-640
2826,-639
2827,-636
2828,-635
2829,-638
2830,-640
2831,-639
2832,-636
2833,-636
2834,-637
2835,-640
2836,-637
2837,-636
2838,-636
2839,-637
2840,-638
2841,-639
2842,-637
2843,-637
2844,-638
2845,-640
2846,-639
2847,-636
2848,-635
2849,-637
2850,-640
2851,-638
2852,-637
2853,-635
2854,-638
2855,-640
2856,-639
2857,-637
2858,-636
2859,-637
2860,-640
2861,-640
2862,-637
2863,-636
2864,-638
2865,-641
2866,-639
2867,-637
2868,-635
2869,-638
2870,-640
2871,-639
2872,-637
2873,-636
2874,-638
2875,-641
2876,-639
2877,-636
2878,-635
2879,-637
2880,-639
2881,-639
2882,-636
2883,-635
2884,-637
2885,-640
2886,-640
2887,-636
2888,-635
2889,-636
2890,-640
2891,-640
2892,-636
2893,-635
2894,-637
2895,-639
2896,-639
2897,-637
2898,-635
2899,-637
2900,-640
2901,-638
2902,-637
2903,-635
2904,-636
2905,-640
2906,-639
2907,-637
2908,-635
2909,-637
2910,-639
2911,-638
2912,-637
2913,-635
2914,-637
2915,-639
2916,-639
2917,-636
2918,-635
2919,-637
2920,-640
2921,-639
2922,-636
2923,-635
2924,-637
2925,-640
2926,-639
2927,-637
2928,-636
2929,-637
2930,-640
2931,-639
2932,-636
2933,-636
2934,-637
2935,-640
2936,-640
2937,-637
2938,-636
2939,-637
2940,-641
2941,-639
2942,-637
2943,-634
2944,-636
2945,-639
2946,-639
2947,-636
2948,-635
2949,-636
2950,-639
2951,-640
2952,-637
2953,-635
2954,-636
2955,-640
2956,-640
2957,-636
2958,-635
2959,-637
2960,-639
2961,-640
2962,-637
2963,-635
2964,-637
2965,-639
2966,-640
2967,-637
2968,-635
2969,-637
2970,-639
2971,-640
2972,-638
2973,-635
2974,-637
2975,-639
2976,-639
2977,-637
2978,-636
2979,-636
2980,-640
2981,-640
2982,-636
2983,-635
2984,-636
2985,-639
2986,-640
2987,-637
2988,-635
2989,-636
2990,-639
2991,-639
2992,-638
2993,-635
2994,-636
2995,-639
2996,-640
2997,-638
2998,-634
2999,-637
3000,-639
3001,-639
3002,-638
3003,-634
3004,-636
3005,-639
3006,-640
3007,-638
3008,-636
3009,-635
3010,-639
3011,-639
3012,-637
3013,-636
3014,-636
3015,-640
3016,-640
3017,-637
3018,-636
3019,-635
3020,-639
3021,-640
3022,-637
3023,-635
3024,-636
3025,-639
3026,-639
3027,-638
3028,-635
3029,-636
3030,-639
3031,-640
3032,-638
3033,-635
3034,-636
3035,-639
3036,-639
3037,-638
3038,-635
3039,-636
3040,-640
3041,-640
3042,-638
3043,-635
3044,-637
3045,-639
3046,-639
3047,-638
3048,-635
3049,-636
3050,-638
3051,-639
3052,-638
3053,-636
3054,-636
3055,-638
3056,-640
3057,-638
3058,-635
3059,-636
3060,-638
3061,-640
3062,-639
3063,-635
3064,-636
3065,-639
3066,-640
3067,-638
3068,-635
3069,-637
3070,-638
3071,-640
3072,-638
3073,-636
3074,-636
3075,-639
3076,-639
3077,-638
3078,-636
3079,-636
3080,-638
3081,-640
3082,-638
3083,-636
3084,-636
3085,-637
3086,-640
3087,-639
3088,-635
3089,-636
3090,-638
3091,-640
3092,-638
3093,-635
3094,-636
3095,-638
3096,-640
3097,-638
3098,-635
3099,-635
3100,-638
3101,-640
3102,-639
3103,-636
3104,-635
3105,-638
3106,-640
3107,-638
3108,-636
3109,-636
3110,-638
3111,-639
3112,-639
3113,-637
3114,-635
3115,-638
3116,-639
3117,-638
3118,-635
3119,-635
3120,-638
3121,-640
3122,-638
3123,-636
3124,-636
3125,-638
3126,-639
3127,-638
3128,-636
3129,-636
3130,-637
3131,-640
3132,-639
3133,-636
3134,-635
3135,-637
3136,-640
3137,-638
3138,-636
3139,-636
3140,-637
3141,-640
3142,-638
3143,-635
3144,-635
3145,-638
3146,-640
3147,-638
3148,-636
3149,-635
3150,-638
3151,-639
3152,-638
3153,-636
3154,-636
3155,-638
3156,-639
3157,-638
3158,-636
3159,-635
3160,-637
3161,-640
3162,-638
3163,-635
3164,-635
3165,-638
3166,-640
3167,-638
3168,-636
3169,-635
3170,-637
3171,-640
3172,-638
3173,-636
3174,-634
3175,-637
3176,-639
3177,-639
3178,-636
3179,-634
3180,-637
3181,-639
3182,-640
3183,-636
3184,-635
3185,-637
3186,-640
3187,-639
3188,-636
3189,-635
3190,-636
3191,-639
3192,-639
3193,-636
3194,-634
3195,-637
3196,-640
3197,-639
3198,-636
3199,-635
3200,-636
3201,-639
3202,-639
3203,-636
3204,-635
3205,-637
3206,-640
3207,-639
3208,-636
3209,-635
3210,-636
3211,-640
3212,-639
3213,-636
3214,-634
3215,-636
3216,-639
3217,-639
3218,-637
3219,-635
3220,-636
3221,-639
3222,-640
3223,-636
3224,-634
3225,-636
3226,-639
3227,-639
3228,-637
3229,-636
3230,-636
3231,-639
3232,-639
3233,-637
3234,-634
3235,-636
3236,-639
3237,-640
3238,-636
3239,-634
3240,-636
3241,-639
3242,-639
3243,-637
3244,-635
3245,-636
3246,-639
3247,-640
3248,-637
3249,-635
3250,-636
3251,-639
3252,-639
3253,-637
3254,-635
3255,-636
3256,-638
3257,-639
3258,-636
3259,-635
3260,-636
3261,-639
3262,-640
3263,-637
3264,-634
3265,-636
3266,-639
3267,-640
3268,-637
3269,-636
3270,-636
3271,-638
3272,-639
3273,-637
3274,-634
3275,-636
3276,-638
3277,-639
3278,-638
3279,-635
3280,-636
3281,-639
3282,-640
3283,-637
3284,-635
3285,-635
3286,-638
3287,-639
3288,-636
3289,-634
3290,-636
3291,-639
3292,-640
3293,-637
3294,-635
3295,-636
3296,-638
3297,-639
3298,-637
3299,-635
3300,-636
3301,-638
3302,-640
3303,-637
3304,-635
3305,-636
3306,-639
3307,-638
3308,-638
3309,-635
3310,-635
3311,-639
3312,-640
3313,-636
3314,-635
3315,-637
3316,-638
3317,-639
3318,-636
3319,-635
3320,-635
3321,-638
3322,-639
3323,-638
3324,-635
3325,-635
3326,-639
3327,-640
3328,-638
3329,-636
3330,-635
3331,-638
3332,-639
3333,-637
3334,-635
3335,-636
3336,-638
3337,-640
3338,-638
3339,-635
3340,-635
3341,-638
3342,-639
3343,-637
3344,-636
3345,-636
3346,-638
3347,-639
3348,-638
3349,-635
3350,-635
3351,-638
3352,-640
3353,-638
3354,-634
3355,-635
3356,-638
3357,-639
3358,-638
3359,-636
3360,-636
3361,-638
3362,-639
3363,-638
3364,-635
3365,-635
3366,-638
3367,-640
3368,-639
3369,-635
3370,-635
3371,-637
3372,-640
3373,-638
3374,-635
3375,-636
3376,-637
3377,-640
3378,-639
3379,-635
3380,-636
3381,-637
3382,-640
3383,-637
3384,-635
3385,-635
3386,-638
3387,-639
3388,-638
3389,-635
3390,-635
3391,-639
3392,-640
3393,-639
3394,-636
3395,-635
3396,-637
3397,-640
3398,-638
3399,-636
3400,-634
3401,-637
3402,-640
3403,-639
3404,-635
3405,-636
3406,-637
3407,-639
3408,-637
3409,-635
3410,-635
3411,-638
3412,-640
3413,-639
3414,-635
3415,-636
3416,-638
3417,-640
3418,-639
3419,-636
3420,-635
3421,-638
3422,-640
3423,-639
3424,-636
3425,-635
3426,-637
3427,-640
3428,-638
3429,-635
3430,-635
3431,-637
3432,-640
3433,-638
3434,-636
3435,-635
3436,-637
3437,-640
3438,-638
3439,-636
3440,-635
3441,-637
3442,-640
3443,-639
3444,-637
3445,-635
3446,-638
3447,-640
3448,-639
3449,-636
3450,-635
3451,-638
3452,-640
3453,-639
3454,-636
3455,-636
3456,-638
3457,-640
3458,-639
3459,-636
3460,-635
3461,-637
3462,-639
3463,-640
3464,-637
3465,-636
3466,-637
3467,-640
3468,-639
3469,-637
3470,-635
3471,-637
3472,-640
3473,-639
3474,-636
3475,-635
3476,-637
3477,-640
3478,-639
3479,-636
3480,-635
3481,-637
3482,-641
3483,-638
3484,-637
3485,-636
3486,-637
3487,-640
3488,-639
3489,-637
3490,-635
3491,-637
3492,-640
3493,-640
3494,-638
3495,-635
3496,-637
3497,-639
3498,-639
3499,-637
3500,-635
3501,-637
3502,-640
3503,-640
3504,-638
3505,-636
3506,-637
3507,-640
3508,-639
3509,-637
3510,-635
3511,-637
3512,-640
3513,-639
3514,-637
3515,-635
3516,-637
3517,-639
3518,-640
3519,-636
3520,-636
3521,-637
3522,-640
3523,-640
3524,-637
3525,-635
3526,-636
3527,-640
3528,-640
3529,-638
3530,-635
3531,-638
3532,-640
3533,-640
3534,-637
3535,-636
3536,-637
3537,-640
3538,-639
3539,-637
3540,-635
3541,-637
3542,-640
3543,-639
3544,-636
3545,-635
3546,-637
3547,-640
3548,-639
3549,-637
3550,-635
3551,-637
3552,-640
3553,-640
3554,-637
3555,-635
3556,-636
3557,-640
3558,-640
3559,-637
3560,-635
3561,-636
3562,-640
3563,-640
3564,-637
3565,-634
3566,-637
3567,-640
3568,-640
3569,-637
3570,-636
3571,-636
3572,-640
3573,-640
3574,-637
3575,-635
3576,-637
3577,-640
3578,-639
3579,-637
3580,-635
3581,-637
3582,-639
3583,-639
3584,-638
3585,-635
3586,-637
3587,-639
3588,-639
3589,-637
3590,-635
3591,-637
3592,-640
3593,-639
3594,-637
3595,-635
3596,-637
3597,-639
3598,-640
3599,-637
3600,-635
3601,-637
3602,-640
3603,-640
3604,-637
3605,-635
3606,-637
3607,-639
3608,-640
3609,-636
3610,-635
3611,-637
3612,-639
3613,-640
3614,-638
3615,-635
3616,-636
3617,-640
3618,-641
3619,-638
3620,-635
3621,-637
3622,-640
3623,-640
3624,-638
3625,-635
3626,-637
3627,-639
3628,-639
3629,-638
3630,-636
3631,-636
3632,-639
3633,-640
3634,-638
3635,-635
3636,-636
3637,-639
3638,-640
3639,-639
3640,-635
3641,-637
3642,-639
3643,-640
3644,-639
3645,-636
3646,-637
3647,-639
3648,-640
3649,-638
3650,-636
3651,-636
3652,-640
3653,-640
3654,-638
3655,-635
3656,-637
3657,-639
3658,-639
3659,-638
3660,-635
3661,-636
3662,-639
3663,-639
3664,-638
3665,-636
3666,-636
3667,-639
3668,-640
3669,-637
3670,-636
3671,-637
3672,-639
3673,-640
3674,-638
3675,-635
3676,-637
3677,-639
3678,-639
3679,-638
3680,-635
3681,-637
3682,-639
3683,-640
3684,-638
3685,-636
3686,-636
3687,-639
3688,-641
3689,-638
3690,-636
3691,-636
3692,-640
3693,-640
3694,-638
3695,-635
3696,-636
3697,-638
3698,-640
3699,-638
3700,-635
3701,-637
3702,-639
3703,-640
3704,-639
3705,-635
3706,-636
3707,-639
3708,-640
3709,-638
3710,-635
3711,-638
3712,-639
3713,-640
3714,-638
3715,-635
3716,-636
3717,-639
3718,-639
3719,-638
3720,-635
3721,-637
3722,-640
3723,-640
3724,-638
3725,-636
3726,-637
3727,-640
3728,-641
3729,-638
3730,-636
3731,-637
3732,-639
3733,-640
3734,-638
3735,-636
3736,-637
3737,-640
3738,-640
3739,-639
3740,-636
3741,-637
3742,-640
3743,-640
3744,-639
3745,-636
3746,-636
3747,-639
3748,-640
3749,-639
3750,-636
3751,-636
3752,-639
3753,-640
3754,-638
3755,-635
3756,-637
3757,-639
3758,-640
3759,-639
3760,-636
3761,-636
3762,-639
3763,-640
3764,-638
3765,-635
3766,-637
3767,-638
3768,-640
3769,-638
3770,-636
3771,-636
3772,-640
3773,-641
3774,-638
3775,-636
3776,-636
3777,-639
3778,-640
3779,-638
3780,-636
3781,-637
3782,-639
3783,-641
3784,-638
3785,-636
3786,-637
3787,-638
3788,-640
3789,-639
3790,-636
3791,-637
3792,-639
3793,-640
3794,-639
3795,-636
3796,-636
3797,-639
3798,-640
3799,-638
3800,-636
3801,-636
3802,-639
3803,-640
3804,-638
3805,-637
3806,-636
3807,-640
3808,-641
3809,-638
3810,-636
3811,-636
3812,-639
3813,-640
3814,-638
3815,-636
3816,-636
3817,-638
3818,-641
3819,-639
3820,-636
3821,-637
3822,-640
3823,-641
3824,-638
3825,-635
3826,-636
3827,-639
3828,-640
3829,-638
3830,-636
3831,-636
3832,-639
3833,-640
3834,-638
3835,-635
3836,-637
3837,-639
3838,-640
3839,-638
3840,-637
3841,-637
3842,-639
3843,-641
3844,-638
3845,-636
3846,-636
3847,-639
3848,-640
3849,-639
3850,-635
3851,-637
3852,-640
3853,-640
3854,-640
3855,-636
3856,-636
3857,-639
3858,-641
3859,-638
3860,-637
3861,-636
3862,-639
3863,-640
3864,-638
3865,-636
3866,-636
3867,-640
3868,-641
3869,-638
3870,-637
3871,-637
3872,-640
3873,-641
3874,-639
3875,-636
3876,-637
3877,-639
3878,-641
3879,-638
3880,-636
3881,-636
3882,-639
3883,-641
3884,-638
3885,-636
3886,-637
3887,-640
3888,-640
3889,-639
3890,-636
3891,-636
3892,-640
3893,-640
3894,-639
3895,-637
3896,-637
3897,-639
3898,-641
3899,-637
3900,-637
3901,-636
3902,-639
3903,-640
3904,-639
3905,-636
3906,-637
3907,-640
3908,-641
3909,-639
3910,-636
3911,-637
3912,-639
3913,-640
3914,-639
3915,-636
3916,-636
3917,-638
3918,-640
3919,-639
3920,-637
3921,-637
3922,-639
3923,-641
3924,-638
3925,-637
3926,-637
3927,-640
3928,-640
3929,-639
3930,-636
3931,-636
3932,-639
3933,-640
3934,-639
3935,-636
3936,-636
3937,-640
3938,-641
3939,-639
3940,-637
3941,-637
3942,-639
3943,-641
3944,-638
3945,-636
3946,-638
3947,-640
3948,-641
3949,-639
3950,-636
3951,-637
3952,-640
3953,-641
3954,-640
3955,-636
3956,-636
3957,640
3958,-640
3959,-639
3960,-636
3961,-637
3962,-640
3963,-640
3964,-639
3965,-637
3966,-637
3967,-640
3968,-641
3969,-640
3970,-637
3971,-637
3972,-640
3973,-640
3974,-639
3975,-637
3976,-638
3977,-640
3978,-641
3979,-640
3980,-637
3981,-637
3982,-640
3983,-641
3984,-640
3985,-636
3986,-637
3987,-640
3988,-641
3989,-639
3990,-636
3991,-637
3992,-640
3993,-642
3994,-640
3995,-637
3996,-637
3997,-641
3998,-641
3999,-640
4000,-638
4001,-637
4002,-641
4003,-642
4004,-640
4005,-637
4006,-637
4007,-640
4008,-642
4009,-640
4010,-637
4011,-638
4012,-640
4013,-641
4014,-641
4015,-637
4016,-637
4017,-640
4018,-642
4019,-640
4020,-637
4021,-638
4022,-640
4023,-642
4024,-641
4025,-638
4026,-638
4027,-641
4028,-641
4029,-640
4030,-636
4031,-638
4032,-641
4033,-642
4034,-639
4035,-637
4036,-638
4037,-641
4038,-642
4039,-640
4040,-638
4041,-638
4042,-641
4043,-642
4044,-640
4045,-638
4046,-638
4047,-640
4048,-642
4049,-641
4050,-638
4051,-638
4052,-641
4053,-642
4054,-641
4055,-637
4056,-639
4057,-642
4058,-643
4059,-640
4060,-637
4061,-638
4062,-641
4063,-643
4064,-640
4065,-637
4066,-638
4067,-642
4068,-642
4069,-640
4070,-638
4071,-639
4072,-641
4073,-642
4074,-641
4075,-638
4076,-639
4077,-641
4078,-643
4079,-641
4080,-637
4081,-639
4082,-641
4083,-643
4084,-640
4085,-638
4086,-640
4087,-641
4088,-643
4089,-641
4090,-638
4091,-638
4092,-641
4093,-643
4094,-641
4095,-638
4096,-639
4097,-641
4098,-643
4099,-641
4100,-637
4101,-639
4102,-642
4103,-643
4104,-641
4105,-638
4106,-639
4107,-642
4108,-642
4109,-641
4110,-638
4111,-638
4112,-641
4113,-642
4114,-641
4115,-638
4116,-639
4117,-642
4118,-642
4119,-640
4120,-639
4121,-639
4122,-642
4123,-642
4124,-641
4125,-638
4126,-638
4127,-642
4128,-643
4129,-642
4130,-639
4131,-639
4132,-642
4133,-643
4134,-642
4135,-639
4136,-638
4137,-641
4138,-643
4139,-641
4140,-638
4141,-639
4142,-642
4143,-642
4144,-641
4145,-638
4146,-639
4147,-641
4148,-643
4149,-641
4150,-639
4151,-639
4152,-642
4153,-643
4154,-642
4155,-638
4156,-639
4157,-643
4158,-643
4159,-641
4160,-638
4161,-639
4162,-642
4163,-643
4164,-641
4165,-638
4166,-640
4167,-642
4168,-643
4169,-640
4170,-638
4171,-638
4172,-642
4173,-643
4174,-641
4175,-638
4176,-638
4177,-642
4178,-642
4179,-640
4180,-639
4181,-639
4182,-641
4183,-644
4184,-641
4185,-639
4186,-639
4187,-641
4188,-643
4189,-640
4190,-638
4191,-639
4192,-641
4193,-643
4194,-641
4195,-638
4196,-638
4197,-642
4198,-643
4199,-640
4200,-638
4201,-638
4202,-642
4203,-643
4204,-641
4205,-638
4206,-638
4207,-641
4208,-643
4209,-641
4210,-638
4211,-638
4212,-641
4213,-643
4214,-641
4215,-638
4216,-639
4217,-641
4218,-641
4219,-638
4220,-639
4221,-641
4222,-641
4223,-640
4224,-638
4225,-639
4226,-641
4227,-642
4228,-640
4229,-639
4230,-638
4231,-641
4232,-643
4233,-641
4234,-639
4235,-639
4236,-641
4237,-643
4238,-641
4239,-638
4240,-639
4241,-642
4242,-643
4243,-641
4244,-639
4245,-639
4246,-641
4247,-643
4248,-640
4249,-638
4250,-638
4251,-642
4252,-642
4253,-640
4254,-639
4255,-640
4256,-641
4257,-643
4258,-641
4259,-638
4260,-638
4261,-640
4262,-643
4263,-640
4264,-638
4265,-639
4266,-641
4267,-643
4268,-641
4269,-638
4270,-639
4271,-642
4272,-643
4273,-640
4274,-638
4275,-639
4276,-642
4277,-642
4278,-641
4279,-638
4280,-638
4281,-641
4282,-643
4283,-641
4284,-637
4285,-638
4286,-641
4287,-644
4288,-641
4289,-637
4290,-638
4291,-641
4292,-643
4293,-641
4294,-638
4295,-638
4296,-641
4297,-643
4298,-641
4299,-638
4300,-639
4301,-641
4302,-643
4303,-641
4304,-638
4305,-639
4306,-641
4307,-642
4308,-641
4309,-637
4310,-638
4311,-641
4312,-642
4313,-640
4314,-637
4315,-639
4316,-641
4317,-642
4318,-641
4319,-639
4320,-639
4321,-640
4322,-642
4323,-641
4324,-638
4325,-637
4326,-641
4327,-643
4328,-640
4329,-638
4330,-639
4331,-641
4332,-643
4333,-641
4334,-637
4335,-638
4336,-641
4337,-643
4338,-641
4339,-637
4340,-638
4341,-640
4342,-643
4343,-640
4344,-639
4345,-638
4346,-641
4347,-642
4348,-640
4349,-638
4350,-638
4351,-641
4352,-643
4353,-641
4354,-638
4355,-639
4356,-640
4357,-643
4358,-641
4359,-639
4360,-638
4361,-641
4362,-642
4363,-641
4364,-639
4365,-639
4366,-641
4367,-642
4368,-641
4369,-638
4370,-638
4371,-640
4372,-642
4373,-641
4374,-638
4375,-638
4376,-640
4377,-642
4378,-641
4379,-638
4380,-638
4381,-641
4382,-642
4383,-641
4384,-638
4385,-638
4386,-641
4387,-641
4388,-641
4389,-638
4390,-638
4391,-640
4392,-641
4393,-641
4394,-637
4395,-638
4396,-642
4397,-642
4398,-641
4399,-639
4400,-638
4401,-641
4402,-642
4403,-641
4404,-639
4405,-638
4406,-642
4407,-643
4408,-642
4409,-638
4410,-638
4411,-641
4412,-642
4413,-640
4414,-637
4415,-638
4416,-641
4417,-643
4418,-641
4419,-638
4420,-638
4421,-640
4422,-642
4423,-641
4424,-638
4425,-638
4426,-640
4427,-642
4428,-640
4429,-638
4430,-638
4431,-640
4432,-643
4433,-642
4434,-638
4435,-638
4436,-641
4437,-643
4438,-641
4439,-638
4440,-637
4441,-641
4442,-642
4443,-642
4444,-638
4445,-638
4446,-641
4447,-643
4448,-641
4449,-638
4450,-638
4451,-640
4452,-642
4453,-640
4454,-638
4455,-639
4456,-641
4457,-643
4458,-640
4459,-639
4460,-639
4461,-642
4462,-643
4463,-642
4464,-639
4465,-639
4466,-641
4467,-643
4468,-641
4469,-637
4470,-639
4471,-642
4472,-643
4473,-641
4474,-639
4475,-639
4476,-640
4477,-642
4478,-641
4479,-638
4480,-638
4481,-640
4482,-642
4483,-642
4484,-639
4485,-639
4486,-641
4487,-642
4488,-641
4489,-638
4490,-639
4491,-640
4492,-642
4493,-642
4494,-639
4495,-637
4496,-640
4497,-642
4498,-642
4499,-639
4500,-637
4501,-641
4502,-643
4503,-641
4504,-639
4505,-638
4506,-640
4507,-642
4508,-642
4509,-639
4510,-638
4511,-640
4512,-642
4513,-642
4514,-639
4515,-638
4516,-640
4517,-643
4518,-641
4519,-640
4520,-638
4521,-640
4522,-643
4523,-642
4524,-639
4525,-639
4526,-640
4527,-642
4528,-642
4529,-639
4530,-638
4531,-640
4532,-643
4533,-641
4534,-639
4535,-638
4536,-640
4537,-643
4538,-641
4539,-639
4540,-638
4541,-641
4542,-644
4543,-642
4544,-638
4545,-638
4546,-641
4547,-643
4548,-641
4549,-639
4550,-639
4551,-640
4552,-642
4553,-643
4554,-638
4555,-639
4556,-640
4557,-642
4558,-641
4559,-639
4560,-638
4561,-639
4562,-643
4563,-642
4564,-639
4565,-638
4566,-640
4567,-642
4568,-642
4569,-638
4570,-637
4571,-640
4572,-644
4573,-641
4574,-637
4575,-639
4576,-640
4577,-643
4578,-641
4579,-640
4580,-639
4581,-641
4582,-643
4583,-642
4584,-639
4585,-639
4586,-640
4587,-643
4588,-641
4589,-639
4590,-638
4591,-641
4592,-643
4593,-642
4594,-639
4595,-639
4596,-640
4597,-643
4598,-642
4599,-639
4600,-638
4601,-640
4602,-643
4603,-642
4604,-640
4605,-638
4606,-640
4607,-642
4608,-641
4609,-640
4610,-638
4611,-640
4612,-643
4613,-642
4614,-639
4615,-638
4616,-641
4617,-643
4618,-641
4619,-639
4620,-639
4621,-641
4622,-642
4623,-643
4624,-639
4625,-638
4626,-640
4627,-644
4628,-642
4629,-640
4630,-639
4631,-641
4632,-643
4633,-642
4634,-639
4635,-639
4636,-640
4637,-644
4638,-643
4639,-640
4640,-638
4641,-640
4642,-643
4643,-643
4644,-640
4645,-637
4646,-641
4647,-643
4648,-643
4649,-639
4650,-639
4651,-641
4652,-643
4653,-642
4654,-640
4655,-638
4656,-640
4657,-642
4658,-642
4659,-639
4660,-638
4661,-641
4662,-643
4663,-641
4664,-640
4665,-639
4666,-640
4667,-643
4668,-642
4669,-639
4670,-637
4671,-640
4672,-643
4673,-642
4674,-640
4675,-638
4676,-640
4677,-644
4678,-643
4679,-640
4680,-638
4681,-640
4682,-643
4683,-642
4684,-638
4685,-638
4686,-639
4687,-644
4688,-643
4689,-640
4690,-637
4691,-640
4692,-643
4693,-643
4694,-639
4695,-639
4696,-640
4697,-643
4698,-642
4699,-640
4700,-640
4701,-640
4702,-642
4703,-643
4704,-640
4705,-638
4706,-640
4707,-643
4708,-643
4709,-640
4710,-639
4711,-641
4712,-644
4713,-643
4714,-639
4715,-639
4716,-641
4717,-644
4718,-643
4719,-641
4720,-639
4721,-640
4722,-643
4723,-642
4724,-640
4725,-637
4726,-640
4727,-642
4728,-643
4729,-640
4730,-639
4731,-641
4732,-643
4733,-643
4734,-640
4735,-638
4736,-641
4737,-642
4738,-643
4739,-640
4740,-639
4741,-640
4742,-642
4743,-642
4744,-640
4745,-640
4746,-639
4747,-643
4748,-643
4749,-640
4750,-639
4751,-640
4752,-644
4753,-642
4754,-640
4755,-639
4756,-640
4757,-643
4758,-643
4759,-640
4760,-640
4761,-640
4762,-643
4763,-643
4764,-640
4765,-639
4766,-640
4767,-643
4768,-643
4769,-641
4770,-638
4771,-641
4772,-643
4773,-643
4774,-641
4775,-639
4776,-640
4777,-643
4778,-644
4779,-640
4780,-638
4781,-640
4782,-643
4783,-643
4784,-641
4785,-639
4786,-640
4787,-643
4788,-643
4789,-641
4790,-638
4791,-639
4792,-643
4793,-642
4794,-641
4795,-640
4796,-641
4797,-643
4798,-642
4799,-640
4800,-639
4801,-640
4802,-642
4803,-643
4804,-642
4805,-638
4806,-639
4807,-643
4808,-643
4809,-641
4810,-639
4811,-640
4812,-643
4813,-644
4814,-641
4815,-640
4816,-640
4817,-642
4818,-644
4819,-641
4820,-639
4821,-641
4822,-643
4823,-643
4824,-642
4825,-638
4826,-640
4827,-642
4828,-643
4829,-641
4830,-638
4831,-640
4832,-643
4833,-642
4834,-642
4835,-639
4836,-639
4837,-642
4838,-643
4839,-640
4840,-638
4841,-641
4842,-643
4843,-642
4844,-640
4845,-639
4846,-639
4847,-643
4848,-643
4849,-641
4850,-639
4851,-640
4852,-642
4853,-643
4854,-641
4855,-639
4856,-640
4857,-642
4858,-644
4859,-642
4860,-640
4861,-640
4862,-644
4863,-643
4864,-641
4865,-638
4866,-639
4867,-643
4868,-643
4869,-641
4870,-638
4871,-639
4872,-643
4873,-643
4874,-641
4875,-639
4876,-638
4877,-642
4878,-643
4879,-641
4880,-639
4881,-639
4882,-642
4883,-643
4884,-641
4885,-639
4886,-639
4887,-643
4888,-643
4889,-641
4890,-639
4891,-639
4892,-642
4893,-643
4894,-641
4895,-638
4896,-639
4897,-643
4898,-643
4899,-641
4900,-639
4901,-639
4902,-643
4903,-643
4904,-641
4905,-638
4906,-640
4907,-642
4908,-644
4909,-642
4910,-638
4911,-639
4912,-642
4913,-643
4914,-641
4915,-638
4916,-639
4917,-642
4918,-643
4919,-642
4920,-639
4921,-639
4922,-642
4923,-643
4924,-641
4925,-639
4926,-639
4927,-642
4928,-643
4929,-641
4930,-639
4931,-638
4932,-641
4933,-643
4934,-641
4935,-639
4936,-640
4937,-642
4938,-643
4939,-642
4940,-638
4941,-640
4942,-641
4943,-643
4944,-642
4945,-638
4946,-640
4947,-642
4948,-643
4949,-642
4950,-639
4951,-638
4952,-642
4953,-643
4954,-641
4955,-639
4956,-640
4957,-642
4958,-644
4959,-641
4960,-638
4961,-640
4962,-642
4963,-643
4964,-641
4965,-638
4966,-640
4967,-641
4968,-644
4969,-641
4970,-640
4971,-639
4972,-641
4973,-643
4974,-641
4975,-638
4976,-639
4977,-642
4978,-643
4979,-641
4980,-638
4981,-639
4982,-642
4983,-643
4984,-642
4985,-638
4986,-639
4987,-642
4988,-643
4989,-641
4990,-638
4991,-639
4992,-641
4993,-643
4994,-641
4995,-639
4996,-640
4997,-642
4998,-644
4999,-642
5000,-639
5001,-638
5002,-641
5003,-643
5004,-643
5005,-639
5006,-639
5007,-641
5008,-643
5009,-641
5010,-639
5011,-639
5012,-642
5013,-643
5014,-642
5015,-639
5016,-639
5017,-641
5018,-643
5019,-642
5020,-640
5021,-639
5022,-641
5023,-643
5024,-642
5025,-638
5026,-640
5027,-642
5028,-642
5029,-642
5030,-638
5031,-640
5032,-641
5033,-643
5034,-642
5035,-639
5036,-640
5037,-641
5038,-644
5039,-643
5040,-639
5041,-639
5042,-641
5043,-642
5044,-643
5045,-639
5046,-639
5047,-641
5048,-643
5049,-641
5050,-638
5051,-639
5052,-641
5053,-643
5054,-642
5055,-640
5056,-640
5057,-641
5058,-642
5059,-641
5060,-639
5061,-639
5062,-641
5063,-644
5064,-641
5065,-640
5066,-638
5067,-641
5068,-642
5069,-642
5070,-639
5071,-639
5072,-641
5073,-643
5074,-642
5075,-638
5076,-639
5077,-641
5078,-643
5079,-642
5080,-639
5081,-640
5082,-641
5083,-643
5084,-642
5085,-639
5086,-639
5087,-641
5088,-643
5089,-642
5090,-638
5091,-639
5092,-640
5093,-643
5094,-642
5095,-640
5096,-638
5097,-642
5098,-644
5099,-643
5100,-640
5101,-638
5102,-640
5103,-643
5104,-642
5105,-639
5106,-638
5107,-640
5108,-643
5109,-643
5110,-640
5111,-639
5112,-642
5113,-643
5114,-642
5115,-639
5116,-638
5117,-640
5118,-643
5119,-642
5120,-639
5121,-637
5122,-643
5123,-643
5124,-639
5125,-637
5126,-640
5127,-643
5128,-641
5129,-639
5130,-638
5131,-640
5132,-643
5133,-642
5134,-640
5135,-638
5136,-640
5137,-643
5138,-642
5139,-640
5140,-638
5141,-640
5142,-642
5143,-642
5144,-640
5145,-638
5146,-640
5147,-643
5148,-642
5149,-639
5150,-638
5151,-639
5152,-643
5153,-642
5154,-639
5155,-639
5156,-640
5157,-642
5158,-642
5159,-639
5160,-638
5161,-640
5162,-643
5163,-641
5164,-640
5165,-638
5166,-640
5167,-642
5168,-642
5169,-640
5170,-639
5171,-640
5172,-643
5173,-641
5174,-640
5175,-638
5176,-640
5177,-642
5178,-642
5179,-640
5180,-638
5181,-640
5182,-642
5183,-642
5184,-640
5185,-638
5186,-639
5187,-643
5188,-642
5189,-639
5190,-638
5191,-640
5192,-643
5193,-642
5194,-640
5195,-639
5196,-639
5197,-643
5198,-642
5199,-639
5200,-639
5201,-639
5202,-643
5203,-643
5204,-639
5205,-639
5206,-639
5207,-643
5208,-641
5209,-639
5210,-638
5211,-639
5212,-643
5213,-642
5214,-639
5215,-638
5216,-640
5217,-643
5218,-643
5219,-640
5220,-638
5221,-639
5222,-643
5223,-642
5224,-640
5225,-638
5226,-639
5227,-643
5228,-642
5229,-640
5230,-638
5231,-640
5232,-642
5233,-642
5234,-640
5235,-638
5236,-639
5237,-642
5238,-642
5239,-639
5240,-638
5241,-641
5242,-642
5243,-642
5244,-640
5245,-638
5246,-639
5247,-643
5248,-641
5249,-640
5250,-639
5251,-639
5252,-642
5253,-643
5254,-641
5255,-638
5256,-639
5257,-642
5258,-642
5259,-640
5260,-638
5261,-639
5262,-642
5263,-642
5264,-639
5265,-637
5266,-639
5267,-642
5268,-642
5269,-641
5270,-638
5271,-640
5272,-642
5273,-642
5274,-641
5275,-639
5276,-639
5277,-642
5278,-643
5279,-640
5280,-639
5281,-639
5282,-642
5283,-643
5284,-640
5285,-637
5286,-639
5287,-642
5288,-642
5289,-639
5290,-638
5291,-639
5292,-642
5293,-642
5294,-640
5295,-638
5296,-640
5297,-643
5298,-643
5299,-640
5300,-638
5301,-640
5302,-643
5303,-643
5304,-640
5305,-638
5306,-640
5307,-643
5308,-642
5309,-642
5310,-639
5311,-639
5312,-642
5313,-642
5314,-641
5315,-638
5316,-640
5317,-642
5318,-642
5319,-640
5320,-638
5321,-639
5322,-643
5323,-642
5324,-641
5325,-638
5326,-639
5327,-642
5328,-642
5329,-640
5330,-638
5331,-639
5332,-643
5333,-642
5334,-640
5335,-637
5336,-640
5337,-643
5338,-642
5339,-640
5340,-638
5341,-640
5342,-642
5343,-642
5344,-640
5345,-638
5346,-639
5347,-643
5348,-643
5349,-641
5350,-638
5351,-639
5352,-642
5353,-642
5354,-641
5355,-638
5356,-639
5357,-642
5358,-642
5359,-641
5360,-638
5361,-639
5362,-642
5363,-643
5364,-641
5365,-638
5366,-639
5367,-641
5368,-643
5369,-642
5370,-639
5371,-640
5372,-643
5373,-643
5374,-641
5375,-638
5376,-639
5377,-641
5378,-643
5379,-640
5380,-638
5381,-640
5382,-642
5383,-643
5384,-641
5385,-638
5386,-639
5387,-643
5388,-643
5389,-640
5390,-638
5391,-639
5392,-642
5393,-643
5394,-641
5395,-639
5396,-639
5397,-642
5398,-643
5399,-641
5400,-638
5401,-639
5402,-642
5403,-643
5404,-641
5405,-639
5406,-639
5407,-642
5408,-644
5409,-641
5410,-638
5411,-639
5412,-642
5413,-643
5414,-641
5415,-639
5416,-639
5417,-641
5418,-643
5419,-642
5420,-639
5421,-639
5422,-643
5423,-644
5424,-641
5425,-639
5426,-639
5427,-643
5428,-643
5429,-642
5430,-639
5431,-639
5432,-642
5433,-643
5434,-642
5435,-638
5436,-640
5437,-642
5438,-642
5439,-641
5440,-639
5441,-640
5442,-643
5443,-643
5444,-642
5445,-639
5446,-640
5447,-642
5448,-643
5449,-641
5450,-639
5451,-639
5452,-642
5453,-644
5454,-640
5455,-639
5456,-640
5457,-642
5458,-643
5459,-641
5460,-639
5461,-640
5462,-642
5463,-643
5464,-642
5465,-638
5466,-640
5467,-643
5468,-643
5469,-641
5470,-638
5471,-639
5472,-643
5473,-643
5474,-642
5475,-637
5476,-639
5477,-643
5478,-645
5479,-642
5480,-639
5481,-638
5482,-641
5483,-644
5484,-643
5485,-639
5486,-639
5487,-641
5488,-644
5489,-642
5490,-640
5491,-640
5492,-642
5493,-643
5494,-641
5495,-638
5496,-639
5497,-643
5498,-644
5499,-641
5500,-638
5501,-638
5502,-643
5503,-644
5504,-643
5505,-637
5506,-638
5507,-642
5508,-644
5509,-642
5510,-639
5511,-638
5512,-640
5513,-643
5514,-643
5515,-640
5516,-638
5517,-640
5518,-642
5519,-642
5520,-640
5521,-640
5522,-642
5523,-643
5524,-642
5525,-640
5526,-639
5527,-641
5528,-643
5529,-642
5530,-639
5531,-639
5532,-641
5533,-642
5534,-642
5535,-640
5536,-640
5537,-641
5538,-643
5539,-642
5540,-639
5541,-640
5542,-642
5543,-643
5544,-640
5545,-638
5546,-640
5547,-643
5548,-643
5549,-641
5550,-639
5551,-639
5552,-643
5553,-645
5554,-642
5555,-638
5556,-640
5557,-641
5558,-644
5559,-643
5560,-639
5561,-638
5562,-642
5563,-644
5564,-643
5565,-639
5566,-639
5567,-641
5568,-645
5569,-642
5570,-639
5571,-639
5572,-642
5573,-645
5574,-643
5575,-639
5576,-638
5577,-641
5578,-644
5579,-644
5580,-639
5581,-638
5582,-640
5583,-643
5584,-644
5585,-641
5586,-639
5587,-641
5588,-641
5589,-643
5590,-640
5591,-639
5592,-640
5593,-643
5594,-642
5595,-640
5596,-639
5597,-641
5598,-644
5599,-643
5600,-640
5601,-639
5602,-640
5603,-643
5604,-643
5605,-640
5606,-639
5607,-641
5608,-644
5609,-642
5610,-641
5611,-639
5612,-640
5613,-643
5614,-642
5615,-641
5616,-640
5617,-641
5618,-643
5619,-642
5620,-640
5621,-640
5622,-641
5623,-644
5624,-643
5625,-639
5626,-638
5627,-641
5628,-644
5629,-643
5630,-640
5631,-638
5632,-640
5633,-643
5634,-644
5635,-640
5636,-638
5637,-640
5638,-642
5639,-642
5640,-640
5641,-639
5642,-641
5643,-643
5644,-643
5645,-640
5646,-639
5647,-641
5648,-644
5649,-643
5650,-640
5651,-638
5652,-640
5653,-644
5654,-642
5655,-640
5656,-639
5657,-640
5658,-643
5659,-643
5660,-640
5661,-638
5662,-640
5663,-643
5664,-643
5665,-641
5666,-639
5667,-641
5668,-643
5669,-643
5670,-641
5671,-638
5672,-641
5673,-643
5674,-643
5675,-640
5676,-639
5677,-640
5678,-643
5679,-643
5680,-640
5681,-639
5682,-640
5683,-644
5684,-643
5685,-641
5686,-640
5687,-640
5688,-644
5689,-643
5690,-640
5691,-639
5692,-640
5693,-643
5694,-643
5695,-640
5696,-639
5697,-640
5698,-643
5699,-643
5700,-641
5701,-639
5702,-641
5703,-644
5704,-643
5705,-640
5706,-640
5707,-640
5708,-643
5709,-642
5710,-641
5711,-639
5712,-640
5713,-643
5714,-643
5715,-641
5716,-639
5717,-640
5718,-644
5719,-644
5720,-641
5721,-639
5722,-640
5723,-643
5724,-643
5725,-641
5726,-639
5727,-640
5728,-643
5729,-643
5730,-641
5731,-639
5732,-640
5733,-643
5734,-643
5735,-641
5736,-639
5737,-640
5738,-643
5739,-643
5740,-640
5741,-638
5742,-640
5743,-643
5744,-643
5745,-641
5746,-640
5747,-640
5748,-642
5749,-642
5750,-641
5751,-639
5752,-640
5753,-643
5754,-643
5755,-641
5756,-639
5757,-640
5758,-643
5759,-643
5760,-642
5761,-638
5762,-640
5763,-642
5764,-644
5765,-641
5766,-639
5767,-640
5768,-642
5769,-643
5770,-642
5771,-639
5772,-639
5773,-643
5774,-644
5775,-642
5776,-638
5777,-640
5778,-642
5779,-643
5780,-642
5781,-637
5782,-640
5783,-643
5784,-644
5785,-641
5786,-639
5787,-640
5788,-644
5789,-644
5790,-642
5791,-638
5792,-640
5793,-642
5794,-643
5795,-641
5796,-639
5797,-640
5798,-642
5799,-644
5800,-642
5801,-639
5802,-640
5803,-643
5804,-644
5805,-642
5806,-639
5807,-640
5808,-643
5809,-643
5810,-642
5811,-640
5812,-641
5813,-643
5814,-644
5815,-643
5816,-639
5817,-641
5818,-643
5819,-644
5820,-642
5821,-640
5822,-640
5823,-643
5824,-644
5825,-642
5826,-640
5827,-640
5828,-642
5829,-645
5830,-643
5831,-639
5832,-640
5833,-642
5834,-644
5835,-642
5836,-640
5837,-640
5838,-642
5839,-644
5840,-642
5841,-640
5842,-640
5843,-642
5844,-644
5845,-643
5846,-640
5847,-640
5848,-643
5849,-645
5850,-644
5851,-640
5852,-640
5853,-643
5854,-645
5855,-643
5856,-642
5857,-640
5858,-643
5859,-645
5860,-644
5861,-641
5862,-640
5863,-642
5864,-645
5865,-643
5866,-642
5867,-640
5868,-643
5869,-644
5870,-643
5871,-641
5872,-641
5873,-643
5874,-645
5875,-644
5876,-640
5877,-640
5878,-642
5879,-645
5880,-643
5881,-641
5882,-640
5883,-643
5884,-645
5885,-645
5886,-641
5887,-640
5888,-644
5889,-645
5890,-644
5891,-641
5892,-641
5893,-643
5894,-644
5895,-644
5896,-640
5897,-641
5898,-643
5899,-644
5900,-644
5901,-642
5902,-640
5903,-643
5904,-645
5905,-644
5906,-641
5907,-640
5908,-642
5909,-645
5910,-644
5911,-640
5912,-641
5913,-643
5914,-645
5915,-644
5916,-641
5917,-641
5918,-643
5919,-644
5920,-644
5921,-641
5922,-640
5923,-643
5924,-645
5925,-643
5926,-642
5927,-641
5928,-643
5929,-645
5930,-645
5931,-642
5932,-641
5933,-643
5934,-646
5935,-645
5936,-642
5937,-640
5938,-643
5939,-645
5940,-644
5941,-641
5942,-639
5943,-642
5944,-645
5945,-645
5946,-642
5947,-641
5948,-642
5949,-645
5950,-644
5951,-642
5952,-640
5953,-643
5954,-645
5955,-645
5956,-642
5957,-641
5958,-643
5959,-645
5960,-644
5961,-642
5962,-641
5963,-643
5964,-645
5965,-645
5966,-643
5967,-641
5968,-642
5969,-645
5970,-645
5971,-642
5972,-641
5973,-642
5974,-645
5975,-645
5976,-642
5977,-641
5978,-643
5979,-645
5980,-645
5981,-642
5982,-641
5983,-642
5984,-644
5985,-645
5986,-643
5987,-641
5988,-643
5989,-645
5990,-646
5991,-642
5992,-641
5993,-642
5994,-645
5995,-645
5996,-643
5997,-641
5998,-642
5999,-645
6000,-645
6001,-643
6002,-641
6003,-642
6004,-645
6005,-645
6006,-642
6007,-641
6008,-642
6009,-645
6010,-644
6011,-643
6012,-641
6013,-642
6014,-645
6015,-644
6016,-643
6017,-641
6018,-641
6019,-645
6020,-644
6021,-643
6022,-641
6023,-642
6024,-645
6025,-645
6026,-642
6027,-641
6028,-642
6029,-645
6030,-645
6031,-643
6032,-641
6033,-642
6034,-643
6035,-645
6036,-644
6037,-642
6038,-642
6039,-645
6040,-645
6041,-643
6042,-641
6043,-642
6044,-646
6045,-645
6046,-644
6047,-640
6048,-642
6049,-645
6050,-645
6051,-643
6052,-641
6053,-641
6054,-645
6055,-644
6056,-643
6057,-642
6058,-642
6059,-645
6060,-645
6061,-643
6062,-641
6063,-642
6064,-645
6065,-645
6066,-644
6067,-641
6068,-642
6069,-644
6070,-645
6071,-644
6072,-641
6073,-641
6074,-644
6075,-646
6076,-644
6077,-641
6078,-641
6079,-644
6080,-646
6081,-645
6082,-642
6083,-642
6084,-645
6085,-645
6086,-644
6087,-641
6088,-641
6089,-644
6090,-646
6091,-643
6092,-641
6093,-642
6094,-645
6095,-645
6096,-643
6097,-641
6098,-641
6099,-645
6100,-645
6101,-644
6102,-642
6103,-641
6104,-644
6105,-645
6106,-644
6107,-640
6108,-641
6109,-644
6110,-646
6111,-644
6112,-641
6113,-641
6114,-644
6115,-645
6116,-644
6117,-641
6118,-642
6119,-643
6120,-645
6121,-644
6122,-641
6123,-641
6124,-643
6125,-645
6126,-643
6127,-640
6128,-641
6129,-643
6130,-645
6131,-644
6132,-642
6133,-642
6134,-644
6135,-645
6136,-643
6137,-641
6138,-641
6139,-643
6140,-646
6141,-643
6142,-641
6143,-641
6144,-643
6145,-644
6146,-643
6147,-641
6148,-640
6149,-643
6150,-645
6151,-644
6152,-641
6153,-641
6154,-644
6155,-646
6156,-644
6157,-641
6158,-641
6159,-644
6160,-646
6161,-643
6162,-641
6163,-641
6164,-643
6165,-645
6166,-644
6167,-641
6168,-641
6169,-643
6170,-644
6171,-644
6172,-642
6173,-640
6174,-643
6175,-645
6176,-644
6177,-641
6178,-641
6179,-644
6180,-646
6181,-644
6182,-641
6183,-641
6184,-643
6185,-645
6186,-644
6187,-642
6188,-640
6189,-643
6190,-645
6191,-644
6192,-641
6193,-640
6194,-642
6195,-645
6196,-643
6197,-641
6198,-640
6199,-642
6200,-644
6201,-645
6202,-641
6203,-640
6204,-642
6205,-645
6206,-644
6207,-641
6208,-640
6209,-641
6210,-645
6211,-644
6212,-640
6213,-640
6214,-641
6215,-644
6216,-644
6217,-642
6218,-640
6219,-641
6220,-645
6221,-644
6222,-640
6223,-640
6224,-641
6225,-644
6226,-643
6227,-642
6228,-640
6229,-641
6230,-644
6231,-645
6232,-642
6233,-640
6234,-641
6235,-644
6236,-644
6237,-640
6238,-640
6239,-641
6240,-644
6241,-644
6242,-641
6243,-640
6244,-641
6245,-644
6246,-645
6247,-641
6248,-639
6249,-641
6250,-644
6251,-644
6252,-640
6253,-640
6254,-641
6255,-644
6256,-643
6257,-640
6258,-639
6259,-641
6260,-644
6261,-643
6262,-642
6263,-640
6264,-641
6265,-644
6266,-644
6267,-642
6268,-639
6269,-640
6270,-644
6271,-644
6272,-642
6273,-640
6274,-641
6275,-644
6276,-644
6277,-641
6278,-639
6279,-641
6280,-643
6281,-644
6282,-641
6283,-640
6284,-641
6285,-644
6286,-643
6287,-642
6288,-640
6289,-641
6290,-643
6291,-643
6292,-641
6293,-639
6294,-640
6295,-643
6296,-645
6297,-642
6298,-640
6299,-641
6300,-643
6301,-644
6302,-642
6303,-639
6304,-640
6305,-644
6306,-643
6307,-643
6308,-639
6309,-640
6310,-643
6311,-644
6312,-642
6313,-638
6314,-641
6315,-643
6316,-644
6317,-642
6318,-639
6319,-640
6320,-643
6321,-644
6322,-641
6323,-639
6324,-640
6325,-644
6326,-644
6327,-641
6328,-639
6329,-640
6330,-643
6331,-643
6332,-641
6333,-640
6334,-640
6335,-642
6336,-644
6337,-642
6338,-640
6339,-640
6340,-644
6341,-644
6342,-643
6343,-639
6344,-640
6345,-643
6346,-645
6347,-643
6348,-640
6349,-640
6350,-643
6351,-644
6352,-642
6353,-640
6354,-641
6355,-642
6356,-644
6357,-642
6358,-639
6359,-640
6360,-643
6361,-644
6362,-643
6363,-639
6364,-640
6365,-643
6366,-643
6367,-643
6368,-640
6369,-640
6370,-643
6371,-644
6372,-642
6373,-640
6374,-640
6375,-643
6376,-644
6377,-642
6378,-640
6379,-639
6380,-643
6381,-645
6382,-642
6383,-640
6384,-639
6385,-643
6386,-644
6387,-641
6388,-639
6389,-640
6390,-643
6391,-644
6392,-642
6393,-640
6394,-640
6395,-643
6396,-644
6397,-643
6398,-639
6399,-640
6400,-643
6401,-643
6402,-642
6403,-640
6404,-638
6405,-643
6406,-644
6407,-643
6408,-639
6409,-640
6410,-642
6411,-643
6412,-643
6413,-639
6414,-639
6415,-643
6416,-644
6417,-642
6418,-640
6419,-640
6420,-642
6421,-643
6422,-642
6423,-640
6424,-639
6425,-642
6426,-645
6427,-643
6428,-639
6429,-639
6430,-642
6431,-643
6432,-643
6433,-640
6434,-639
6435,-642
6436,-643
6437,-642
6438,-640
6439,-639
6440,-642
6441,-644
6442,-643
6443,-639
6444,-640
6445,-642
6446,-644
6447,-643
6448,-639
6449,-639
6450,-643
6451,-644
6452,-643
6453,-640
6454,-639
6455,-642
6456,-643
6457,-642
6458,-640
6459,-639
6460,-642
6461,-645
6462,-642
6463,-640
6464,-640
6465,-642
6466,-644
6467,-643
6468,-639
6469,-640
6470,-641
6471,-644
6472,-642
6473,-640
6474,-639
6475,-641
6476,-644
6477,-643
6478,-640
6479,-639
6480,-641
6481,-644
6482,-643
6483,-640
6484,-638
6485,-641
6486,-643
6487,-643
6488,-641
6489,-639
6490,-640
6491,-643
6492,-642
6493,-640
6494,-638
6495,-641
6496,-644
6497,-642
6498,-641
6499,-639
6500,-642
6501,-644
6502,-643
6503,-640
6504,-639
6505,-640
6506,-644
6507,-643
6508,-639
6509,-640
6510,-641
6511,-644
6512,-643
6513,-640
6514,-639
6515,-641
6516,-643
6517,-644
6518,-640
6519,-640
6520,-641
6521,-643
6522,-642
6523,-641
6524,-639
6525,-640
6526,-644
6527,-643
6528,-640
6529,-638
6530,-640
6531,-644
6532,-642
6533,-641
6534,-639
6535,-641
6536,-644
6537,-642
6538,-640
6539,-638
6540,-641
6541,-644
6542,-642
6543,-640
6544,-640
6545,-640
6546,-643
6547,-642
6548,-640
6549,-639
6550,-641
6551,-643
6552,-643
6553,-640
6554,-639
6555,-640
6556,-643
6557,-643
6558,-639
6559,-638
6560,-640
6561,-644
6562,-642
6563,-640
6564,-638
6565,-641
6566,-643
6567,-643
6568,-641
6569,-639
6570,-640
6571,-643
6572,-642
6573,-640
6574,-639
6575,-640
6576,-644
6577,-642
6578,-640
6579,-639
6580,-640
6581,-644
6582,-642
6583,-640
6584,-639
6585,-640
6586,-643
6587,-643
6588,-640
6589,-639
6590,-640
6591,-643
6592,-643
6593,-640
6594,-639
6595,-640
6596,-643
6597,-643
6598,-641
6599,-639
6600,-640
6601,-643
6602,-643
6603,-640
6604,-639
6605,-641
6606,-642
6607,-643
6608,-641
6609,-639
6610,-640
6611,-643
6612,-643
6613,-640
6614,-639
6615,-640
6616,-644
6617,-643
6618,-641
6619,-639
6620,-640
6621,-643
6622,-643
6623,-640
6624,-638
6625,-640
6626,-643
6627,-643
6628,-640
6629,-640
6630,-640
6631,-643
6632,-642
6633,-641
6634,-639
6635,-640
6636,-643
6637,-643
6638,-641
6639,-638
6640,-641
6641,-643
6642,-643
6643,-641
6644,-639
6645,-640
6646,-643
6647,-643
6648,-640
6649,-639
6650,-641
6651,-643
6652,-643
6653,-641
6654,-639
6655,-640
6656,-643
6657,-643
6658,-641
6659,-638
6660,-640
6661,-643
6662,-643
6663,-641
6664,-638
6665,-640
6666,-643
6667,-643
6668,-641
6669,-639
6670,-640
6671,-642
6672,-643
6673,-641
6674,-638
6675,-640
6676,-643
6677,-644
6678,-642
6679,-639
6680,-640
6681,-643
6682,-643
6683,-641
6684,-640
6685,-639
6686,-643
6687,-644
6688,-641
6689,-639
6690,-640
6691,-644
6692,-644
6693,-641
6694,-639
6695,-640
6696,-643
6697,-644
6698,-641
6699,-640
6700,-640
6701,-643
6702,-643
6703,-641
6704,-639
6705,-640
6706,-642
6707,-644
6708,-641
6709,-639
6710,-640
6711,-643
6712,-644
6713,-642
6714,-639
6715,-640
6716,-642
6717,-644
6718,-641
6719,-639
6720,-640
6721,-643
6722,-643
6723,-641
6724,-639
6725,-640
6726,-642
6727,-643
6728,-641
6729,-640
6730,-639
6731,-643
6732,-643
6733,-642
6734,-640
6735,-638
6736,-642
6737,-644
6738,-642
6739,-638
6740,-639
6741,-642
6742,-643
6743,-642
6744,-638
6745,-640
6746,-643
6747,-643
6748,-641
6749,-639
6750,-640
6751,-643
6752,-643
6753,-642
6754,-639
6755,-641
6756,-642
6757,-643
6758,-641
6759,-638
6760,-639
6761,-643
6762,-643
6763,-642
6764,-638
6765,-639
6766,-643
6767,-644
6768,-642
6769,-639
6770,-638
6771,-642
6772,-643
6773,-641
6774,-639
6775,-639
6776,-643
6777,-643
6778,-642
6779,-638
6780,-639
6781,-642
6782,-643
6783,-642
6784,-640
6785,-640
6786,-641
6787,-644
6788,-641
6789,-639
6790,-639
6791,-643
6792,-644
6793,-642
6794,-639
6795,-640
6796,-642
6797,-644
6798,-641
6799,-639
6800,-640
6801,-642
6802,-643
6803,-642
6804,-639
6805,-639
6806,-642
6807,-644
6808,-642
6809,-639
6810,-639
6811,-642
6812,-643
6813,-641
6814,-640
6815,-639
6816,-642
6817,-644
6818,-642
6819,-639
6820,-639
6821,-642
6822,-644
6823,-642
6824,-639
6825,-639
6826,-642
6827,-644
6828,-642
6829,-640
6830,-640
6831,-642
6832,-642
6833,-641
6834,-638
6835,-639
6836,-642
6837,-643
6838,-642
6839,-640
6840,-639
6841,-641
6842,-643
6843,-641
6844,-638
6845,-638
6846,-642
6847,-643
6848,-642
6849,-639
6850,-639
6851,-642
6852,-643
6853,-642
6854,-638
6855,-639
6856,-641
6857,-643
6858,-641
6859,-639
6860,-639
6861,-641
6862,-642
6863,-641
6864,-639
6865,-638
6866,-641
6867,-643
6868,-643
6869,-639
6870,-639
6871,-640
6872,-643
6873,-641
6874,-638
6875,-638
6876,-640
6877,-643
6878,-641
6879,-638
6880,-639
6881,-642
6882,-642
6883,-641
6884,-637
6885,-638
6886,-641
6887,-644
6888,-641
6889,-639
6890,-638
6891,-641
6892,-642
6893,-641
6894,-638
6895,-639
6896,-641
6897,-643
6898,-642
6899,-639
6900,-638
6901,-641
6902,-643
6903,-641
6904,-639
6905,-638
6906,-640
6907,-643
6908,-641
6909,-639
6910,-638
6911,-640
6912,-642
6913,-642
6914,-639
6915,-638
6916,-641
6917,-643
6918,-641
6919,-638
6920,-638
6921,-640
6922,-643
6923,-641
6924,-638
6925,-638
6926,-640
6927,-643
6928,-641
6929,-638
6930,-637
6931,-641
6932,-643
6933,-641
6934,-639
6935,-639
6936,-640
6937,-642
6938,-643
6939,-638
6940,-638
6941,-640
6942,-642
6943,-641
6944,-639
6945,-639
6946,-640
6947,-643
6948,-642
6949,-639
6950,-638
6951,-640
6952,-642
6953,-642
6954,-640
6955,-638
6956,-640
6957,-642
6958,-642
6959,-639
6960,-639
6961,-640
6962,-643
6963,-642
6964,-639
6965,-638
6966,-640
6967,-643
6968,-641
6969,-639
6970,-638
6971,-640
6972,-642
6973,-641
6974,-638
6975,-638
6976,-640
6977,-643
6978,-642
6979,-640
6980,-638
6981,-640
6982,-642
6983,-642
6984,-640
6985,-637
6986,-640
6987,-642
6988,-642
6989,-639
6990,-638
6991,-639
6992,-642
6993,-641
6994,-639
6995,-639
6996,-639
6997,-643
6998,-641
6999,-640
7000,-637
7001,-640
7002,-642
7003,-642
7004,-639
7005,-637
7006,-640
7007,-642
7008,-642
7009,-639
7010,-637
7011,-640
7012,-641
7013,-642
7014,-638
7015,-637
7016,-639
7017,-643
7018,-642
7019,-639
7020,-638
7021,-639
7022,-643
7023,-642
7024,-639
7025,-638
7026,-640
7027,-642
7028,-641
7029,-640
7030,-638
7031,-640
7032,-643
7033,-642
7034,-640
7035,-637
7036,-640
7037,-643
7038,-642
7039,-640
7040,-638
7041,-640
7042,-641
7043,-642
7044,-640
7045,-636
7046,-639
7047,-642
7048,-641
7049,-640
7050,-638
7051,-640
7052,-642
7053,-641
7054,-640
7055,-638
7056,-640
7057,-643
7058,-641
7059,-639
7060,-638
7061,-640
7062,-643
7063,-642
7064,-639
7065,-637
7066,-640
7067,-642
7068,-643
7069,-640
7070,-637
7071,-640
7072,-642
7073,-643
7074,-640
7075,-638
7076,-640
7077,-642
7078,-642
7079,-640
7080,-637
7081,-640
7082,-643
7083,-642
7084,-641
7085,-638
7086,-640
7087,-642
7088,-643
7089,-640
7090,-637
7091,-640
7092,-643
7093,-642
7094,-640
7095,-639
7096,-640
7097,-642
7098,-642
7099,-641
7100,-638
7101,-640
7102,-643
7103,-643
7104,-641
7105,-638
7106,-640
7107,-643
7108,-642
7109,-641
7110,-637
7111,-640
7112,-642
7113,-642
7114,-641
7115,-638
7116,-640
7117,-643
7118,-643
7119,-640
7120,-638
7121,-640
7122,-643
7123,-644
7124,-641
7125,-638
7126,-640
7127,-643
7128,-643
7129,-641
7130,-639
7131,-639
7132,-643
7133,-643
7134,-641
7135,-638
7136,-639
7137,-643
7138,-643
7139,-640
7140,-638
7141,-639
7142,-641
7143,-643
7144,-642
7145,-638
7146,-639
7147,-642
7148,-644
7149,-641
7150,-639
7151,-640
7152,-643
7153,-643
7154,-641
7155,-638
7156,-640
7157,-643
7158,-644
7159,-640
7160,-639
7161,-640
7162,-642
7163,-643
7164,-641
7165,-639
7166,-640
7167,-642
7168,-644
7169,-642
7170,-639
7171,-640
7172,-643
7173,-643
7174,-642
7175,-640
7176,-640
7177,-642
7178,-643
7179,-643
7180,-639
7181,-639
7182,-642
7183,-643
7184,-642
7185,-639
7186,-640
7187,-643
7188,-643
7189,-641
7190,-639
7191,-640
7192,-643
7193,-645
7194,-642
7195,-639
7196,-639
7197,-643
7198,-644
7199,-643
7200,-640
7201,-640
7202,-643
7203,-644
7204,-641
7205,-638
7206,-640
7207,-642
7208,-643
7209,-642
7210,-639
7211,-640
7212,-643
7213,-643
7214,-642
7215,-639
7216,-639
7217,-642
7218,-643
7219,-642
7220,-640
7221,-640
7222,-642
7223,-644
7224,-643
7225,-639
7226,-640
7227,-643
7228,-644
7229,-642
7230,-640
7231,-639
7232,-642
7233,-644
7234,-643
7235,-639
7236,-639
7237,-642
7238,-644
7239,-643
7240,-640
7241,-640
7242,-642
7243,-644
7244,-642
7245,-640
7246,-640
7247,-642
7248,-644
7249,-642
7250,-640
7251,-640
7252,-643
7253,-645
7254,-643
7255,-639
7256,-640
7257,-642
7258,-644
7259,-643
7260,-640
7261,-640
7262,-642
7263,-644
7264,-643
7265,-640
7266,-641
7267,-642
7268,-644
7269,-643
7270,-640
7271,-640
7272,-641
7273,-645
7274,-643
7275,-640
7276,-640
7277,-641
7278,-643
7279,-643
7280,-640
7281,-640
7282,-642
7283,-644
7284,-643
7285,-640
7286,-640
7287,-642
7288,-645
7289,-643
7290,-640
7291,-640
7292,-643
7293,-644
7294,-643
7295,-640
7296,-640
7297,-642
7298,-643
7299,-642
7300,-640
7301,-640
7302,-642
7303,-644
7304,-645
7305,-641
7306,-639
7307,-642
7308,-644
7309,-643
7310,-640
7311,-640
7312,-642
7313,-645
7314,-643
7315,-640
7316,-640
7317,-641
7318,-644
7319,-643
7320,-640
7321,-640
7322,-641
7323,-643
7324,-642
7325,-640
7326,-639
7327,-641
7328,-644
7329,-643
7330,-640
7331,-639
7332,-642
7333,-644
7334,-643
7335,-640
7336,-640
7337,-641
7338,-643
7339,-644
7340,-641
7341,-640
7342,-642
7343,-644
7344,-643
7345,-640
7346,-639
7347,-641
7348,-644
7349,-643
7350,-642
7351,-640
7352,-642
7353,-644
7354,-643
7355,-641
7356,-640
7357,-642
7358,-644
7359,-644
7360,-641
7361,-640
7362,-640
7363,-644
7364,-644
7365,-642
7366,-640
7367,-642
7368,-645
7369,-643
7370,-641
7371,-639
7372,-642
7373,-645
7374,-643
7375,-642
7376,-640
7377,-642
7378,-643
7379,-643
7380,-641
7381,-639
7382,-642
7383,-644
7384,-644
7385,-641
7386,-640
7387,-641
7388,-644
7389,-644
7390,-642
7391,-640
7392,-641
7393,-644
7394,-643
7395,-642
7396,-640
7397,-641
7398,-644
7399,-644
7400,-642
7401,-640
7402,-641
7403,-644
7404,-644
7405,-641
7406,-640
7407,-641
7408,-643
7409,-644
7410,-641
7411,-640
7412,-641
7413,-643
7414,-644
7415,-641
7416,-639
7417,-641
7418,-644
7419,-644
7420,-642
7421,-640
7422,-642
7423,-645
7424,-643
7425,-641
7426,-640
7427,-641
7428,-644
7429,-644
7430,-641
7431,-640
7432,-641
7433,-644
7434,-644
7435,-641
7436,-640
7437,-642
7438,-644
7439,-644
7440,-642
7441,-641
7442,-641
7443,-644
7444,-644
7445,-642
7446,-640
7447,-641
7448,-644
7449,-644
7450,-641
7451,-640
7452,-641
7453,-644
7454,-644
7455,-641
7456,-640
7457,-641
7458,-644
7459,-645
7460,-641
7461,-639
7462,-641
7463,-644
7464,-644
7465,-643
7466,-639
7467,-641
7468,-644
7469,-644
7470,-642
7471,-639
7472,-641
7473,-644
7474,-644
7475,-642
7476,-641
7477,-641
7478,-644
7479,-643
7480,-641
7481,-640
7482,-642
7483,-644
7484,-645
7485,-642
7486,-639
7487,-641
7488,-643
7489,-644
7490,-643
7491,-640
7492,-641
7493,-645
7494,-645
7495,-643
7496,-640
7497,-640
7498,-644
7499,-644
7500,-642
7501,-640
7502,-641
7503,-643
7504,-644
7505,-642
7506,-640
7507,-641
7508,-644
7509,-643
7510,-643
7511,-639
7512,-642
7513,-644
7514,-645
7515,-642
7516,-640
7517,-640
7518,-644
7519,-644
7520,-643
7521,-640
7522,-640
7523,-644
7524,-643
7525,-643
7526,-640
7527,-640
7528,-644
7529,-644
7530,-641
7531,-639
7532,-642
7533,-644
7534,-644
7535,-643
7536,-639
7537,-640
7538,-643
7539,-644
7540,-642
7541,-639
7542,-640
7543,-644
7544,-644
7545,-642
7546,-639
7547,-639
7548,-643
7549,-643
7550,-643
7551,-639
7552,-640
7553,-643
7554,-644
7555,-642
7556,-639
7557,-640
7558,-643
7559,-643
7560,-642
7561,-640
7562,-639
7563,-642
7564,-644
7565,-643
7566,-639
7567,-640
7568,-642
7569,-644
7570,-642
7571,-639
7572,-641
7573,-643
7574,-644
7575,-643
7576,-639
7577,-639
7578,-643
7579,-644
7580,-642
7581,-639
7582,-640
7583,-643
7584,-644
7585,-642
7586,-640
7587,-640
7588,-642
7589,-644
7590,-642
7591,-640
7592,-640
7593,-642
7594,-643
7595,-642
7596,-640
7597,-640
7598,-643
7599,-643
7600,-643
7601,-640
7602,-640
7603,-643
7604,-644
7605,-642
7606,-638
7607,-643
7608,-644
7609,-641
7610,-640
7611,-639
7612,-642
7613,-644
7614,-642
7615,-640
7616,-640
7617,-642
7618,-643
7619,-642
7620,-639
7621,-640
7622,-642
7623,-644
7624,-642
7625,-640
7626,-639
7627,-641
7628,-644
7629,-642
7630,-640
7631,-640
7632,-642
7633,-644
7634,-642
7635,-638
7636,-640
7637,-642
7638,-644
7639,-642
7640,-639
7641,-638
7642,-643
7643,-643
7644,-641
7645,-639
7646,-639
7647,-643
7648,-643
7649,-641
7650,-639
7651,-639
7652,-642
7653,-644
7654,-642
7655,-638
7656,-640
7657,-641
7658,-643
7659,-642
7660,-639
7661,-639
7662,-642
7663,-643
7664,-642
7665,-639
7666,-639
7667,-642
7668,-643
7669,-642
7670,-639
7671,-640
7672,-641
7673,-643
7674,-642
7675,-639
7676,-638
7677,-641
7678,-643
7679,-642
7680,-639
7681,-639
7682,-642
7683,-644
7684,-643
7685,-639
7686,-639
7687,-642
7688,-643
7689,-641
7690,-639
7691,-638
7692,-642
7693,-643
7694,-642
7695,-639
7696,-640
7697,-641
7698,-643
7699,-642
7700,-639
7701,-639
7702,-640
7703,-642
7704,-642
7705,-639
7706,-639
7707,-640
7708,-643
7709,-642
7710,-639
7711,-640
7712,-640
7713,-644
7714,-641
7715,-639
7716,-638
7717,-641
7718,-643
7719,-641
7720,-639
7721,-639
7722,-641
7723,-643
7724,-642
7725,-640
7726,-638
7727,-641
7728,-643
7729,-641
7730,-640
7731,-638
7732,-641
7733,-643
7734,-642
7735,-638
7736,-638
7737,-641
7738,-643
7739,-642
7740,-639
7741,-638
7742,-640
7743,-643
7744,-643
7745,-639
7746,-639
7747,-640
7748,-643
7749,-642
7750,-640
7751,-638
7752,-641
7753,-643
7754,-641
7755,-639
7756,-638
7757,-642
7758,-642
7759,-642
7760,-639
7761,-639
7762,-640
7763,-643
7764,-641
7765,-638
7766,-639
7767,-640
7768,-643
7769,-643
7770,-640
7771,-639
7772,-641
7773,-643
7774,-641
7775,-639
7776,-638
7777,-641
7778,-642
7779,-642
7780,-638
7781,-639
7782,-643
7783,-642
7784,-639
7785,-638
7786,-639
7787,-644
7788,-641
7789,-640
7790,-638
7791,-640
7792,-642
7793,-642
7794,-639
7795,-638
7796,-640
7797,-643
7798,-642
7799,-639
7800,-638
7801,-639
7802,-642
7803,-642
7804,-639
7805,-637
7806,-640
7807,-643
7808,-641
7809,-639
7810,-638
7811,-640
7812,-643
7813,-642
7814,-638
7815,-638
7816,-639
7817,-642
7818,-642
7819,-640
7820,-637
7821,-640
7822,-642
7823,-642
7824,-639
7825,-637
7826,-639
7827,-642
7828,-642
7829,-639
7830,-639
7831,-639
7832,-642
7833,-642
7834,-639
7835,-638
7836,-639
7837,-642
7838,-642
7839,-639
7840,-637
7841,-639
7842,-641
7843,-642
7844,-639
7845,-638
7846,-640
7847,-642
7848,-641
7849,-639
7850,-637
7851,-640
7852,-642
7853,-642
7854,-640
7855,-638
7856,-639
7857,-641
7858,-642
7859,-639
7860,-637
7861,-639
7862,-642
7863,-642
7864,-640
7865,-637
7866,-639
7867,-642
7868,-641
7869,-640
7870,-638
7871,-639
7872,-642
7873,-641
7874,-639
7875,-638
7876,-639
7877,-641
7878,-641
7879,-639
7880,-637
7881,-639
7882,-643
7883,-642
7884,-639
7885,-637
7886,-638
7887,-642
7888,-642
7889,-640
7890,-637
7891,-640
7892,-642
7893,-642
7894,-640
7895,-637
7896,-640
7897,-642
7898,-642
7899,-640
7900,-637
7901,-639
7902,-642
7903,-641
7904,-640
7905,-638
7906,-638
7907,-643
7908,-642
7909,-640
7910,-638
7911,-639
7912,-641
7913,-642
7914,-639
7915,-637
7916,-638
7917,-642
7918,-642
7919,-640
7920,-637
7921,-639
7922,-642
7923,-642
7924,-640
7925,-638
7926,-639
7927,-642
7928,-642
7929,-641
7930,-637
7931,-639
7932,-641
7933,-642
7934,-639
7935,-638
7936,-638
7937,-641
7938,-642
7939,-640
7940,-637
7941,-637
7942,-641
7943,-642
7944,-639
7945,-638
7946,-638
7947,-641
7948,-642
7949,-640
7950,-638
7951,-639
7952,-641
7953,-642
7954,-640
7955,-638
7956,-639
7957,-642
7958,-642
7959,-641
7960,-638
7961,-639
7962,-642
7963,-642
7964,-641
7965,-637
7966,-638
7967,-642
7968,-642
7969,-641
7970,-638
7971,-639
7972,-642
7973,-642
7974,-640
7975,-638
7976,-638
7977,-642
7978,-642
7979,-641
7980,-638
7981,-638
7982,-641
7983,-642
7984,-641
7985,-637
7986,-639
7987,-642
7988,-642
7989,-641
7990,-637
7991,-638
7992,-640
7993,-642
7994,-640
7995,-638
7996,-639
7997,-641
7998,-642
7999,-641
8000,-637
8001,-639
8002,-640
8003,-643
8004,-641
8005,-637
8006,-639
8007,-641
8008,-642
8009,-641
8010,-638
8011,-639
8012,-641
8013,-642
8014,-640
8015,-638
8016,-638
8017,-641
8018,-641
8019,-641
8020,-639
8021,-638
8022,-641
8023,-642
8024,-641
8025,-638
8026,-638
8027,-640
8028,-642
8029,-641
8030,-639
8031,-639
8032,-641
8033,-642
8034,-641
8035,-639
8036,-637
8037,-641
8038,-642
8039,-641
8040,-638
8041,-639
8042,-640
8043,-643
8044,-642
8045,-637
8046,-638
8047,-641
8048,-643
8049,-641
8050,-638
8051,-638
8052,-640
8053,-643
8054,-642
8055,-638
8056,-639
8057,-640
8058,-643
8059,-641
8060,-639
8061,-638
8062,-641
8063,-643
8064,-641
8065,-639
8066,-638
8067,-641
8068,-643
8069,-641
8070,-638
8071,-638
8072,-641
8073,-642
8074,-642
8075,-638
8076,-638
8077,-640
8078,-642
8079,-641
8080,-638
8081,-637
8082,-641
8083,-642
8084,-641
8085,-639
8086,-638
8087,-640
8088,-643
8089,-641
8090,-637
8091,-638
8092,-640
8093,-642
8094,-641
8095,-640
8096,-637
8097,-640
8098,-643
8099,-642
8100,-638
8101,-637
8102,-640
8103,-643
8104,-641
8105,-640
8106,-639
8107,-640
8108,-644
8109,-641
8110,-639
8111,-638
8112,-640
8113,-642
8114,-642
8115,-639
8116,-637
8117,-640
8118,-643
8119,-641
8120,-639
8121,-637
8122,-640
8123,-642
8124,-642
8125,-640
8126,-637
8127,-640
8128,-642
8129,-641
8130,-640
8131,-638
8132,-639
8133,-642
8134,-641
8135,-639
8136,-638
8137,-639
8138,-642
8139,-641
8140,-639
8141,-638
8142,-640
8143,-641
8144,-642
8145,-639
8146,-638
8147,-639
8148,-642
8149,-641
8150,-640
8151,-638
8152,-639
8153,-642
8154,-642
8155,-639
8156,-638
8157,-639
8158,-642
8159,-642
8160,-639
8161,-638
8162,-639
8163,-643
8164,-642
8165,-639
8166,-638
8167,-639
8168,-642
8169,-643
8170,-640
8171,-638
8172,-639
8173,-642
8174,-643
8175,-640
8176,-637
8177,-639
8178,-641
8179,-642
8180,-640
8181,-638
8182,-639
8183,-642
8184,-643
8185,-639
8186,-638
8187,-639
8188,-642
8189,-643
8190,-639
8191,-637
8192,-639
8193,-643
8194,-642
8195,-640
8196,-637
8197,-639
8198,-642
8199,-642
8200,-639
8201,-637
8202,-640
8203,-642
8204,-642
8205,-638
8206,-639
8207,-642
8208,-641
8209,-641
8210,-638
8211,-639
8212,-642
8213,-641
8214,-639
8215,-637
8216,-639
8217,-642
8218,-642
8219,-639
8220,-637
8221,-638
8222,-641
8223,-642
8224,-640
8225,-637
8226,-638
8227,-641
8228,-642
8229,-640
8230,-637
8231,-638
8232,-641
8233,-641
8234,-639
8235,-637
8236,-639
8237,-642
8238,-642
8239,-640
8240,-637
8241,-639
8242,-642
8243,-642
8244,-641
8245,-637
8246,-639
8247,-641
8248,-642
8249,-641
8250,-637
8251,-638
8252,-641
8253,-642
8254,-640
8255,-638
8256,-638
8257,-641
8258,-642
8259,-640
8260,-637
8261,-639
8262,-641
8263,-642
8264,-640
8265,-637
8266,-639
8267,-641
8268,-642
8269,-640
8270,-638
8271,-638
8272,-641
8273,-641
8274,-641
8275,-637
8276,-639
8277,-642
8278,-643
8279,-641
8280,-638
8281,-638
8282,-641
8283,-642
8284,-641
8285,-638
8286,-639
8287,-641
8288,-642
8289,-640
8290,-637
8291,-638
8292,-641
8293,-642
8294,-640
8295,-637
8296,-639
8297,-641
8298,-642
8299,-640
8300,-637
8301,-639
8302,-641
8303,-642
8304,-640
8305,-637
8306,-638
8307,-641
8308,-643
8309,-640
8310,-638
8311,-639
8312,-640
8313,-643
8314,-642
8315,-638
8316,-638
8317,-641
8318,-643
8319,-640
8320,-638
8321,-638
8322,-641
8323,-642
8324,-641
8325,-638
8326,-638
8327,-640
8328,-642
8329,-641
8330,-638
8331,-637
8332,-640
8333,-643
8334,-642
8335,-638
8336,-637
8337,-640
8338,-643
8339,-642
8340,-637
8341,-638
8342,-640
8343,-641
8344,-641
8345,-639
8346,-638
8347,-640
8348,-643
8349,-641
8350,-638
8351,-638
8352,-640
8353,-643
8354,-641
8355,-637
8356,-640
8357,-642
8358,-641
8359,-638
8360,-638
8361,-640
8362,-643
8363,-642
8364,-638
8365,-638
8366,-639
8367,-643
8368,-641
8369,-637
8370,-637
8371,-639
8372,-643
8373,-641
8374,-638
8375,-638
8376,-640
8377,-642
8378,-641
8379,-638
8380,-637
8381,-640
8382,-642
8383,-641
8384,-638
8385,-637
8386,-640
8387,-642
8388,-641
8389,-639
8390,-638
8391,-639
8392,-642
8393,-641
8394,-638
8395,-637
8396,-640
8397,-642
8398,-642
8399,-639
8400,-637
8401,-639
8402,-642
8403,-642
8404,-638
8405,-638
8406,-639
8407,-642
8408,-641
8409,-640
8410,-637
8411,-639
8412,-642
8413,-642
8414,-638
8415,-637
8416,-639
8417,-642
8418,-641
8419,-639
8420,-637
8421,-640
8422,-642
8423,-641
8424,-638
8425,-637
8426,-639
8427,-641
8428,-641
8429,-639
8430,-637
8431,-638
8432,-642
8433,-641
8434,-639
8435,-637
8436,-638
8437,-641
8438,-641
8439,-640
8440,-636
8441,-640
8442,-642
8443,-641
8444,-640
8445,-638
8446,-638
8447,-642
8448,-641
8449,-639
8450,-637
8451,-639
8452,-642
8453,-641
8454,-639
8455,-637
8456,-639
8457,-642
8458,-641
8459,-639
8460,-638
8461,-640
8462,-643
8463,-641
8464,-639
8465,-639
8466,-639
8467,-642
8468,-642
8469,-639
8470,-637
8471,-639
8472,-642
8473,-641
8474,-640
8475,-637
8476,-638
8477,-641
8478,-643
8479,-639
8480,-637
8481,-638
8482,-641
8483,-642
8484,-639
8485,-638
8486,-639
8487,-641
8488,-642
8489,-640
8490,-637
8491,-639
8492,-641
8493,-642
8494,-640
8495,-637
8496,-638
8497,-641
8498,-642
8499,-639
8500,-637
8501,-638
8502,-642
8503,-642
8504,-639
8505,-636
8506,-638
8507,-641
8508,-642
8509,-640
8510,-636
8511,-639
8512,-641
8513,-642
8514,-639
8515,-637
8516,-639
8517,-641
8518,-642
8519,-640
8520,-637
8521,-638
8522,-640
8523,-641
8524,-639
8525,-638
8526,-638
8527,-642
8528,-641
8529,-640
8530,-637
8531,-638
8532,-641
8533,-641
8534,-641
8535,-638
8536,-638
8537,-642
8538,-642
8539,-640
8540,-637
8541,-639
8542,-642
8543,-642
8544,-639
8545,-638
8546,-637
8547,-641
8548,-641
8549,-641
8550,-637
8551,-638
8552,-641
8553,-642
8554,-640
8555,-638
8556,-637
8557,-641
8558,-641
8559,-639
8560,-637
8561,-638
8562,-641
8563,-641
8564,-640
8565,-638
8566,-638
8567,-640
8568,-640
8569,-640
8570,-638
8571,-638
8572,-641
8573,-642
8574,-640
8575,-637
8576,-637
8577,-641
8578,-641
8579,-641
8580,-637
8581,-637
8582,-640
8583,-641
8584,-639
8585,-636
8586,-637
8587,-640
8588,-642
8589,-640
8590,-637
8591,-637
8592,-640
8593,-642
8594,-640
8595,-637
8596,-637
8597,-641
8598,-642
8599,-640
8600,-638
8601,-638
8602,-640
8603,-641
8604,-640
8605,-637
8606,-638
8607,-640
8608,-643
8609,-640
8610,-638
8611,-637
8612,-641
8613,-642
8614,-640
8615,-637
8616,-637
8617,-640
8618,-642
8619,-640
8620,-637
8621,-637
8622,-640
8623,-642
8624,-640
8625,-638
8626,-637
8627,-639
8628,-642
8629,-640
8630,-638
8631,-638
8632,-640
8633,-642
8634,-641
8635,-637
8636,-638
8637,-640
8638,-641
8639,-640
8640,-638
8641,-637
8642,-640
8643,-640
8644,-642
8645,-637
8646,-636
8647,-639
8648,-641
8649,-640
8650,-637
8651,-637
8652,-640
8653,-642
8654,-640
8655,-637
8656,-637
8657,-639
8658,-641
8659,-641
8660,-638
8661,-636
8662,-639
8663,-642
8664,-640
8665,-638
8666,-637
8667,-640
8668,-642
8669,-641
8670,-637
8671,-638
8672,-639
8673,-641
8674,-641
8675,-638
8676,-637
8677,-639
8678,-641
8679,-641
8680,-638
8681,-637
8682,-639
8683,-641
8684,-641
8685,-638
8686,-637
8687,-639
8688,-642
8689,-641
8690,-638
8691,-637
8692,-638
8693,-642
8694,-641
8695,-638
8696,-637
8697,-638
8698,-643
8699,-641
8700,-638
8701,-638
8702,-639
8703,-641
8704,-640
8705,-638
8706,-637
8707,-639
8708,-641
8709,-641
8710,-638
8711,-637
8712,-638
8713,-641
8714,-642
8715,-639
8716,-638
8717,-639
8718,-642
8719,-642
8720,-638
8721,-637
8722,-638
8723,-642
8724,-641
8725,-639
8726,-636
8727,-638
8728,-641
8729,-641
8730,-640
8731,-637
8732,-639
8733,-642
8734,-642
8735,-638
8736,-638
8737,-638
8738,-641
8739,-642
8740,-639
8741,-636
8742,-639
8743,-642
8744,-641
8745,-639
8746,-637
8747,-638
8748,-641
8749,-641
8750,-639
8751,-637
8752,-638
8753,-642
8754,-642
8755,-639
8756,-637
8757,-638
8758,-641
8759,-640
8760,-640
8761,-636
8762,-638
8763,-641
8764,-641
8765,-640
8766,-637
8767,-639
8768,-642
8769,-641
8770,-640
8771,-637
8772,-639
8773,-640
8774,-642
8775,-640
8776,-638
8777,-639
8778,-642
8779,-641
8780,-640
8781,-637
8782,-638
8783,-641
8784,-642
8785,-640
8786,-637
8787,-638
8788,-640
8789,-642
8790,-640
8791,-637
8792,-639
8793,-642
8794,-642
8795,-639
8796,-637
8797,-637
8798,-640
8799,-641
8800,-640
8801,-637
8802,-638
8803,-640
8804,-642
8805,-640
8806,-638
8807,-638
8808,-641
8809,-642
8810,-640
8811,-637
8812,-638
8813,-640
8814,-642
8815,-640
8816,-637
8817,-637
8818,-640
8819,-641
8820,-640
8821,-637
8822,-638
8823,-640
8824,-642
8825,-640
8826,-637
8827,-637
8828,-640
8829,-641
8830,-640
8831,-638
8832,-637
8833,-640
8834,-642
8835,-640
8836,-638
8837,-638
8838,-640
8839,-641
8840,-640
8841,-637
8842,-638
8843,-640
8844,-642
8845,-640
8846,-638
8847,-637
8848,-640
8849,-642
8850,-641
8851,-637
8852,-638
8853,-640
8854,-642
8855,-640
8856,-638
8857,-637
8858,-640
8859,-642
8860,-640
8861,-637
8862,-637
8863,-640
8864,-641
8865,-640
8866,-637
8867,-638
8868,-640
8869,-642
8870,-640
8871,-637
8872,-637
8873,-639
8874,-642
8875,-640
8876,-637
8877,-636
8878,-640
8879,-642
8880,-640
8881,-637
8882,-637
8883,-640
8884,-643
8885,-640
8886,-638
8887,-637
8888,-639
8889,-641
8890,-640
8891,-637
8892,-636
8893,-639
8894,-641
8895,-641
8896,-638
8897,-637
8898,-639
8899,-642
8900,-640
8901,-638
8902,-637
8903,-638
8904,-641
8905,-640
8906,-637
8907,-637
8908,-639
8909,-641
8910,-641
8911,-637
8912,-637
8913,-639
8914,-641
8915,-640
8916,-638
8917,-637
8918,-639
8919,-641
8920,-641
8921,-638
8922,-637
8923,-639
8924,-641
8925,-642
8926,-638
8927,-637
8928,-639
8929,-642
8930,-641
8931,-637
8932,-637
8933,-639
8934,-641
8935,-641
8936,-637
8937,-637
8938,-638
8939,-641
8940,-641
8941,-637
8942,-637
8943,-638
8944,-641
8945,-641
8946,-637
8947,-637
8948,-638
8949,-641
8950,-641
8951,-638
8952,-637
8953,-638
8954,-640
8955,-640
8956,-638
8957,-637
8958,-639
8959,-640
8960,-641
8961,-638
8962,-637
8963,-639
8964,-641
8965,-642
8966,-638
8967,-637
8968,-638
8969,-641
8970,-641
8971,-639
8972,-637
8973,-637
8974,-640
8975,-641
8976,-639
8977,-637
8978,-638
8979,-640
8980,-641
8981,-639
8982,-637
8983,-638
8984,-641
8985,-641
8986,-640
8987,-637
8988,-638
8989,-641
8990,-642
8991,-639
8992,-637
8993,-638
8994,-640
8995,-641
8996,-638
8997,-636
8998,-638
8999,-640
9000,-642
9001,-640
9002,-637
9003,-638
9004,-640
9005,-640
9006,-639
9007,-637
9008,-637
9009,-640
9010,-641
9011,-639
9012,-637
9013,-637
9014,-641
9015,-642
9016,-640
9017,-636
9018,-637
9019,-640
9020,-642
9021,-640
9022,-637
9023,-638
9024,-640
9025,-642
9026,-640
9027,-637
9028,-638
9029,-641
9030,-641
9031,-640
9032,-637
9033,-638
9034,-640
9035,-642
9036,-640
9037,-637
9038,-637
9039,-640
9040,-641
9041,-640
9042,-637
9043,-637
9044,-640
9045,-641
9046,-639
9047,-637
9048,-637
9049,-640
9050,-642
9051,-640
9052,-637
9053,-637
9054,-640
9055,-642
9056,-640
9057,-636
9058,-638
9059,-640
9060,-642
9061,-641
9062,-637
9063,-637
9064,-640
9065,-641
9066,-640
9067,-637
9068,-638
9069,-640
9070,-640
9071,-639
9072,-637
9073,-637
9074,-640
9075,-642
9076,-640
9077,-638
9078,-638
9079,-640
9080,-642
9081,-641
9082,-637
9083,-637
9084,-640
9085,-641
9086,-640
9087,-637
9088,-637
9089,-639
9090,-641
9091,-640
9092,-637
9093,-637
9094,-640
9095,-641
9096,-640
9097,-637
9098,-637
9099,-640
9100,-642
9101,-640
9102,-638
9103,-637
9104,-640
9105,-641
9106,-640
9107,-637
9108,-637
9109,-640
9110,-641
9111,-641
9112,-638
9113,-637
9114,-639
9115,-641
9116,-640
9117,-638
9118,-636
9119,-640
9120,-641
9121,-640
9122,-638
9123,-637
9124,-639
9125,-641
9126,-640
9127,-637
9128,-637
9129,-640
9130,-641
9131,-640
9132,-639
9133,-637
9134,-639
9135,-642
9136,-640
9137,-638
9138,-636
9139,-639
9140,-641
9141,-640
9142,-638
9143,-637
9144,-639
9145,-641
9146,-641
9147,-638
9148,-636
9149,-639
9150,-641
9151,-641
9152,-638
9153,-637
9154,-639
9155,-641
9156,-640
9157,-638
9158,-637
9159,-639
9160,-642
9161,-640
9162,-638
9163,-637
9164,-640
9165,-642
9166,-640
9167,-638
9168,-637
9169,-638
9170,-642
9171,-640
9172,-637
9173,-637
9174,-639
9175,-641
9176,-641
9177,-637
9178,-637
9179,-639
9180,-641
9181,-641
9182,-637
9183,-638
9184,-640
9185,-642
9186,-640
9187,-638
9188,-637
9189,-638
9190,-642
9191,-641
9192,-639
9193,-637
9194,-638
9195,-642
9196,-641
9197,-637
9198,-637
9199,-639
9200,-640
9201,-641
9202,-638
9203,-637
9204,-638
9205,-640
9206,-641
9207,-638
9208,-637
9209,-638
9210,-641
9211,-641
9212,-638
9213,-637
9214,-638
9215,-641
9216,-641
9217,-639
9218,-636
9219,-639
9220,-641
9221,-641
9222,-639
9223,-637
9224,-638
9225,-641
9226,-641
9227,-638
9228,-636
9229,-638
9230,-641
9231,-640
9232,-639
9233,-637
9234,-637
9235,-641
9236,-641
9237,-638
9238,-637
9239,-638
9240,-641
9241,-640
9242,-637
9243,-637
9244,-639
9245,-641
9246,-640
9247,-639
9248,-637
9249,-639
9250,-641
9251,-641
9252,-639
9253,-637
9254,-638
9255,-641
9256,-641
9257,-638
9258,-637
9259,-638
9260,-641
9261,-641
9262,-639
9263,-637
9264,-638
9265,-640
9266,-641
9267,-639
9268,-637
9269,-639
9270,-641
9271,-641
9272,-639
9273,-637
9274,-639
9275,-641
9276,-641
9277,-640
9278,-637
9279,-639
9280,-640
9281,-641
9282,-638
9283,-637
9284,-637
9285,-640
9286,-641
9287,-640
9288,-637
9289,-639
9290,-641
9291,-642
9292,-640
9293,-637
9294,-639
9295,-641
9296,-641
9297,-639
9298,-637
9299,-638
9300,-640
9301,-641
9302,-639
9303,-638
9304,-637
9305,-641
9306,-641
9307,-640
9308,-637
9309,-637
9310,-641
9311,-641
9312,-640
9313,-637
9314,-638
9315,-640
9316,-641
9317,-639
9318,-637
9319,-638
9320,-641
9321,-642
9322,-639
9323,-638
9324,-637
9325,-641
9326,-641
9327,-641
9328,-637
9329,-638
9330,-641
9331,-642
9332,-641
9333,-637
9334,-638
9335,-641
9336,-642
9337,-640
9338,-637
9339,-638
9340,-640
9341,-642
9342,-640
9343,-638
9344,-638
9345,-640
9346,-642
9347,-641
9348,-638
9349,-638
9350,-640
9351,-641
9352,-640
9353,-637
9354,-638
9355,-640
9356,-641
9357,-640
9358,-637
9359,-638
9360,-641
9361,-642
9362,-640
9363,-637
9364,-637
9365,-640
9366,-642
9367,-640
9368,-638
9369,-637
9370,-640
9371,-642
9372,-640
9373,-637
9374,-638
9375,-640
9376,-641
9377,-640
9378,-637
9379,-638
9380,-640
9381,-642
9382,-640
9383,-638
9384,-637
9385,-640
9386,-642
9387,-640
9388,-637
9389,-638
9390,-639
9391,-642
9392,-640
9393,-638
9394,-637
9395,-640
9396,-642
9397,-641
9398,-638
9399,-638
9400,-639
9401,-641
9402,-640
9403,-638
9404,-638
9405,-640
9406,-642
9407,-640
9408,-638
9409,-638
9410,-640
9411,-643
9412,-640
9413,-638
9414,-639
9415,-640
9416,-642
9417,-640
9418,-638
9419,-637
9420,-640
9421,-642
9422,-640
9423,-638
9424,-638
9425,-639
9426,-641
9427,-640
9428,-639
9429,-636
9430,-640
9431,-642
9432,-641
9433,-638
9434,-637
9435,-640
9436,-642
9437,-640
9438,-638
9439,-637
9440,-640
9441,-642
9442,-640
9443,-639
9444,-638
9445,-640
9446,-641
9447,-641
9448,-638
9449,-637
9450,-640
9451,-641
9452,-640
9453,-638
9454,-637
9455,-639
9456,-642
9457,-641
9458,-638
9459,-637
9460,-639
9461,-642
9462,-641
9463,-638
9464,-637
9465,-639
9466,-642
9467,-641
9468,-639
9469,-638
9470,-639
9471,-642
9472,-641
9473,-638
9474,-637
9475,-639
9476,-641
9477,-641
9478,-637
9479,-638
9480,-639
9481,-641
9482,-640
9483,-638
9484,-638
9485,-640
9486,-643
9487,-642
9488,-639
9489,-637
9490,-640
9491,-642
9492,-642
9493,-638
9494,-637
9495,-640
9496,-642
9497,-642
9498,-639
9499,-637
9500,-639
9501,-643
9502,-641
9503,-639
9504,-637
9505,-639
9506,-642
9507,-640
9508,-639
9509,-637
9510,-639
9511,-642
9512,-640
9513,-639
9514,-637
9515,-639
9516,-641
9517,-642
9518,-638
9519,-637
9520,-639
9521,-642
9522,641
9523,-639
9524,-637
9525,-639
9526,-641
9527,-641
9528,-639
9529,-637
9530,-639
9531,-641
9532,-641
9533,-639
9534,-637
9535,-638
9536,-641
9537,-641
9538,-639
9539,-637
9540,-638
9541,-642
9542,-641
9543,-638
9544,-637
9545,-638
9546,-642
9547,-642
9548,-637
9549,-637
9550,-638
9551,-641
9552,-642
9553,-639
9554,-637
9555,-639
9556,-642
9557,-641
9558,-639
9559,-637
9560,-639
9561,-642
9562,-643
9563,-639
9564,-637
9565,-638
9566,-641
9567,-642
9568,-638
9569,-637
9570,-638
9571,-641
9572,-642
9573,-639
9574,-637
9575,-638
9576,-641
9577,-641
9578,-639
9579,-637
9580,-638
9581,-640
9582,-641
9583,-639
9584,-636
9585,-638
9586,-640
9587,-640
9588,-639
9589,-636
9590,-638
9591,-641
9592,-642
9593,-639
9594,-637
9595,-637
9596,-641
9597,-641
9598,-639
9599,-637
9600,-637
9601,-641
9602,-641
9603,-639
9604,-637
9605,-638
9606,-640
9607,-641
9608,-639
9609,-637
9610,-639
9611,-641
9612,-642
9613,-639
9614,-637
9615,-637
9616,-641
9617,-642
9618,-640
9619,-637
9620,-638
9621,-641
9622,-642
9623,-639
9624,-637
9625,-638
9626,-641
9627,-642
9628,-639
9629,-637
9630,-637
9631,-640
9632,-641
9633,-640
9634,-637
9635,-637
9636,-640
9637,-640
9638,-640
9639,-636
9640,-638
9641,-641
9642,-641
9643,-640
9644,-638
9645,-638
9646,-641
9647,-642
9648,-640
9649,-636
9650,-638
9651,-640
9652,-641
9653,-640
9654,-636
9655,-638
9656,-640
9657,-642
9658,-640
9659,-637
9660,-638
9661,-641
9662,-641
9663,-641
9664,-636
9665,-638
9666,-640
9667,-641
9668,-640
9669,-637
9670,-638
9671,-640
9672,-642
9673,-639
9674,-637
9675,-637
9676,-640
9677,-642
9678,-640
9679,-636
9680,-638
9681,-641
9682,-641
9683,-640
9684,-637
9685,-637
9686,-640
9687,-641
9688,-640
9689,-637
9690,-637
9691,-640
9692,-641
9693,-641
9694,-637
9695,-637
9696,-640
9697,-642
9698,-641
9699,-636
9700,-638
9701,-640
9702,-641
9703,-639
9704,-637
9705,-637
9706,-640
9707,-641
9708,-640
9709,-637
9710,-638
9711,-640
9712,-642
9713,-640
9714,-639
9715,-637
9716,-639
9717,-641
9718,-640
9719,-637
9720,-637
9721,-640
9722,-642
9723,-640
9724,-638
9725,-637
9726,-639
9727,-641
9728,-640
9729,-637
9730,-638
9731,-640
9732,-642
9733,-641
9734,-637
9735,-638
9736,-640
9737,-641
9738,-641
9739,-637
9740,-637
9741,-639
9742,-641
9743,-640
9744,-638
9745,-637
9746,-640
9747,-641
9748,-640
9749,-638
9750,-637
9751,-640
9752,-641
9753,-640
9754,-637
9755,-636
9756,-640
9757,-641
9758,-641
9759,-638
9760,-637
9761,-639
9762,-641
9763,-640
9764,-637
9765,-637
9766,-640
9767,-641
9768,-640
9769,-638
9770,-636
9771,-639
9772,-642
9773,-641
9774,-638
9775,-637
9776,-640
9777,-642
9778,-641
9779,-639
9780,-638
9781,-639
9782,-641
9783,-641
9784,-638
9785,-637
9786,-639
9787,-642
9788,-642
9789,-638
9790,-638
9791,-640
9792,-641
9793,-641
9794,-638
9795,-638
9796,-639
9797,-642
9798,-641
9799,-639
9800,-637
9801,-639
9802,-642
9803,-641
9804,-639
9805,-638
9806,-639
9807,-642
9808,-641
9809,-639
9810,-638
9811,-639
9812,-642
9813,-641
9814,-638
9815,-637
9816,-641
9817,-641
9818,-638
9819,-637
9820,-638
9821,-641
9822,-641
9823,-638
9824,-637
9825,-639
9826,-641
9827,-641
9828,-638
9829,-637
9830,-639
9831,-641
9832,-641
9833,-639
9834,-636
9835,-639
9836,-642
9837,-641
9838,-639
9839,-638
9840,-639
9841,-641
9842,-642
9843,-639
9844,-638
9845,-639
9846,-641
9847,-642
9848,-639
9849,-637
9850,-639
9851,-642
9852,-641
9853,-638
9854,-637
9855,-639
9856,-642
9857,-641
9858,-639
9859,-638
9860,-639
9861,-642
9862,-641
9863,-639
9864,-638
9865,-639
9866,-642
9867,-641
9868,-639
9869,-637
9870,-639
9871,-642
9872,-642
9873,-638
9874,-637
9875,-639
9876,-643
9877,-641
9878,-639
9879,-637
9880,-639
9881,-643
9882,-642
9883,-639
9884,-637
9885,-640
9886,-641
9887,-641
9888,-640
9889,-637
9890,-639
9891,-642
9892,-641
9893,-640
9894,-637
9895,-639
9896,-642
9897,-641
9898,-640
9899,-638
9900,-639
9901,-642
9902,-642
9903,-639
9904,-637
9905,-639
9906,-642
9907,-641
9908,-639
9909,-637
9910,-638
9911,-642
9912,-641
9913,-640
9914,-639
9915,-638
9916,-642
9917,-642
9918,-640
9919,-638
9920,-639
9921,-641
9922,-641
9923,-640
9924,-637
9925,-638
9926,-641
9927,-642
9928,-639
9929,-637
9930,-639
9931,-642
9932,-642
9933,-640
9934,-638
9935,-639
9936,-641
9937,-642
9938,-640
9939,-638
9940,-640
9941,-642
9942,-642
9943,-639
9944,-638
9945,-639
9946,-642
9947,-642
9948,-639
9949,-637
9950,-639
9951,-642
9952,-642
9953,-639
9954,-637
9955,-639
9956,-642
9957,-642
9958,-640
9959,-637
9960,-638
9961,-642
9962,-642
9963,-639
9964,-637
9965,-639
9966,-641
9967,-641
9968,-640
9969,-638
9970,-639
9971,-642
9972,-642
9973,-640
9974,-638
9975,-639
9976,-642
9977,-642
9978,-640
9979,-637
9980,-639
9981,-641
9982,-642
9983,-641
9984,-637
9985,-638
9986,-641
9987,-642
9988,-639
9989,-636
9990,-638
9991,-642
9992,-642
9993,-640
9994,-637
9995,-639
9996,-641
9997,-642
9998,-640
9999,-638
10000,-639
