,0
0,-667
1,-666
2,-664
3,-663
4,-665
5,-667
6,-667
7,-664
8,-663
9,-665
10,-668
11,-666
12,-664
13,-663
14,-665
15,-668
16,-666
17,-663
18,-663
19,-664
20,-667
21,-667
22,-664
23,-663
24,-665
25,-667
26,-666
27,-664
28,-663
29,-664
30,-667
31,-666
32,-664
33,-663
34,-664
35,-667
36,-665
37,-664
38,-662
39,-665
40,-667
41,-666
42,-664
43,-663
44,-664
45,-666
46,-666
47,-664
48,-662
49,-664
50,-668
51,-665
52,-664
53,-662
54,-663
55,-667
56,-666
57,-664
58,-662
59,-664
60,-666
61,-666
62,-664
63,-662
64,-664
65,-667
66,-666
67,-663
68,-663
69,-664
70,-667
71,-666
72,-663
73,-662
74,-665
75,-666
76,-665
77,-663
78,-662
79,-664
80,-667
81,-665
82,-663
83,-662
84,-664
85,-667
86,-665
87,-664
88,-662
89,-664
90,-666
91,-666
92,-662
93,-662
94,-663
95,-667
96,-665
97,-663
98,-661
99,-664
100,-667
101,-666
102,-663
103,-662
104,-665
105,-667
106,-666
107,-662
108,-663
109,-664
110,-667
111,-665
112,-663
113,-662
114,-665
115,-667
116,-666
117,-664
118,-661
119,-664
120,-666
121,-665
122,-663
123,-663
124,-664
125,-666
126,-665
127,-662
128,-662
129,-664
130,-666
131,-665
132,-662
133,-661
134,-665
135,-666
136,-665
137,-662
138,-661
139,-664
140,-667
141,-665
142,-661
143,-662
144,-664
145,-666
146,-665
147,-663
148,-662
149,-665
150,-666
151,-665
152,-662
153,-663
154,-663
155,-666
156,-665
157,-662
158,-662
159,-664
160,-666
161,-665
162,-662
163,-661
164,-664
165,-666
166,-665
167,-661
168,-661
169,-664
170,-665
171,-665
172,-662
173,-662
174,-663
175,-666
176,-665
177,-661
178,-662
179,-664
180,-666
181,-666
182,-662
183,-662
184,-664
185,-666
186,-665
187,-661
188,-662
189,-664
190,-666
191,-664
192,-662
193,-661
194,-665
195,-666
196,-665
197,-661
198,-661
199,-664
200,-665
201,-664
202,-661
203,-661
204,-664
205,-666
206,-664
207,-661
208,-662
209,-664
210,-666
211,-665
212,-661
213,-662
214,-664
215,-665
216,-664
217,-662
218,-661
219,-664
220,-666
221,-665
222,-662
223,-662
224,-665
225,-666
226,-664
227,-662
228,-663
229,-665
230,-666
231,-665
232,-662
233,-661
234,-664
235,-666
236,-665
237,-662
238,-662
239,-665
240,-666
241,-664
242,-662
243,-662
244,-666
245,-666
246,-664
247,-663
248,-662
249,-664
250,-666
251,-664
252,-663
253,-662
254,-664
255,-666
256,-664
257,-662
258,-662
259,-665
260,-666
261,-664
262,-662
263,-662
264,-664
265,-666
266,-664
267,-662
268,-662
269,-665
270,-666
271,-665
272,-662
273,-663
274,-664
275,-666
276,-665
277,-661
278,-662
279,-665
280,-667
281,-664
282,-662
283,-663
284,-665
285,-666
286,-665
287,-661
288,-663
289,-665
290,-666
291,-664
292,-662
293,-662
294,-665
295,-667
296,-665
297,-661
298,-662
299,-665
300,-666
301,-665
302,-662
303,-663
304,-664
305,-666
306,-664
307,-661
308,-661
309,-664
310,-666
311,-664
312,-661
313,-663
314,-664
315,-666
316,-664
317,-661
318,-661
319,-665
320,-666
321,-663
322,-662
323,-662
324,-664
325,-666
326,-664
327,-661
328,-661
329,-664
330,-666
331,-664
332,-661
333,-663
334,-664
335,-666
336,-664
337,-661
338,-662
339,-665
340,-666
341,-664
342,-660
343,-661
344,-664
345,-665
346,-664
347,-661
348,-662
349,-665
350,-666
351,-665
352,-661
353,-661
354,-664
355,-666
356,-664
357,-661
358,-662
359,-664
360,-666
361,-664
362,-661
363,-661
364,-664
365,-666
366,-663
367,-661
368,-662
369,-664
370,-665
371,-663
372,-660
373,-662
374,-665
375,-665
376,-664
377,-662
378,-662
379,-663
380,-665
381,-663
382,-660
383,-662
384,-665
385,-666
386,-664
387,-661
388,-662
389,-665
390,-665
391,-665
392,-660
393,-661
394,-665
395,-665
396,-663
397,-661
398,-661
399,-664
400,-665
401,-663
402,-661
403,-662
404,-664
405,-665
406,-664
407,-660
408,-662
409,-665
410,-665
411,-663
412,-661
413,-662
414,-664
415,-665
416,-664
417,-661
418,-662
419,-664
420,-665
421,-663
422,-662
423,-662
424,-664
425,-665
426,-663
427,-661
428,-663
429,-664
430,-666
431,-663
432,-660
433,-661
434,-665
435,-665
436,-663
437,-661
438,-662
439,-665
440,-665
441,-663
442,-661
443,-662
444,-664
445,-665
446,-663
447,-661
448,-662
449,-664
450,-665
451,-663
452,-660
453,-662
454,-664
455,-666
456,-664
457,-661
458,-662
459,-665
460,-664
461,-664
462,-660
463,-661
464,-665
465,-665
466,-664
467,-661
468,-662
469,-665
470,-666
471,-663
472,-661
473,-661
474,-664
475,-665
476,-663
477,-661
478,-661
479,-665
480,-665
481,-663
482,-660
483,-662
484,-665
485,-665
486,-663
487,-660
488,-662
489,-665
490,-666
491,-663
492,-661
493,-662
494,-665
495,-664
496,-664
497,-661
498,-662
499,-665
500,-665
501,-664
502,-660
503,-661
504,-665
505,-666
506,-663
507,-660
508,-662
509,-665
510,-666
511,-662
512,-661
513,-662
514,-665
515,-666
516,-664
517,-662
518,-663
519,-665
520,-665
521,-663
522,-662
523,-662
524,-665
525,-665
526,-663
527,-661
528,-662
529,-666
530,-665
531,-664
532,-661
533,-662
534,-665
535,-665
536,-664
537,-662
538,-662
539,-665
540,-666
541,-663
542,-661
543,-662
544,-664
545,-666
546,-663
547,-662
548,-663
549,-665
550,-665
551,-665
552,-662
553,-663
554,-665
555,-666
556,-664
557,-661
558,-663
559,-665
560,-666
561,-664
562,-662
563,-663
564,-666
565,-666
566,-664
567,-663
568,-662
569,-665
570,-666
571,-664
572,-662
573,-663
574,-666
575,-666
576,-663
577,-661
578,-662
579,-666
580,-665
581,-664
582,-661
583,-662
584,-666
585,-666
586,-663
587,-662
588,-663
589,-665
590,-666
591,-664
592,-662
593,-663
594,-666
595,-666
596,-663
597,-661
598,-663
599,-665
600,-666
601,-665
602,-663
603,-663
604,-666
605,-666
606,-665
607,-662
608,-663
609,-665
610,-667
611,-664
612,-662
613,-664
614,-667
615,-666
616,-664
617,-661
618,-663
619,-666
620,-666
621,-664
622,-662
623,-663
624,-666
625,-666
626,-664
627,-662
628,-664
629,-666
630,-666
631,-664
632,-662
633,-663
634,-666
635,-666
636,-663
637,-663
638,-664
639,-666
640,-666
641,-664
642,-662
643,-663
644,-666
645,-667
646,-664
647,-662
648,-663
649,-666
650,-665
651,-664
652,-662
653,-664
654,-666
655,-666
656,-663
657,-662
658,-663
659,-666
660,-666
661,-663
662,-662
663,-663
664,-666
665,-666
666,-665
667,-662
668,-663
669,-665
670,-666
671,-663
672,-662
673,-663
674,-665
675,-666
676,-665
677,-661
678,-662
679,-666
680,-666
681,-664
682,-661
683,-662
684,-666
685,-666
686,-663
687,-661
688,-663
689,-664
690,-665
691,-663
692,-662
693,-663
694,-666
695,-666
696,-664
697,-662
698,-663
699,-666
700,-665
701,-664
702,-661
703,-663
704,-665
705,-667
706,-662
707,-661
708,-662
709,-665
710,-665
711,-663
712,-661
713,-662
714,-665
715,-666
716,-663
717,-660
718,-662
719,-665
720,-664
721,-663
722,-661
723,-662
724,-665
725,-665
726,-663
727,-661
728,-662
729,-665
730,-665
731,-663
732,-661
733,-662
734,-665
735,-665
736,-663
737,-662
738,-662
739,-666
740,-665
741,-663
742,-661
743,-663
744,-665
745,-665
746,-663
747,-661
748,-663
749,-666
750,-665
751,-663
752,-661
753,-663
754,-666
755,-666
756,-663
757,-662
758,-662
759,-666
760,-665
761,-663
762,-662
763,-663
764,-666
765,-666
766,-664
767,-663
768,-664
769,-666
770,-666
771,-664
772,-662
773,-662
774,-666
775,-666
776,-663
777,-662
778,-663
779,-666
780,-666
781,-664
782,-662
783,-662
784,-666
785,-666
786,-664
787,-662
788,-663
789,-666
790,-666
791,-664
792,-662
793,-664
794,-666
795,-666
796,-664
797,-662
798,-663
799,-665
800,-666
801,-664
802,-662
803,-663
804,-666
805,-666
806,-664
807,-663
808,-663
809,-666
810,-666
811,-663
812,-663
813,-663
814,-666
815,-666
816,-663
817,-662
818,-663
819,-666
820,-666
821,-663
822,-663
823,-663
824,-666
825,-666
826,-664
827,-662
828,-663
829,-667
830,-666
831,-665
832,-663
833,-664
834,-667
835,-667
836,-664
837,-662
838,-663
839,-666
840,-667
841,-664
842,-663
843,-663
844,-666
845,-666
846,-664
847,-663
848,-664
849,-667
850,-666
851,-665
852,-663
853,-664
854,-667
855,-667
856,-665
857,-663
858,-664
859,-667
860,-668
861,-665
862,-663
863,-664
864,-668
865,-667
866,-666
867,-664
868,-665
869,-668
870,-667
871,-664
872,-663
873,-664
874,-667
875,-667
876,-664
877,-663
878,-665
879,-667
880,-668
881,-665
882,-664
883,-665
884,-668
885,-668
886,-665
887,-664
888,-665
889,-668
890,-669
891,-666
892,-663
893,-665
894,-668
895,-667
896,-666
897,-664
898,-666
899,-668
900,-668
901,-666
902,-664
903,-666
904,-668
905,-670
906,-667
907,-664
908,-666
909,-669
910,-669
911,-667
912,-664
913,-666
914,-669
915,-669
916,-667
917,-665
918,-667
919,-669
920,-670
921,-667
922,-665
923,-666
924,-670
925,-669
926,-667
927,-666
928,-667
929,-669
930,-670
931,-667
932,-665
933,-668
934,-670
935,-670
936,-668
937,-665
938,-667
939,-670
940,-670
941,-668
942,-665
943,-668
944,-671
945,-669
946,-669
947,-667
948,-668
949,-670
950,-671
951,-669
952,-666
953,-667
954,-671
955,-671
956,-668
957,-666
958,-667
959,-672
960,-671
961,-670
962,-668
963,-669
964,-671
965,-672
966,-669
967,-667
968,-669
969,-671
970,-671
971,-669
972,-668
973,-669
974,-671
975,-672
976,-669
977,-668
978,-668
979,-671
980,-672
981,-669
982,-667
983,-669
984,-671
985,-672
986,-670
987,-667
988,-669
989,-673
990,-672
991,-670
992,-668
993,-670
994,-673
995,-672
996,-670
997,-668
998,-670
999,-672
1000,-672
