,0
0,-759
1,-760
2,-761
3,-762
4,-764
5,-766
6,-767
7,-767
8,-765
9,-765
10,-768
11,-770
12,-766
13,-765
14,-766
15,-768
16,-768
17,-767
18,-765
19,-765
20,-769
21,-769
22,-766
23,-763
24,-766
25,-768
26,-769
27,-767
28,-765
29,-765
30,-767
31,-768
32,-767
33,-764
34,-764
35,-767
36,-769
37,-767
38,-764
39,-765
40,-768
41,-769
42,-767
43,-765
44,-765
45,-768
46,-768
47,-767
48,-764
49,-766
50,-768
51,-769
52,-767
53,-765
54,-765
55,-767
56,-769
57,-767
58,-764
59,-766
60,-769
61,-770
62,-767
63,-766
64,-764
65,-767
66,-768
67,-767
68,-759
69,-756
70,-757
71,-760
72,-761
73,-764
74,-764
75,-768
76,-766
77,-762
78,-756
79,-753
80,-754
81,-756
82,-758
83,-759
84,-762
85,-766
86,-767
87,-761
88,-756
89,-753
90,-756
91,-759
92,-763
93,-764
94,-765
95,-767
96,-772
97,-770
98,-764
99,-764
100,-768
101,-761
102,-754
103,-746
104,-747
105,-752
106,-759
107,-763
108,-762
109,-765
110,-768
111,-767
112,-764
113,-758
114,-753
115,-751
116,-751
117,-752
118,-753
119,-758
120,-763
121,-766
122,-764
123,-761
124,-761
125,-763
126,-761
127,-755
128,-747
129,-742
130,-741
131,-741
132,-738
133,-735
134,-739
135,-742
136,-740
137,-735
138,-724
139,-714
140,-710
141,-703
142,-698
143,-695
144,-695
145,-696
146,-697
147,-693
148,-689
149,-686
150,-683
151,-683
152,-679
153,-677
154,-674
155,-674
156,-674
157,-669
158,-664
159,-661
160,-658
161,-656
162,-653
163,-647
164,-645
165,-646
166,-649
167,-652
168,-649
169,-648
170,-648
171,-648
172,-642
173,-635
174,-632
175,-635
176,-637
177,-634
178,-634
179,-636
180,-639
181,-641
182,-639
183,-632
184,-633
185,-636
186,-643
187,-644
188,-642
189,-640
190,-640
191,-639
192,-634
193,-629
194,-627
195,-630
196,-634
197,-637
198,-636
199,-633
200,-631
201,-626
202,-616
203,-607
204,-600
205,-596
206,-594
207,-590
208,-581
209,-576
210,-572
211,-566
212,-557
213,-550
214,-548
215,-551
216,-554
217,-551
218,-547
219,-543
220,-544
221,-542
222,-538
223,-533
224,-530
225,-530
226,-533
227,-535
228,-534
229,-536
230,-539
231,-538
232,-536
233,-533
234,-530
235,-527
236,-527
237,-523
238,-517
239,-514
240,-515
241,-520
242,-521
243,-522
244,-522
245,-527
246,-533
247,-534
248,-531
249,-529
250,-531
251,-533
252,-530
253,-525
254,-522
255,-521
256,-522
257,-518
258,-515
259,-512
260,-516
261,-519
262,-518
263,-516
264,-515
265,-518
266,-520
267,-519
268,-514
269,-511
270,-512
271,-512
272,-510
273,-504
274,-503
275,-504
276,-506
277,-504
278,-501
279,-498
280,-501
281,-506
282,-507
283,-506
284,-504
285,-505
286,-509
287,-507
288,-505
289,-503
290,-504
291,-507
292,-506
293,-504
294,-503
295,-504
296,-507
297,-507
298,-504
299,-502
300,-504
301,-508
302,-506
303,-505
304,-502
305,-503
306,-507
307,-507
308,-504
309,-503
310,-504
311,-507
312,-507
313,-505
314,-503
315,-503
316,-506
317,-507
318,-506
319,-503
320,-503
321,-507
322,-507
323,-505
324,-503
325,-503
326,-507
327,-507
328,-505
329,-503
330,-504
331,-508
332,-507
333,-505
334,-503
335,-504
336,-507
337,-507
338,-505
339,-503
340,-504
341,-507
342,-508
343,-504
344,-503
345,-504
346,-507
347,-506
348,-506
349,-504
350,-504
351,-507
352,-507
353,-506
354,-503
355,-504
356,-508
357,-507
358,-505
359,-503
360,-503
361,-507
362,-507
363,-505
364,-502
365,-504
366,-507
367,-508
368,-506
369,-502
370,-504
371,-506
372,-507
373,-505
374,-503
375,-505
376,-506
377,-507
378,-505
379,-502
380,-503
381,-506
382,-507
383,-507
384,-504
385,-504
386,-506
387,-507
388,-505
389,-502
390,-503
391,-506
392,-508
393,-505
394,-503
395,-504
396,-506
397,-507
398,-505
399,-503
400,-503
401,-507
402,-506
403,-506
404,-502
405,-503
406,-507
407,-508
408,-505
409,-504
410,-503
411,-506
412,-507
413,-505
414,-503
415,-504
416,-507
417,-508
418,-506
419,-503
420,-503
421,-505
422,-507
423,-505
424,-503
425,-503
426,-506
427,-507
428,-505
429,-502
430,-503
431,-506
432,-506
433,-506
434,-504
435,-503
436,-505
437,-507
438,-506
439,-503
440,-504
441,-507
442,-507
443,-506
444,-503
445,-504
446,-506
447,-507
448,-507
449,-503
450,-503
451,-506
452,-507
453,-506
454,-503
455,-503
456,-505
457,-507
458,-505
459,-503
460,-503
461,-507
462,-507
463,-506
464,-503
465,-504
466,-506
467,-507
468,-507
469,-503
470,-503
471,-506
472,-507
473,-507
474,-504
475,-504
476,-506
477,-508
478,-506
479,-503
480,-503
481,-505
482,-507
483,-506
484,-503
485,-504
486,-506
487,-507
488,-507
489,-503
490,-503
491,-505
492,-507
493,-507
494,-504
495,-503
496,-506
497,-507
498,-507
499,-503
500,-503
501,-506
502,-507
503,-506
504,-502
505,-505
506,-507
507,-506
508,-503
509,-503
510,-505
511,-506
512,-506
513,-503
514,-502
515,-505
516,-507
517,-506
518,-504
519,-503
520,-505
521,-508
522,-507
523,-503
524,-503
525,-505
526,-507
527,-507
528,-504
529,-503
530,-505
531,-507
532,-506
533,-503
534,-504
535,-505
536,-507
537,-506
538,-504
539,-503
540,-504
541,-506
542,-507
543,-503
544,-504
545,-505
546,-508
547,-506
548,-503
549,-503
550,-504
551,-507
552,-507
553,-504
554,-503
555,-505
556,-507
557,-507
558,-503
559,-502
560,-503
561,-507
562,-506
563,-504
564,-503
565,-505
566,-506
567,-506
568,-503
569,-502
570,-505
571,-507
572,-506
573,-503
574,-503
575,-504
576,-507
577,-506
578,-504
579,-503
580,-504
581,-507
582,-507
583,-503
584,-502
585,-503
586,-506
587,-506
588,-503
589,-502
590,-504
591,-507
592,-505
593,-503
594,-502
595,-504
596,-507
597,-506
598,-503
599,-503
600,-503
601,-507
602,-505
603,-503
604,-502
605,-504
606,-506
607,-505
608,-503
609,-502
610,-503
611,-506
612,-506
613,-502
614,-502
615,-502
616,-506
617,-506
618,-503
619,-501
620,-503
621,-506
622,-505
623,-505
624,-503
625,-504
626,-506
627,-505
628,-503
629,-501
630,-503
631,-506
632,-506
633,-503
634,-501
635,-503
636,-506
637,-505
638,-503
639,-501
640,-503
641,-506
642,-505
643,-504
644,-502
645,-502
646,-506
647,-506
648,-503
649,-501
650,-503
651,-506
652,-505
653,-503
654,-501
655,-503
656,-506
657,-505
658,-504
659,-501
660,-502
661,-506
662,5
663,-504
664,-502
665,-503
666,-506
667,-506
668,-504
669,-500
670,-502
671,-504
672,-505
673,-503
674,-501
675,-502
676,-505
677,-506
678,-504
679,-501
680,-502
681,-505
682,-505
683,-503
684,-501
685,-503
686,-506
687,-505
688,-503
689,-502
690,-501
691,-505
692,-505
693,-504
694,-502
695,-503
696,-504
697,-506
698,-503
699,-501
700,-503
701,-505
702,-505
703,-504
704,-501
705,-502
706,-506
707,-505
708,-503
709,-501
710,-502
711,-505
712,-505
713,-502
714,-501
715,-502
716,-505
717,-506
718,-503
719,-501
720,-501
721,-504
722,-505
723,-503
724,-501
725,-501
726,-505
727,-505
728,-504
729,-500
730,-502
731,-504
732,-506
733,-504
734,-501
735,-503
736,-505
737,-505
738,-504
739,-500
740,-502
741,-505
742,-506
743,-505
744,-501
745,-502
746,-504
747,-505
748,-503
749,-501
750,-502
751,-506
752,-505
753,-504
754,-502
755,-502
756,-504
757,-505
758,-504
759,-501
760,-502
761,-505
762,-506
763,-503
764,-501
765,-502
766,-505
767,-505
768,-504
769,-501
770,-502
771,-505
772,-506
773,-504
774,-501
775,-502
776,-505
777,-506
778,-503
779,-501
780,-502
781,-504
782,-506
783,-504
784,-501
785,-501
786,-504
787,-506
788,-504
789,-502
790,-501
791,-504
792,-505
793,-504
794,-501
795,-502
796,-505
797,-506
798,-504
799,-501
800,-501
801,-504
802,-505
803,-504
804,-502
805,-502
806,-504
807,-507
808,-504
809,-502
810,-501
811,-505
812,-506
813,-505
814,-503
815,-503
816,-504
817,-505
818,-504
819,-502
820,-501
821,-505
822,-506
823,-505
824,-501
825,-502
826,-505
827,-505
828,-505
829,-501
830,-502
831,-504
832,-506
833,-505
834,-501
835,-502
836,-504
837,-506
838,-505
839,-502
840,-503
841,-504
842,-506
843,-504
844,-502
845,-502
846,-504
847,-507
848,-505
849,-502
850,-502
851,-504
852,-506
853,-505
854,-502
855,-502
856,-505
857,-506
858,-505
859,-502
860,-502
861,-505
862,-506
863,-505
864,-502
865,-502
866,-504
867,-507
868,-505
869,-503
870,-503
871,-504
872,-506
873,-505
874,-501
875,-502
876,-504
877,-506
878,-505
879,-502
880,-502
881,-504
882,-506
883,-506
884,-503
885,-501
886,-504
887,-507
888,-505
889,-501
890,-502
891,-505
892,-507
893,-505
894,-503
895,-502
896,-504
897,-506
898,-504
899,-502
900,-501
901,-504
902,-506
903,-504
904,-502
905,-501
906,-505
907,-505
908,-505
909,-504
910,-502
911,-505
912,-505
913,-505
914,-503
915,-501
916,-503
917,-507
918,-505
919,-502
920,-503
921,-504
922,-506
923,-506
924,-502
925,-503
926,-503
927,-505
928,-505
929,-502
930,-503
931,-503
932,-506
933,-504
934,-502
935,-502
936,-504
937,-506
938,-505
939,-502
940,-501
941,-503
942,-506
943,-505
944,-502
945,-501
946,-503
947,-505
948,-505
949,-501
950,-502
951,-504
952,-506
953,-505
954,-502
955,-501
956,-503
957,-505
958,-505
959,-501
960,-502
961,-503
962,-506
963,-506
964,-502
965,-501
966,-504
967,-505
968,-505
969,-502
970,-501
971,-503
972,-506
973,-504
974,-502
975,-501
976,-503
977,-506
978,-505
979,-502
980,-501
981,-502
982,-506
983,-505
984,-502
985,-501
986,-502
987,-506
988,-505
989,-502
990,-501
991,-503
992,-506
993,-505
994,-502
995,-501
996,-503
997,-506
998,-504
999,-502
1000,-501
